//Numpy array shape [3, 3, 64, 1]
//Min -0.692561924458
//Max 0.573217332363
//Number of zeros 0

#ifndef W14_H_
#define W14_H_

#ifndef __SYNTHESIS__
conv_dw_2_weight_t w14[576];
#else
conv_dw_2_weight_t w14[576] = {-0.7322399616, -0.5896480680, -0.8324660063, -0.5337499380, -1.0533422232, -2.9017834663, -1.0084565878, -0.4350537062, -1.4161772728, -0.2849505246, -1.2167248726, -0.6973482370, -1.1659491062, -0.6562138200, -0.3592481613, -0.9711282849, -1.2256052494, -1.6930011511, -0.6702714562, -0.6342305541, -1.5753291845, -0.9505080581, -1.3458192348, -0.6411844492, -0.5478077531, -0.6083297133, -0.6708853841, -2.0462105274, -0.7352514863, -0.5995112062, -0.6712410450, -0.6967980862, -0.6696481109, -0.9278159142, -0.8328211904, -1.5639730692, -0.8821533322, -0.6373091340, -0.3099758327, -0.3197507858, -1.9022964239, -0.3129419088, -0.5417135954, -3.9032523632, -0.6369935870, -0.3261768520, -0.7040088177, -0.6239352226, -2.3622918129, -1.1718164682, -0.9569390416, -0.5412611365, -1.0199543238, -1.0393201113, -1.5691158772, -0.7501663566, -0.9245188832, -1.7475073338, -0.6603245735, -1.1711456776, -0.8989939094, -0.3666719794, -0.9791238904, -0.4723567069, 0.1328218728, 0.1069569588, 0.1510019898, 0.0968175381, 0.1910669804, 0.5263579488, 0.1829251349, 0.0789149031, 0.2568820715, 0.0516875088, 0.2207031548, 0.1264928132, 0.2114928812, 0.1190313995, 0.0651644468, 0.1761541069, 0.2223139852, 0.3070954978, 0.1215813383, 0.1150438264, 0.2857508361, 0.1724137813, 0.2441197336, 0.1163052097, 0.0993674919, 0.1103456393, 0.1216926947, 0.3711645305, 0.1333681345, 0.1087460443, 0.1217572093, 0.1263930351, 0.1214682534, 0.1682976186, 0.1510664225, 0.2836909294, 0.1600148380, 0.1156022623, 0.0562268831, 0.0579999723, 0.3450597823, 0.0567649007, 0.0982620642, 0.7080155611, 0.1155450270, 0.0591656044, 0.1277009994, 0.1131763458, 0.4284988940, 0.2125571668, 0.1735803038, 0.0981800035, 0.1850107163, 0.1885235012, 0.2846237719, 0.1360735595, 0.1676995605, 0.3169824183, 0.1197770536, 0.2124354988, 0.1630695611, 0.0665110648, 0.1776044369, 0.0856813416, -0.3897307515, -0.3138369918, -0.4430755377, -0.2840855122, -0.5606356859, -1.5444585085, -0.5367455482, -0.2315549850, -0.7537527084, -0.1516633630, -0.6475952268, -0.3711598217, -0.6205700636, -0.3492662311, -0.1912078857, -0.5168777704, -0.6523217559, -0.9010907412, -0.3567483723, -0.3375657797, -0.8384604454, -0.5059027672, -0.7163050175, -0.3412669599, -0.2915677130, -0.3237801790, -0.3570751250, -1.0890845060, -0.3913336098, -0.3190865815, -0.3572644293, -0.3708670139, -0.3564165533, -0.4938249886, -0.4432645738, -0.8324161768, -0.4695213437, -0.3392043412, -0.1649829596, -0.1701856256, -1.0124869347, -0.1665616333, -0.2883241177, -2.0774848461, -0.3390364051, -0.1736058742, -0.3747048974, -0.3320861459, -1.2573170662, -0.6236929893, -0.5093256235, -0.2880833149, -0.5428651571, -0.5531724691, -0.8351534009, -0.3992719948, -0.4920701683, -0.9301013350, -0.3514541686, -0.6233359575, -0.4784846306, -0.1951591820, -0.5211333632, -0.2514092922, 0.0384951122, 0.0309988111, 0.0437641703, 0.0280601531, 0.0553760082, 0.1525517404, 0.0530162938, 0.0228715204, 0.0744508728, 0.0149803376, 0.0639653131, 0.0366607942, 0.0612959452, 0.0344982855, 0.0188862924, 0.0510538816, 0.0644321740, 0.0890039802, 0.0352373235, 0.0333425887, 0.0828177631, 0.0499698445, 0.0707520321, 0.0337081701, 0.0287991930, 0.0319809392, 0.0352695994, 0.1075728014, 0.0386534333, 0.0315173343, 0.0352882966, 0.0366318747, 0.0352045484, 0.0487768762, 0.0437828414, 0.0822207481, 0.0463763177, 0.0335044377, 0.0162959620, 0.0168098491, 0.1000069901, 0.0164518934, 0.0284788124, 0.2052006721, 0.0334878489, 0.0171476770, 0.0370109528, 0.0328013450, 0.1241897419, 0.0616044030, 0.0503079295, 0.0284550283, 0.0536207519, 0.0546388440, 0.0824911147, 0.0394375362, 0.0486035459, 0.0918694660, 0.0347143970, 0.0615691431, 0.0472616553, 0.0192765761, 0.0514742248, 0.0248326026, 0.2431563288, 0.1958055645, 0.2764385939, 0.1772433668, 0.3497853577, 0.9636007547, 0.3348801136, 0.1444691122, 0.4702727199, 0.0946240649, 0.4040401578, 0.2315697521, 0.3871789277, 0.2179101706, 0.1192962229, 0.3224844337, 0.4069890678, 0.5621981621, 0.2225783318, 0.2106101513, 0.5231225491, 0.3156370521, 0.4469087720, 0.2129193544, 0.1819115579, 0.2020092010, 0.2227821946, 0.6794890761, 0.2441563606, 0.1990808398, 0.2229003012, 0.2313870788, 0.2223713249, 0.3081015944, 0.2765565217, 0.5193515420, 0.2929383516, 0.2116324753, 0.1029342636, 0.1061802581, 0.6316992044, 0.1039192155, 0.1798878610, 1.2961604595, 0.2115276903, 0.1083141714, 0.2337815613, 0.2071913630, 0.7844507694, 0.3891273439, 0.3177725673, 0.1797376275, 0.3386981785, 0.3451290131, 0.5210593343, 0.2491091788, 0.3070067465, 0.5802981257, 0.2192752361, 0.3889046013, 0.2985306084, 0.1217614636, 0.3251395524, 0.1568563879, -0.1522970349, -0.1226396412, -0.1731428355, -0.1110135168, -0.2190824002, -0.6035357714, -0.2097467333, -0.0904858932, -0.2945477068, -0.0592662506, -0.2530640066, -0.1450399756, -0.2425032705, -0.1364845186, -0.0747192577, -0.2019829154, -0.2549110353, -0.3521237075, -0.1394083351, -0.1319122612, -0.3276493549, -0.1976941526, -0.2799140811, -0.1333585978, -0.1139373630, -0.1265251935, -0.1395360231, -0.4255869687, -0.1529233903, -0.1246910617, -0.1396099925, -0.1449255496, -0.1392786801, -0.1929744482, -0.1732167006, -0.3252874315, -0.1834771931, -0.1325525790, -0.0644712150, -0.0665042847, -0.3956545889, -0.0650881231, -0.1126698554, -0.8118291497, -0.1324869394, -0.0678408295, -0.1464253068, -0.1297709644, -0.4913280606, -0.2437236160, -0.1990317106, -0.1125757545, -0.2121381313, -0.2161659747, -0.3263570666, -0.1560255140, -0.1922887117, -0.3634603322, -0.1373395026, -0.2435840964, -0.1869798303, -0.0762633234, -0.2036458999, -0.0982444659, 0.7511206865, 0.6048520803, 0.8539310694, 0.5475126505, 1.0805025101, 2.9766054153, 1.0344594717, 0.4462715089, 1.4526932240, 0.2922979295, 1.2480978966, 0.7153292298, 1.1960128546, 0.6731342077, 0.3685113192, 0.9961687326, 1.2572072744, 1.7366549969, 0.6875543594, 0.6505841017, 1.6159487963, 0.9750168324, 1.3805209398, 0.6577173471, 0.5619328618, 0.6240153909, 0.6881840825, 2.0989718437, 0.7542098165, 0.6149695516, 0.6885489225, 0.7147649527, 0.6869148612, 0.9517394900, 0.8542953730, 1.6042999029, 0.9048995376, 0.6537420750, 0.3179685175, 0.3279955089, 1.9513468742, 0.3210110664, 0.5556815863, 4.0038971901, 0.6534184217, 0.3345872760, 0.7221615911, 0.6400232911, 2.4232032299, 1.2020316124, 0.9816135764, 0.5552175045, 1.0462536812, 1.0661188364, 1.6095752716, 0.7695093155, 0.9483574629, 1.7925665379, 0.6773509383, 1.2013435364, 0.9221743345, 0.3761265576, 1.0043704510, 0.4845363498, -0.4858606756, -0.3912471533, -0.5523633361, -0.3541572690, -0.6989204884, -1.9254103899, -0.6691377163, -0.2886697054, -0.9396712780, -0.1890722364, -0.8073292375, -0.4627090693, -0.7736381888, -0.4354152977, -0.2383707017, -0.6443694234, -0.8132216334, -1.1233512163, -0.4447429180, -0.4208288193, -1.0452727079, -0.6306873560, -0.8929868340, -0.4254429340, -0.3634849787, -0.4036429226, -0.4451502860, -1.3577150106, -0.4878588915, -0.3977916241, -0.4453862607, -0.4623440504, -0.4443292916, -0.6156305075, -0.5525990129, -1.0377377272, -0.5853321552, -0.4228715599, -0.2056771964, -0.2121631354, -1.2622241974, -0.2076452672, -0.3594413400, -2.5899114609, -0.4226621687, -0.2164270133, -0.4671285748, -0.4139975905, -1.5674433708, -0.7775313258, -0.6349544525, -0.3591411412, -0.6767667532, -0.6896165013, -1.0411500931, -0.4977553189, -0.6134428382, -1.1595175266, -0.4381428957, -0.7770862579, -0.5965063572, -0.2432965934, -0.6496747136, -0.3134212196, -0.5691359639, -0.4583058953, -0.6470369697, -0.4148589075, -0.8187136650, -2.2554206848, -0.7838262320, -0.3381469250, -1.1007285118, -0.2214787304, -0.9457034469, -0.5420162082, -0.9062377810, -0.5100443363, -0.2792268097, -0.7548126578, -0.9526057243, -1.3158907890, -0.5209707022, -0.4929578006, -1.2244298458, -0.7387855649, -1.0460424423, -0.4983627498, -0.4257853627, -0.4728262722, -0.5214478970, -1.5904239416, -0.5714766383, -0.4659720659, -0.5217243433, -0.5415886045, -0.5204861760, -0.7211479545, -0.6473130584, -1.2156032324, -0.6856566072, -0.4953506589, -0.2409297377, -0.2485273629, -1.4785661697, -0.2432351261, -0.4210486710, -3.0338156223, -0.4951053858, -0.2535220385, -0.5471932292, -0.4849557281, -1.8360991478, -0.9107981920, -0.7437840104, -0.4206970334, -0.7927628756, -0.8078150153, -1.2196004391, -0.5830692649, -0.7185853124, -1.3582558632, -0.5132394433, -0.9102768898, -0.6987459660, -0.2849970162, -0.7610272765, -0.3671407998, -0.0597625077, -0.0481247231, -0.0679425597, -0.0435625426, -0.0859695897, -0.2368319929, -0.0823062062, -0.0355073474, -0.1155827492, -0.0232565235, -0.0993042290, -0.0569147803, -0.0951601118, -0.0535575524, -0.0293204021, -0.0792596191, -0.1000290141, -0.1381760091, -0.0547048859, -0.0517633706, -0.1285720915, -0.0775766820, -0.1098404005, -0.0523309186, -0.0447098836, -0.0496494435, -0.0547549911, -0.1670035422, -0.0600082949, -0.0489297137, -0.0547840185, -0.0568698831, -0.0546540059, -0.0757246315, -0.0679715425, -0.1276452392, -0.0719978362, -0.0520146303, -0.0252989903, -0.0260967836, -0.1552578509, -0.0255410708, -0.0442125015, -0.3185678720, -0.0519888774, -0.0266212542, -0.0574583933, -0.0509231053, -0.1928008348, -0.0956389830, -0.0781015456, -0.0441755764, -0.0832446069, -0.0848251656, -0.1280649751, -0.0612255894, -0.0754555389, -0.1426245868, -0.0538930595, -0.0955842435, -0.0733722970, -0.0299263038, -0.0799121857, -0.0385518707, 0.3679626882, 0.2963078916, 0.4183279276, 0.2682181895, 0.5293218493, 1.4581941366, 0.5067660809, 0.2186216861, 0.7116525173, 0.1431923360, 0.6114243269, 0.3504289985, 0.5859086514, 0.3297582865, 0.1805281341, 0.4880080223, 0.6158868670, 0.8507610559, 0.3368224800, 0.3187113404, 0.7916289568, 0.4776460230, 0.6762964129, 0.3222057819, 0.2752824426, 0.3056957126, 0.3371309936, 1.0282546282, 0.3694760203, 0.3012642860, 0.3373097181, 0.3501525521, 0.3365092278, 0.4662428200, 0.4185064137, 0.7859222889, 0.4432966113, 0.3202583790, 0.1557679772, 0.1606800556, 0.9559353590, 0.1572584808, 0.2722200155, 1.9614487886, 0.3200998008, 0.1639092565, 0.3537760675, 0.3135377467, 1.1870906353, 0.5888571143, 0.4808776677, 0.2719926834, 0.5125439167, 0.5222755075, 0.7885066271, 0.3769710064, 0.4645859897, 0.8781512976, 0.3318240047, 0.5885200500, 0.4517592788, 0.1842587292, 0.4920259416, 0.2373670489, -0.2252632231, -0.1813968420, -0.2560963333, -0.1642005891, -0.3240457475, -0.8926923871, -0.3102373183, -0.1338380873, -0.4356667995, -0.0876609683, -0.3743081093, -0.2145292610, -0.3586876392, -0.2018748373, -0.1105175838, -0.2987537980, -0.3770400286, -0.5208277106, -0.2061994821, -0.1951120049, -0.4846276045, -0.2924102843, -0.4140221477, -0.1972512752, -0.1685252637, -0.1871439815, -0.2063883543, -0.6294875741, -0.2261896580, -0.1844310910, -0.2064977586, -0.2143600285, -0.2060077041, -0.2854293585, -0.2562055886, -0.4811340868, -0.2713819146, -0.1960590929, -0.0953596532, -0.0983667821, -0.5852144361, -0.0962721258, -0.1666504741, -1.2007800341, -0.1959620267, -0.1003436744, -0.2165783048, -0.1919447929, -0.7267254591, -0.3604926765, -0.2943886817, -0.1665112972, -0.3137744367, -0.3197320402, -0.4827161729, -0.2307780087, -0.2844150662, -0.5375958085, -0.2031394541, -0.3602863252, -0.2765626907, -0.1128014177, -0.3012135327, -0.1453138143, 0.3952302039, 0.3182654977, 0.4493277073, 0.2880942225, 0.5685467124, 1.5662521124, 0.5443195105, 0.2348224223, 0.7643887997, 0.1538034678, 0.6567333341, 0.3763971925, 0.6293268204, 0.3541946709, 0.1939059943, 0.5241713524, 0.6615265608, 0.9138058424, 0.3617823720, 0.3423291147, 0.8502917886, 0.5130414963, 0.7264126539, 0.3460825086, 0.2956819534, 0.3283489943, 0.3621137440, 1.1044523716, 0.3968556821, 0.3235891759, 0.3623057306, 0.3761002719, 0.3614459038, 0.5007932782, 0.4495193958, 0.8441622853, 0.4761466682, 0.3439908028, 0.1673110127, 0.1725870818, 1.0267740488, 0.1689119637, 0.2923926115, 2.1067998409, 0.3438204825, 0.1760555953, 0.3799923062, 0.3367721736, 1.2750588655, 0.6324937940, 0.5165126324, 0.2921484113, 0.5505254269, 0.5609782338, 0.8469381332, 0.4049060643, 0.4990136921, 0.9432258606, 0.3564134836, 0.6321317554, 0.4852364659, 0.1979130358, 0.5284870267, 0.2549569011, -0.3162513077, -0.2546664774, -0.3595385253, -0.2305243164, -0.4549339712, -1.2532678843, -0.4355480671, -0.1878978312, -0.6116409302, -0.1230689064, -0.5254982710, -0.3011817038, -0.5035684109, -0.2834159434, -0.1551577449, -0.4194261432, -0.5293336511, -0.7311999798, -0.2894873917, -0.2739214599, -0.6803779602, -0.4105203748, -0.5812535882, -0.2769248188, -0.2365958095, -0.2627349794, -0.2897525430, -0.8837495446, -0.3175519705, -0.2589263320, -0.2899061441, -0.3009441197, -0.2892181277, -0.4007197022, -0.3596919179, -0.6754732728, -0.3809982538, -0.2752510905, -0.1338772327, -0.1380989999, -0.8215936422, -0.1351582706, -0.2339637727, -1.6857979298, -0.2751148045, -0.1408743858, -0.3040584028, -0.2694749534, -1.0202636719, -0.5061025023, -0.4132978618, -0.2337683737, -0.4405139089, -0.4488779008, -0.6776944399, -0.3239936531, -0.3992957473, -0.7547409534, -0.2851913571, -0.5058128238, -0.3882716000, -0.1583640575, -0.4228794277, -0.2040088326, 0.3728621602, 0.3002532423, 0.4238980114, 0.2717895210, 0.5363698006, 1.4776101112, 0.5135137439, 0.2215326428, 0.7211282253, 0.1450989544, 0.6195654869, 0.3550949991, 0.5937101245, 0.3341490328, 0.1829318851, 0.4945058823, 0.6240874529, 0.8620890379, 0.3413073123, 0.3229550123, 0.8021695614, 0.4840059280, 0.6853013635, 0.3264959753, 0.2789478600, 0.3097660840, 0.3416199386, 1.0419459343, 0.3743956387, 0.3052756488, 0.3418010473, 0.3548148870, 0.3409898877, 0.4724508822, 0.4240788519, 0.7963869572, 0.4491991699, 0.3245226443, 0.1578420401, 0.1628195196, 0.9686637521, 0.1593523920, 0.2758446634, 1.9875656366, 0.3243619800, 0.1660917252, 0.3584866226, 0.3177125454, 1.2028969526, 0.5966978073, 0.4872806072, 0.2756142914, 0.5193684697, 0.5292297006, 0.7990056872, 0.3819904029, 0.4707719982, 0.8898440003, 0.3362422585, 0.5963562727, 0.4577744901, 0.1867121458, 0.4985772967, 0.2405276150, 0.6254144311, 0.5036250353, 0.7110186219, 0.4558818638, 0.8996714354, 2.4784460068, 0.8613341451, 0.3715842664, 1.2095730305, 0.2433794439, 1.0392184258, 0.5956129432, 0.9958502650, 0.5604795814, 0.3068379164, 0.8294516206, 1.0468032360, 1.4460114241, 0.5724864006, 0.5417034626, 1.3455064297, 0.8118396997, 1.1494793892, 0.5476428866, 0.4678887725, 0.5195812583, 0.5730108023, 1.7476915121, 0.6279866099, 0.5120492578, 0.5733145475, 0.5951431394, 0.5719539523, 0.7924579978, 0.7113219500, 1.3358070850, 0.7534571290, 0.5443329215, 0.2647538483, 0.2731027603, 1.6247727871, 0.2672872245, 0.4626836777, 3.3338117599, 0.5440634489, 0.2785913348, 0.6013019085, 0.5329101086, 2.0176601410, 1.0008616447, 0.8173323870, 0.4622972608, 0.8711544871, 0.8876950145, 1.3401995897, 0.6407255530, 0.7896419764, 1.4925657511, 0.5639906526, 1.0002887249, 0.7678408027, 0.3131786585, 0.8362807631, 0.4034451842, -0.6412200928, -0.5163528323, -0.7289876938, -0.4674030542, -0.9224082232, -2.5410819054, -0.8831020594, -0.3809750676, -1.2401417494, -0.2495302111, -1.0654819012, -0.6106655002, -1.0210176706, -0.5746442080, -0.3145923913, -0.8504137993, -1.0732584000, -1.4825555086, -0.5869544744, -0.5553935766, -1.3795105219, -0.8323567510, -1.1785293818, -0.5614830852, -0.4797133803, -0.5327122808, -0.5874921083, -1.7918597460, -0.6438572407, -0.5249899626, -0.5878035426, -0.6101837754, -0.5864085555, -0.8124852777, -0.7292987108, -1.3695659637, -0.7724987268, -0.5580894947, -0.2714447975, -0.2800046802, -1.6658345461, -0.2740421891, -0.4743767679, -3.4180648327, -0.5578131676, -0.2856319845, -0.6164981723, -0.5463779569, -2.0686509609, -1.0261557102, -0.8379882574, -0.4739805758, -0.8931705952, -0.9101291299, -1.3740694523, -0.6569181681, -0.8095980883, -1.5302863121, -0.5782440305, -1.0255683661, -0.7872459292, -0.3210934103, -0.8574154973, -0.4136411846, 0.4740478098, 0.3817346394, 0.5389335752, 0.3455465436, 0.6819274426, 1.8785973787, 0.6528688073, 0.2816511989, 0.9168248177, 0.1844752729, 0.7877004743, 0.4514590800, 0.7548285127, 0.4248289168, 0.2325751185, 0.6287027001, 0.7934495807, 1.0960389376, 0.4339297712, 0.4105970860, 1.0198587179, 0.6153532863, 0.8712753654, 0.4150990248, 0.3546474874, 0.3938290477, 0.4343272150, 1.3247045279, 0.4759974480, 0.3881199956, 0.4345574677, 0.4511029720, 0.4335261881, 0.6006625295, 0.5391634703, 1.0125068426, 0.5711008310, 0.4125901461, 0.2006765157, 0.2070047557, 1.2315354347, 0.2025967389, 0.3507021368, 2.5269422531, 0.4123858809, 0.2111649662, 0.4557711482, 0.4039319456, 1.5293337107, 0.7586269975, 0.6195166111, 0.3504092693, 0.6603123546, 0.6728496552, 1.0158362389, 0.4856532514, 0.5985280275, 1.1313258410, 0.4274902046, 0.7581927776, 0.5820032954, 0.2373812646, 0.6338790059, 0.3058009148, 0.2843170762, 0.2289509177, 0.3232332766, 0.2072465867, 0.4089959264, 1.1267161369, 0.3915675879, 0.1689244062, 0.5498790145, 0.1106417328, 0.4724348187, 0.2707691789, 0.4527193904, 0.2547973394, 0.1394903213, 0.3770736158, 0.4758829474, 0.6573653221, 0.2602556944, 0.2462615967, 0.6116751432, 0.3690671027, 0.5225601196, 0.2489616871, 0.2127049863, 0.2362046987, 0.2604940832, 0.7945108414, 0.2854864001, 0.2327806205, 0.2606321871, 0.2705555856, 0.2600136399, 0.3602561057, 0.3233711720, 0.6072657704, 0.3425260484, 0.2474569678, 0.1203586608, 0.1241541207, 0.7386313081, 0.1215103418, 0.2103387266, 1.5155705214, 0.2473344505, 0.1266492605, 0.2733553946, 0.2422640771, 0.9172402024, 0.4549975991, 0.3715641201, 0.2101630569, 0.3960319757, 0.4035513997, 0.6092626452, 0.2912776172, 0.3589759171, 0.6785292029, 0.2563934922, 0.4547371566, 0.3490649760, 0.1423728764, 0.3801781535, 0.1834085584, -0.3477922976, -0.2800653577, -0.3953967094, -0.2535154223, -0.5003063083, -1.3782612085, -0.4789870083, -0.2066376209, -0.6726422906, -0.1353430599, -0.5779082775, -0.3312197626, -0.5537912846, -0.3116821349, -0.1706322283, -0.4612571895, -0.5821262002, -0.8041254282, -0.3183591068, -0.3012407422, -0.7482346892, -0.4514631927, -0.6392242908, -0.3045436442, -0.2601924539, -0.2889385819, -0.3186506927, -0.9718893766, -0.3492226899, -0.2847500741, -0.3188196123, -0.3309584558, -0.3180630207, -0.4406850636, -0.3955653906, -0.7428408861, -0.4189966917, -0.3027029634, -0.1472293437, -0.1518721581, -0.9035344720, -0.1486381441, -0.2572979033, -1.8539292812, -0.3025530875, -0.1549243480, -0.3343833387, -0.2963507473, -1.1220186949, -0.5565780997, -0.4545176923, -0.2570830286, -0.4844481051, -0.4936462641, -0.7452835441, -0.3563068211, -0.4391190708, -0.8300142288, -0.3136346042, -0.5562595129, -0.4269954860, -0.1741583347, -0.4650548398, -0.2243554443, -0.3796195388, -0.3056947589, -0.4315803349, -0.2767151594, -0.5460904837, -1.5043889284, -0.5228201747, -0.2255474925, -0.7341972589, -0.1477285922, -0.6307939291, -0.3615303934, -0.6044698954, -0.3402048349, -0.1862471700, -0.5034678578, -0.6353978515, -0.8777127266, -0.3474928439, -0.3288079202, -0.8167073131, -0.4927775860, -0.6977210641, -0.3324130774, -0.2840032279, -0.3153800070, -0.3478111327, -1.0608291626, -0.3811808228, -0.3108081818, -0.3479955196, -0.3612451851, -0.3471696377, -0.4810131192, -0.4317644536, -0.8108198643, -0.4573400021, -0.3304039836, -0.1607026160, -0.1657703072, -0.9862188697, -0.1622403413, -0.2808437943, -2.0235862732, -0.3302403986, -0.1691018194, -0.3649834991, -0.3234704733, -1.2246969938, -0.6075118184, -0.4961116016, -0.2806092501, -0.5287809968, -0.5388209224, -0.8134860992, -0.3889132142, -0.4793038368, -0.9059706330, -0.3423359990, -0.6071640253, -0.4660707712, -0.1900959462, -0.5076130629, -0.2448866963, 0.4847842157, 0.3903803229, 0.5511395335, 0.3533726037, 0.6973720193, 1.9211444855, 0.6676552296, 0.2880301178, 0.9375893474, 0.1886533350, 0.8055405617, 0.4616838992, 0.7719241381, 0.4344505966, 0.2378425747, 0.6429417729, 0.8114199042, 1.1208623648, 0.4437575638, 0.4198964536, 1.0429568291, 0.6292900443, 0.8910083175, 0.4245003164, 0.3626796603, 0.4027486145, 0.4441640377, 1.3547068834, 0.4867779911, 0.3969102800, 0.4443994761, 0.4613196850, 0.4433448613, 0.6142665148, 0.5513746738, 1.0354385376, 0.5840353370, 0.4219346642, 0.2052215040, 0.2116930783, 1.2594276667, 0.2071852088, 0.3586449623, 2.5841734409, 0.4217257500, 0.2159474939, 0.4660935998, 0.4130803645, 1.5639705658, 0.7758086920, 0.6335476637, 0.3583454490, 0.6752673388, 0.6880885959, 1.0388432741, 0.4966525137, 0.6120836735, 1.1569485664, 0.4371721447, 0.7753645778, 0.5951847434, 0.2427575588, 0.6482353210, 0.3127267957, 0.4318504333, 0.3477545083, 0.4909603596, 0.3147877157, 0.6212256551, 1.7113739252, 0.5947536230, 0.2565799952, 0.8352135420, 0.1680541933, 0.7175832391, 0.4112724364, 0.6876373887, 0.3870127499, 0.2118724287, 0.5727387071, 0.7228205800, 0.9984749556, 0.3953034878, 0.3740477562, 0.9290759563, 0.5605775714, 0.7937187552, 0.3781489432, 0.3230785131, 0.3587723076, 0.3956655562, 1.2067859173, 0.4336265028, 0.3535714746, 0.3958753049, 0.4109480083, 0.3949358165, 0.5471944809, 0.4911698103, 0.9223785400, 0.5202642679, 0.3758634329, 0.1828132719, 0.1885782182, 1.1219102144, 0.1845625639, 0.3194843829, 2.3020064831, 0.3756773174, 0.1923681051, 0.4152006507, 0.3679759204, 1.3931999207, 0.6910977960, 0.5643703341, 0.3192175627, 0.6015346050, 0.6129559278, 0.9254115820, 0.4424228072, 0.5452499986, 1.0306208134, 0.3894371390, 0.6907021999, 0.5301962495, 0.2162507474, 0.5774542093, 0.2785800397, -0.6066579819, -0.4885211289, -0.6896948814, -0.4422097802, -0.8726899028, -2.4041163921, -0.8355023861, -0.3604403138, -1.1732974052, -0.2360803932, -1.0080518723, -0.5777503252, -0.9659842849, -0.5436705947, -0.2976357043, -0.8045760393, -1.0154092312, -1.4026449919, -0.5553173423, -0.5254575610, -1.3051540852, -0.7874922752, -1.1150059700, -0.5312188268, -0.4538565874, -0.5039988160, -0.5558259487, -1.6952774525, -0.6091530323, -0.4966927171, -0.5561206341, -0.5772945285, -0.5548008680, -0.7686918974, -0.6899891496, -1.2957456112, -0.7308606505, -0.5280081630, -0.2568137646, -0.2649122775, -1.5760451555, -0.2592711747, -0.4488075972, -3.2338294983, -0.5277467370, -0.2702362537, -0.5832685828, -0.5169278979, -1.9571496248, -0.9708454013, -0.7928202748, -0.4484327734, -0.8450282216, -0.8610726595, -1.3000063896, -0.6215099096, -0.7659602761, -1.4478031397, -0.5470763445, -0.9702897072, -0.7448129654, -0.3037863076, -0.8112003803, -0.3913457096, 0.1899427474, 0.1529544592, 0.2159413397, 0.1384545118, 0.2732365131, 0.7527213693, 0.2615932226, 0.1128527448, 0.3673557937, 0.0739160404, 0.3156179190, 0.1808918267, 0.3024466932, 0.1702215821, 0.0931888223, 0.2519102693, 0.3179214895, 0.4391638041, 0.1738681346, 0.1645191312, 0.4086397290, 0.2465613931, 0.3491049409, 0.1663229764, 0.1421010941, 0.1578004658, 0.1740273833, 0.5307861567, 0.1907239258, 0.1555129588, 0.1741196513, 0.1807491332, 0.1737064272, 0.2406750470, 0.2160334587, 0.4056939483, 0.2288302034, 0.1653177291, 0.0804075971, 0.0829432160, 0.4934548736, 0.0811769962, 0.1405202746, 1.0125019550, 0.1652358770, 0.0846101418, 0.1826196015, 0.1618485302, 0.6127774715, 0.3039686978, 0.2482295781, 0.1404029131, 0.2645757198, 0.2695991993, 0.4070279896, 0.1945928335, 0.2398197949, 0.4533026516, 0.1712879092, 0.3037946820, 0.2331986278, 0.0951145589, 0.2539843321, 0.1225291267, 0.2477677166, 0.1995189488, 0.2816811502, 0.1806047261, 0.3564189076, 0.9818751216, 0.3412309885, 0.1472089291, 0.4791912735, 0.0964185745, 0.4117026329, 0.2359613925, 0.3945216537, 0.2220427692, 0.1215586364, 0.3286002278, 0.4147074819, 0.5728600621, 0.2267994583, 0.2146043032, 0.5330434442, 0.3216229975, 0.4553842545, 0.2169573009, 0.1853614599, 0.2058402449, 0.2270071805, 0.6923753023, 0.2487867177, 0.2028563321, 0.2271275371, 0.2357752621, 0.2265885174, 0.3139446378, 0.2818013430, 0.5292008519, 0.2984938323, 0.2156460136, 0.1048863828, 0.1081939265, 0.6436791420, 0.1058900133, 0.1832993776, 1.3207416534, 0.2155392319, 0.1103683189, 0.2382151484, 0.2111206800, 0.7993276119, 0.3965069950, 0.3237990141, 0.1831462979, 0.3451214731, 0.3516742587, 0.5309410095, 0.2538334429, 0.3128290176, 0.5913032889, 0.2234337181, 0.3962800503, 0.3041921556, 0.1240706295, 0.3313057125, 0.1598311216, -0.2061812431, -0.1660307795, -0.2344025075, -0.1502912045, -0.2965959311, -0.8170727491, -0.2839572430, -0.1225007102, -0.3987616301, -0.0802352428, -0.3426005840, -0.1963565648, -0.3283033371, -0.1847741008, -0.1011556834, -0.2734464705, -0.3451010883, -0.4767086208, -0.1887324005, -0.1785841435, -0.4435749948, -0.2676403224, -0.3789504766, -0.1805422008, -0.1542495489, -0.1712910831, -0.1889052689, -0.5761638880, -0.2070292234, -0.1688079983, -0.1890054196, -0.1962016672, -0.1885568649, -0.2612507343, -0.2345025092, -0.4403773844, -0.2483932525, -0.1794510037, -0.0872817710, -0.0900341645, -0.5356411338, -0.0881169513, -0.1525335759, -1.0990624428, -0.1793621480, -0.0918435976, -0.1982320398, -0.1756852269, -0.6651648283, -0.3299554586, -0.2694511116, -0.1524061859, -0.2871947289, -0.2926476598, -0.4418254495, -0.2112288922, -0.2603223920, -0.4920562208, -0.1859315932, -0.3297666013, -0.2531351447, -0.1032460481, -0.2756978571, -0.1330043375, -0.2554838955, -0.2057325244, -0.2904534936, -0.1862292737, -0.3675188124, -1.0124535561, -0.3518579006, -0.1517934352, -0.4941146374, -0.0994213223, -0.4245242178, -0.2433099002, -0.4068081677, -0.2289578021, -0.1253443211, -0.3388337791, -0.4276226461, -0.5907005072, -0.2338626236, -0.2212876827, -0.5496438742, -0.3316392303, -0.4695661962, -0.2237139642, -0.1911341250, -0.2122506946, -0.2340768278, -0.7139378786, -0.2565346360, -0.2091738582, -0.2342009246, -0.2431179732, -0.2336451262, -0.3237217665, -0.2905774117, -0.5456816554, -0.3077897727, -0.2223618329, -0.1081528366, -0.1115633920, -0.6637251377, -0.1091877222, -0.1890078336, -1.3618732691, -0.2222517431, -0.1138054952, -0.2456338406, -0.2176955789, -0.8242209554, -0.4088553488, -0.3338830471, -0.1888499856, -0.3558695316, -0.3626264036, -0.5474759936, -0.2617385387, -0.3225713968, -0.6097181439, -0.2303920835, -0.4086213112, -0.3136655688, -0.1279345453, -0.3416235149, -0.1648087204, 0.0263461154, 0.0212156344, 0.0299522653, 0.0192044117, 0.0378994271, 0.1044066474, 0.0362844355, 0.0156533048, 0.0509542935, 0.0102525670, 0.0437779613, 0.0250907037, 0.0419510417, 0.0236106813, 0.0129258083, 0.0349413566, 0.0440974794, 0.0609144643, 0.0241164789, 0.0228197202, 0.0566806048, 0.0341994390, 0.0484227985, 0.0230699237, 0.0197102129, 0.0218878035, 0.0241385680, 0.0736229941, 0.0264544711, 0.0215705130, 0.0241513643, 0.0250709113, 0.0240940489, 0.0333829708, 0.0299650449, 0.0562720113, 0.0317400247, 0.0229304899, 0.0111529818, 0.0115046864, 0.0684449375, 0.0112597020, 0.0194909442, 0.1404396594, 0.0229191352, 0.0117358975, 0.0253303554, 0.0224492922, 0.0849956498, 0.0421621501, 0.0344308242, 0.0194746666, 0.0366981253, 0.0373949111, 0.0564570501, 0.0269911103, 0.0332643427, 0.0628756061, 0.0237585865, 0.0421380177, 0.0323459506, 0.0131929182, 0.0352290384, 0.0169954728, 0.2017768025, 0.1624840349, 0.2293952107, 0.1470806897, 0.2902600765, 0.7996184230, 0.2778913379, 0.1198838502, 0.3902432919, 0.0785212591, 0.3352819681, 0.1921619922, 0.3212901354, 0.1808269620, 0.0989947915, 0.2676051259, 0.3377290368, 0.4665251672, 0.1847006977, 0.1747692227, 0.4340993464, 0.2619229853, 0.3708553314, 0.1766854525, 0.1509544700, 0.1676319689, 0.1848698705, 0.5638558865, 0.2026066631, 0.1652019322, 0.1849678904, 0.1920104027, 0.1845289171, 0.2556699216, 0.2294930667, 0.4309700429, 0.2430870831, 0.1756175756, 0.0854172632, 0.0881108567, 0.5241987705, 0.0862345994, 0.1492751539, 1.0755842924, 0.1755306274, 0.0898816362, 0.1939974129, 0.1719322354, 0.6509556174, 0.3229069710, 0.2636951208, 0.1491504908, 0.2810596824, 0.2863961160, 0.4323872030, 0.2067166269, 0.2547613680, 0.4815449417, 0.1819597185, 0.3227221370, 0.2477276921, 0.1010405123, 0.2698083818, 0.1301631033, -0.9680922627, -0.7795718908, -1.1006008387, -0.7056691647, -1.3926204443, -3.8364388943, -1.3332773447, -0.5751832128, -1.8723237514, -0.3767322004, -1.6086282730, -0.9219619632, -1.5414977074, -0.8675782681, -0.4749608934, -1.2839257717, -1.6203689575, -2.2383117676, -0.8861638904, -0.8385142684, -2.0827379227, -1.2566637993, -1.7793035507, -0.8477080464, -0.7242549062, -0.8042708635, -0.8869755268, -2.7052886486, -0.9720737338, -0.7926119566, -0.8874457479, -0.9212346673, -0.8853396773, -1.2266625166, -1.1010704041, -2.0677239895, -1.1662921906, -0.8425844908, -0.4098181129, -0.4227415323, -2.5150201321, -0.4137395322, -0.7161978483, -5.1604781151, -0.8421673179, -0.4312374294, -0.9307679534, -0.8249028325, -3.1231787205, -1.5492550135, -1.2651661634, -0.7155997157, -1.3484784365, -1.3740819693, -2.0745232105, -0.9917926788, -1.2223035097, -2.3103740215, -0.8730130792, -1.5483680964, -1.1885570288, -0.4847759008, -1.2944967747, -0.6245013475, 0.2704806328, 0.2178088874, 0.3075029254, 0.1971607953, 0.3890919089, 1.0718837976, 0.3725117147, 0.1607035995, 0.5231188536, 0.1052572802, 0.4494434893, 0.2575920224, 0.4306875169, 0.2423974723, 0.1327019334, 0.3587230742, 0.4527238011, 0.6253742576, 0.2475901991, 0.2342771292, 0.5819076300, 0.3511062264, 0.4971294105, 0.2368458062, 0.2023535669, 0.2247096598, 0.2478169799, 0.7558454871, 0.2715930343, 0.2214522064, 0.2479483485, 0.2573888302, 0.2473599315, 0.3427239954, 0.3076341152, 0.5777127743, 0.3258568048, 0.2354143113, 0.1145013347, 0.1181120872, 0.7026853561, 0.1155969650, 0.2001024634, 1.4418143034, 0.2352977544, 0.1204857975, 0.2600523829, 0.2304741442, 0.8726021051, 0.4328548610, 0.3534817398, 0.1999353468, 0.3767588437, 0.3839123249, 0.5796124935, 0.2771024108, 0.3415061235, 0.6455081701, 0.2439159304, 0.4326071143, 0.3320775032, 0.1354442090, 0.3616765738, 0.1744828671, 0.6765799522, 0.5448269248, 0.7691874504, 0.4931778312, 0.9732740521, 2.6812090874, 0.9318003654, 0.4019837976, 1.3085289001, 0.2632904649, 1.1242375374, 0.6443403959, 1.0773212910, 0.6063327789, 0.3319405019, 0.8973095417, 1.1324428320, 1.5643104315, 0.6193218827, 0.5860205293, 1.4555830956, 0.8782567382, 1.2435189486, 0.5924458504, 0.5061669946, 0.5620884895, 0.6198891401, 1.8906711340, 0.6793625355, 0.5539403558, 0.6202177405, 0.6438321471, 0.6187458634, 0.8572894931, 0.7695156336, 1.4450901747, 0.8150978684, 0.5888651013, 0.2864135206, 0.2954454422, 1.7576963902, 0.2891541421, 0.5005360842, 3.6065528393, 0.5885735750, 0.3013830483, 0.6504947543, 0.5765078068, 2.1827261448, 1.0827426910, 0.8841988444, 0.5001180768, 0.9424241185, 0.9603178501, 1.4498420954, 0.6931436658, 0.8542430401, 1.6146733761, 0.6101310849, 1.0821229219, 0.8306583166, 0.3388000131, 0.9046973586, 0.4364512563, 0.6674680114, 0.5374894142, 0.7588283420, 0.4865359068, 0.9601663947, 2.6450996399, 0.9192512631, 0.3965700567, 1.2909061909, 0.2597445548, 1.1090966463, 0.6356626749, 1.0628124475, 0.5981669426, 0.3274700344, 0.8852249384, 1.1171915531, 1.5432429314, 0.6109811068, 0.5781282783, 1.4359798431, 0.8664287329, 1.2267717123, 0.5844670534, 0.4993501604, 0.5545185208, 0.6115407348, 1.8652083874, 0.6702131629, 0.5464800596, 0.6118649244, 0.6351612806, 0.6104128361, 0.8457438350, 0.7591521144, 1.4256283045, 0.8041204810, 0.5809345245, 0.2825562060, 0.2914665043, 1.7340244055, 0.2852599323, 0.4937950671, 3.5579812527, 0.5806468725, 0.2973241508, 0.6417341232, 0.5687436461, 2.1533298492, 1.0681607723, 0.8722907901, 0.4933826625, 0.9297319651, 0.9473847151, 1.4303162098, 0.6838086843, 0.8427384496, 1.5929275751, 0.6019140482, 1.0675493479, 0.8194713593, 0.3342371881, 0.8925132751, 0.4305733144, -0.0447740741, -0.0360550471, -0.0509025715, -0.0326370597, -0.0644084215, -0.1774345487, -0.0616638139, -0.0266021099, -0.0865946040, -0.0174237899, -0.0743987411, -0.0426405594, -0.0712939650, -0.0401253253, -0.0219668485, -0.0593813136, -0.0749417469, -0.1035214737, -0.0409849063, -0.0387811214, -0.0963262171, -0.0581204556, -0.0822924376, -0.0392063297, -0.0334966481, -0.0371973664, -0.0410224423, -0.1251190752, -0.0449582189, -0.0366581455, -0.0410441905, -0.0426069200, -0.0409467854, -0.0567329004, -0.0509242862, -0.0956318304, -0.0539407842, -0.0389693677, -0.0189540070, -0.0195517130, -0.1163191944, -0.0191353727, -0.0331240110, -0.2386710942, -0.0389500707, -0.0199446455, -0.0430478342, -0.0381515957, -0.1444464028, -0.0716527402, -0.0585136861, -0.0330963470, -0.0623668656, -0.0635510162, -0.0959462970, -0.0458702147, -0.0565312989, -0.1068543494, -0.0403766818, -0.0716117248, -0.0549705327, -0.0224207900, -0.0598702170, -0.0288830642, 0.5075733066, 0.4087316096, 0.5770479441, 0.3699842393, 0.7301546335, 2.0114550591, 0.6990408301, 0.3015700579, 0.9816643000, 0.1975216866, 0.8434080482, 0.4833870828, 0.8082113266, 0.4548735917, 0.2490232587, 0.6731656790, 0.8495637178, 1.1735527515, 0.4646180570, 0.4396352470, 1.0919849873, 0.6588721871, 0.9328935146, 0.4444555640, 0.3797287941, 0.4216813445, 0.4650436342, 1.4183900356, 0.5096608400, 0.4155685306, 0.4652901590, 0.4830057621, 0.4641859531, 0.6431424618, 0.5772941113, 1.0841132402, 0.6114901304, 0.4417692721, 0.2148687094, 0.2216445059, 1.3186317682, 0.2169247419, 0.3755044341, 2.7056522369, 0.4415505528, 0.2260989249, 0.4880040884, 0.4324987531, 1.6374909878, 0.8122784495, 0.6633299589, 0.3751908243, 0.7070108652, 0.7204347849, 1.0876780748, 0.5199995041, 0.6408569813, 1.2113353014, 0.4577230811, 0.8118135333, 0.6231636405, 0.2541692853, 0.6787080765, 0.3274277151, 0.1246964708, 0.1004138440, 0.1417644173, 0.0908947065, 0.1793784201, 0.4941578805, 0.1717346460, 0.0740872696, 0.2411672622, 0.0485255159, 0.2072016001, 0.1187545955, 0.1985547543, 0.1117496267, 0.0611779988, 0.1653778404, 0.2087138742, 0.2883088589, 0.1141435727, 0.1080060005, 0.2682699561, 0.1618663371, 0.2291856706, 0.1091902107, 0.0932886675, 0.1035952270, 0.1142481193, 0.3484584689, 0.1252093166, 0.1020934880, 0.1143086851, 0.1186609119, 0.1140374094, 0.1580019742, 0.1418249011, 0.2663360834, 0.1502258927, 0.1085302681, 0.0527871922, 0.0544518121, 0.3239506781, 0.0532922968, 0.0922508612, 0.6647025347, 0.1084765345, 0.0555461384, 0.1198888645, 0.1062527597, 0.4022853971, 0.1995539367, 0.1629614830, 0.0921738222, 0.1736926436, 0.1769905388, 0.2672118545, 0.1277492344, 0.1574405134, 0.2975909710, 0.1124496683, 0.1994397193, 0.1530937552, 0.0624422356, 0.1667394489, 0.0804397687, -0.0622302927, -0.0501119494, -0.0707481280, -0.0453613810, -0.0895195529, -0.2466115505, -0.0857048929, -0.0369735621, -0.1203555316, -0.0242168605, -0.1034048200, -0.0592649765, -0.0990895778, -0.0557691194, -0.0305311363, -0.0825325027, -0.1041595340, -0.1438817382, -0.0569638275, -0.0539008453, -0.1338812411, -0.0807800740, -0.1143760607, -0.0544918329, -0.0465560965, -0.0516996309, -0.0570160002, -0.1738996655, -0.0624862313, -0.0509501807, -0.0570462272, -0.0592182241, -0.0569108464, -0.0788515508, -0.0707783103, -0.1329161227, -0.0749708563, -0.0541624837, -0.0263436679, -0.0271744039, -0.1616689414, -0.0265957434, -0.0460381769, -0.3317225873, -0.0541356653, -0.0277205314, -0.0598310381, -0.0530258827, -0.2007622123, -0.0995882303, -0.0813266113, -0.0459997281, -0.0866820440, -0.0883278698, -0.1333531886, -0.0637537912, -0.0785713419, -0.1485140175, -0.0561184771, -0.0995312259, -0.0764020756, -0.0311620589, -0.0832120180, -0.0401438028, -0.1957878917, -0.1576613486, -0.2225865424, -0.1427152008, -0.2816448808, -0.7758850455, -0.2696432769, -0.1163255870, -0.3786605000, -0.0761906728, -0.3253304958, -0.1864584535, -0.3117539585, -0.1754598469, -0.0960565358, -0.2596623600, -0.3277049363, -0.4526782632, -0.1792186201, -0.1695819199, -0.4212148786, -0.2541488707, -0.3598480225, -0.1714412719, -0.1464740038, -0.1626564860, -0.1793827713, -0.5471201539, -0.1965931058, -0.1602985859, -0.1794778705, -0.1863113642, -0.1790519357, -0.2480813861, -0.2226815075, -0.4181784391, -0.2358720303, -0.1704050750, -0.0828819945, -0.0854956433, -0.5086400509, -0.0836750716, -0.1448445320, -1.0436599255, -0.1703207046, -0.0872138664, -0.1882393807, -0.1668291241, -0.6316346526, -0.3133227825, -0.2558684051, -0.1447235644, -0.2727175653, -0.2778956294, -0.4195535481, -0.2005810887, -0.2471998185, -0.4672522247, -0.1765589863, -0.3131434321, -0.2403749079, -0.0980415344, -0.2618002295, -0.1262997389, -0.3625746369, -0.2919690609, -0.4122023880, -0.2642906606, -0.5215710402, -1.4368418455, -0.4993455410, -0.2154204100, -0.7012318373, -0.1410955787, -0.6024712920, -0.3452976942, -0.5773292184, -0.3249296546, -0.1778846681, -0.4808621407, -0.6068685055, -0.8383034468, -0.3318904042, -0.3140444756, -0.7800371647, -0.4706518650, -0.6663934588, -0.3174877465, -0.2712514997, -0.3012194335, -0.3321944177, -1.0131978989, -0.3640657961, -0.2968528867, -0.3323705196, -0.3450253010, -0.3315817416, -0.4594156444, -0.4123782516, -0.7744141221, -0.4368054569, -0.3155688643, -0.1534870714, -0.1583272219, -0.9419376850, -0.1549557447, -0.2682339251, -1.9327273369, -0.3154126108, -0.1615091413, -0.3485957384, -0.3089466393, -1.1697081327, -0.5802345276, -0.4738362134, -0.2680099010, -0.5050387383, -0.5146278739, -0.7769606113, -0.3714510202, -0.4577831030, -0.8652926087, -0.3269651234, -0.5799024105, -0.4451442063, -0.1815606356, -0.4848212302, -0.2338912934, -0.3453009427, -0.2780591547, -0.3925643563, -0.2516994178, -0.4967224598, -1.3683881760, -0.4755558670, -0.2051574141, -0.6678239107, -0.1343735456, -0.5737684965, -0.3288471103, -0.5498242974, -0.3094494343, -0.1694099456, -0.4579530358, -0.5779561996, -0.7983652353, -0.3160785735, -0.2990828454, -0.7428748608, -0.4482291937, -0.6346452832, -0.3023620844, -0.2583286166, -0.2868688405, -0.3163681030, -0.9649274349, -0.3467210829, -0.2827103138, -0.3165358007, -0.3285877109, -0.3157846034, -0.4375283122, -0.3927318454, -0.7375196815, -0.4159952998, -0.3005346060, -0.1461746842, -0.1507842392, -0.8970621228, -0.1475733966, -0.2554547787, -1.8406488895, -0.3003858030, -0.1538145691, -0.3319880366, -0.2942278981, -1.1139812469, -0.5525911450, -0.4512618184, -0.2552414536, -0.4809778333, -0.4901100993, -0.7399448156, -0.3537544608, -0.4359735250, -0.8240685463, -0.3113879561, -0.5522748232, -0.4239367545, -0.1729107797, -0.4617235065, -0.2227483094, 0.3348215818, 0.2696204782, 0.3806505799, 0.2440606952, 0.4816476703, 1.3268595934, 0.4611234367, 0.1989311874, 0.6475564241, 0.1302955002, 0.5563554764, 0.3188670874, 0.5331379175, 0.3000580966, 0.1642685980, 0.4440548420, 0.5604161024, 0.7741360068, 0.3064860702, 0.2900061011, 0.7203297019, 0.4346261024, 0.6153847575, 0.2931858301, 0.2504886985, 0.2781627774, 0.3067667782, 0.9356432557, 0.3361985981, 0.2741304636, 0.3069294095, 0.3186155260, 0.3062010109, 0.4242499471, 0.3808130026, 0.7151370049, 0.4033704400, 0.2914138138, 0.1417384893, 0.1462081671, 0.8698375821, 0.1430947483, 0.2477021068, 1.7847878933, 0.2912695408, 0.1491465271, 0.3219127059, 0.2852984965, 1.0801734924, 0.5358208418, 0.4375666976, 0.2474952340, 0.4663808644, 0.4752359986, 0.7174885869, 0.3430185318, 0.4227423668, 0.7990592718, 0.3019377589, 0.5355141163, 0.4110708833, 0.1676631868, 0.4477108717, 0.2159882188, -0.4027141035, -0.3242920041, -0.4578359723, -0.2935494184, -0.5793124437, -1.5959099531, -0.5546264648, -0.2392689139, -0.7788628936, -0.1567158103, -0.6691689491, -0.3835244775, -0.6412434578, -0.3609015644, -0.1975777000, -0.5340968370, -0.6740528941, -0.9311092496, -0.3686329424, -0.3488112986, -0.8663925529, -0.5227562189, -0.7401676774, -0.3526357710, -0.3012808561, -0.3345664740, -0.3689705729, -1.1253657341, -0.4043703377, -0.3297165036, -0.3691661656, -0.3832219243, -0.3682900667, -0.5102760792, -0.4580312967, -0.8601469398, -0.4851627648, -0.3505044580, -0.1704791337, -0.1758551151, -1.0462164879, -0.1721103936, -0.2979292274, -2.1466932297, -0.3503309190, -0.1793892980, -0.3871876597, -0.3431491256, -1.2992027998, -0.6444703937, -0.5262930393, -0.2976804078, -0.5609499216, -0.5716006756, -0.8629753590, -0.4125731587, -0.5084627867, -0.9610863328, -0.3631623685, -0.6441015005, -0.4944246709, -0.2016606182, -0.5384942293, -0.2597846389, 0.2227382064, 0.1793635339, 0.2532257140, 0.1623600423, 0.3204134703, 0.8826860785, 0.3067598343, 0.1323378831, 0.4307833612, 0.0866783708, 0.3701124191, 0.2121245712, 0.3546670675, 0.1996120065, 0.1092787758, 0.2954050303, 0.3728137314, 0.5149897337, 0.2038881630, 0.1929249763, 0.4791953564, 0.2891326249, 0.4093813002, 0.1950402707, 0.1666362286, 0.1850462556, 0.2040749192, 0.6224315763, 0.2236542702, 0.1823637784, 0.2041831017, 0.2119572312, 0.2036985457, 0.2822299600, 0.2533337474, 0.4757409692, 0.2683399618, 0.1938614398, 0.0942907557, 0.0972641781, 0.5786547065, 0.0951929986, 0.1647824645, 1.1873203516, 0.1937654614, 0.0992189050, 0.2141506523, 0.1897932589, 0.7185795307, 0.3564518392, 0.2910888493, 0.1646448523, 0.3102572858, 0.3161481321, 0.4773053527, 0.2281911969, 0.2812270224, 0.5315697789, 0.2008624375, 0.3562478125, 0.2734626532, 0.1115370095, 0.2978371978, 0.1436849833, -0.8668603897, -0.6980533004, -0.9855127335, -0.6318784952, -1.2469964027, -3.4352686405, -1.1938586235, -0.5150371790, -1.6765378714, -0.3373379111, -1.4404165745, -0.8255538344, -1.3803057671, -0.7768570185, -0.4252949953, -1.1496677399, -1.4509295225, -2.0042550564, -0.7934991121, -0.7508322001, -1.8649493456, -1.1252565384, -1.5932445526, -0.7590645552, -0.6485207677, -0.7201695442, -0.7942259312, -2.4224009514, -0.8704255223, -0.7097297907, -0.7946469784, -0.8249025941, -0.7927611470, -1.0983923674, -0.9859331846, -1.8515053988, -1.0443348885, -0.7544767857, -0.3669640720, -0.3785361350, -2.2520287037, -0.3704754710, -0.6413061619, -4.6208548546, -0.7541032434, -0.3861436248, -0.8334390521, -0.7386440635, -2.7965929508, -1.3872518539, -1.1328697205, -0.6407706141, -1.2074702978, -1.2303963900, -1.8575936556, -0.8880825043, -1.0944892168, -2.0687820911, -0.7817234993, -1.3864578009, -1.0642715693, -0.4340836704, -1.1591333151, -0.5591982603, -0.5667356253, -0.4563730061, -0.6443081498, -0.4131092727, -0.8152607679, -2.2459084988, -0.7805204391, -0.3367208242, -1.0960862637, -0.2205446512, -0.9417149425, -0.5397302508, -0.9024157524, -0.5078932643, -0.2780492008, -0.7516292930, -0.9485881329, -1.3103410006, -0.5187735558, -0.4908787608, -1.2192658186, -0.7356697321, -1.0416307449, -0.4962609112, -0.4239896238, -0.4708321393, -0.5192487240, -1.5837163925, -0.5690664649, -0.4640068412, -0.5195239782, -0.5393044949, -0.5182910562, -0.7181065679, -0.6445829868, -1.2104765177, -0.6827648282, -0.4932615161, -0.2399136275, -0.2474792004, -1.4723303318, -0.2422093004, -0.4192728996, -3.0210206509, -0.4930172861, -0.2524528205, -0.5448854566, -0.4829104245, -1.8283554316, -0.9069569707, -0.7406471372, -0.4189227521, -0.7894194126, -0.8044080734, -1.2144569159, -0.5806102157, -0.7155547142, -1.3525274992, -0.5110749006, -0.9064378142, -0.6957990527, -0.2837950289, -0.7578176856, -0.3655923903, -0.4218534529, -0.3397043049, -0.4795950353, -0.3075006306, -0.6068447828, -1.6717569828, -0.5809856057, -0.2506403923, -0.8158791065, -0.1641638726, -0.7009717822, -0.4017518163, -0.6717191935, -0.3780537248, -0.2069677711, -0.5594802499, -0.7060878873, -0.9753611088, -0.3861525357, -0.3653888702, -0.9075686336, -0.5476006866, -0.7753448486, -0.3693951070, -0.3155995011, -0.3504670560, -0.3865062296, -1.1788498163, -0.4235884249, -0.3453865945, -0.3867111504, -0.4014348984, -0.3857933879, -0.5345274210, -0.4797996581, -0.9010262489, -0.5082205534, -0.3671624959, -0.1785813123, -0.1842127889, -1.0959389210, -0.1802901030, -0.3120885789, -2.2487168312, -0.3669807017, -0.1879149377, -0.4055891037, -0.3594576120, -1.3609485626, -0.6750994325, -0.5513056517, -0.3118279278, -0.5876095891, -0.5987665057, -0.9039890766, -0.4321810901, -0.5326279402, -1.0067628622, -0.3804219961, -0.6747130156, -0.5179226398, -0.2112447321, -0.5640866160, -0.2721311450, 0.2131356746, 0.1716309488, 0.2423088253, 0.1553604901, 0.3066000342, 0.8446323276, 0.2935350239, 0.1266326159, 0.4122117460, 0.0829415545, 0.3541564047, 0.2029796094, 0.3393769264, 0.1910064667, 0.1045676321, 0.2826697528, 0.3567412496, 0.4927878380, 0.1950982809, 0.1846077293, 0.4585366249, 0.2766677439, 0.3917323649, 0.1866318285, 0.1594523340, 0.1770686805, 0.1952769905, 0.5955977440, 0.2140122503, 0.1745018512, 0.1953805089, 0.2028194815, 0.1949168295, 0.2700626552, 0.2424122095, 0.4552311599, 0.2567714751, 0.1855038255, 0.0902257636, 0.0930709913, 0.5537081361, 0.0910891071, 0.1576784849, 1.1361334324, 0.1854119748, 0.0949414521, 0.2049183398, 0.1816110313, 0.6876006126, 0.3410847485, 0.2785396278, 0.1575468034, 0.2968817055, 0.3025185764, 0.4567281008, 0.2183535695, 0.2691029608, 0.5086531639, 0.1922030002, 0.3408895135, 0.2616733313, 0.1067285091, 0.2849970460, 0.1374905258, -0.2271788567, -0.1829394400, -0.2582741976, -0.1655969471, -0.3268014193, -0.9002838731, -0.3128755987, -0.1349762529, -0.4393717349, -0.0884064436, -0.3774912357, -0.2163536251, -0.3617379367, -0.2035915852, -0.1114574298, -0.3012944162, -0.3802463710, -0.5252568722, -0.2079530060, -0.1967712492, -0.4887489080, -0.2948969603, -0.4175429940, -0.1989287138, -0.1699583977, -0.1887354553, -0.2081434876, -0.6348407269, -0.2281131893, -0.1859994978, -0.2082538307, -0.2161829472, -0.2077596039, -0.2878566682, -0.2583843768, -0.4852256477, -0.2736897767, -0.1977263838, -0.0961705968, -0.0992032960, -0.5901911259, -0.0970908254, -0.1680676788, -1.2109915018, -0.1976284832, -0.1011969969, -0.2184200883, -0.1935770959, -0.7329055667, -0.3635582924, -0.2968921661, -0.1679273099, -0.3164427876, -0.3224510550, -0.4868212044, -0.2327405512, -0.2868337631, -0.5421674848, -0.2048669606, -0.3633502126, -0.2789145708, -0.1137606874, -0.3037750721, -0.1465495676, -0.1134240627, -0.0913365558, -0.1289490908, -0.0826779380, -0.1631628424, -0.4494866133, -0.1562100500, -0.0673898757, -0.2193660438, -0.0441388711, -0.1884708405, -0.1080193296, -0.1806056499, -0.1016476005, -0.0556475855, -0.1504278928, -0.1898464113, -0.2622461021, -0.1038251370, -0.0982423946, -0.2440186888, -0.1472338289, -0.2084675729, -0.0993195549, -0.0848554894, -0.0942303464, -0.1039202362, -0.3169582784, -0.1138905510, -0.0928643644, -0.1039753258, -0.1079341173, -0.1037285700, -0.1437187940, -0.1290041059, -0.2422596216, -0.1366456598, -0.0987192690, -0.0480152965, -0.0495294370, -0.2946659625, -0.0484747402, -0.0839115009, -0.6046142578, -0.0986703932, -0.0505248383, -0.1090510562, -0.0966476426, -0.3659192920, -0.1815145165, -0.1482299715, -0.0838414207, -0.1579910517, -0.1609908193, -0.2430562377, -0.1162008643, -0.1432080865, -0.2706891000, -0.1022843570, -0.1814106107, -0.1392542720, -0.0567975342, -0.1516664177, -0.0731681138, 0.2910111547, 0.2343414277, 0.3308435977, 0.2121260762, 0.4186255038, 1.1532440186, 0.4007868171, 0.1729016304, 0.5628256202, 0.1132467240, 0.4835580289, 0.2771442831, 0.4633783996, 0.2607963979, 0.1427745372, 0.3859515786, 0.4870873094, 0.6728426218, 0.2663832605, 0.2520596683, 0.6260766983, 0.3777565658, 0.5348634720, 0.2548233271, 0.2177129984, 0.2417660058, 0.2666272521, 0.8132171631, 0.2922080159, 0.2382613122, 0.2667686045, 0.2769256532, 0.2661355138, 0.3687381148, 0.3309847414, 0.6215634942, 0.3505906165, 0.2532832026, 0.1231924370, 0.1270772517, 0.7560219169, 0.1243712306, 0.2152910233, 1.5512536764, 0.2531577945, 0.1296311468, 0.2797913849, 0.2479680479, 0.9388360381, 0.4657102525, 0.3803123832, 0.2151112258, 0.4053563178, 0.4130527675, 0.6236073375, 0.2981355786, 0.3674277663, 0.6945047379, 0.2624301016, 0.4654436707, 0.3572835028, 0.1457249522, 0.3891292214, 0.1877268106, -0.1798949540, -0.1448633075, -0.2045182437, -0.1311303973, -0.2587825656, -0.7129031420, -0.2477551848, -0.1068829447, -0.3479230404, -0.0700059533, -0.2989220321, -0.1713228226, -0.2864475548, -0.1612170190, -0.0882592201, -0.2385844588, -0.3011037409, -0.4159324467, -0.1646706760, -0.1558162272, -0.3870230615, -0.2335185260, -0.3306376338, -0.1575246453, -0.1345840842, -0.1494529694, -0.1648215055, -0.5027080774, -0.1806348115, -0.1472864598, -0.1649088860, -0.1711876839, -0.1645175219, -0.2279435694, -0.2046055049, -0.3842331171, -0.2167253047, -0.1565725803, -0.0761541128, -0.0785555989, -0.4673515856, -0.0768828094, -0.1330868751, -0.9589415789, -0.1564950496, -0.0801343396, -0.1729591936, -0.1532869041, -0.5803621411, -0.2878890336, -0.2350984663, -0.1329757273, -0.2505799234, -0.2553376555, -0.3854965866, -0.1842990667, -0.2271335572, -0.4293233752, -0.1622269452, -0.2877242565, -0.2208626568, -0.0900830850, -0.2405487895, -0.1160474494, -0.0264283512, -0.0212818552, -0.0300457571, -0.0192643553, -0.0380177200, -0.1047325358, -0.0363976881, -0.0157021638, -0.0511133373, -0.0102845682, -0.0439146049, -0.0251690205, -0.0420819819, -0.0236843769, -0.0129661532, -0.0350504182, -0.0442351215, -0.0611045957, -0.0241917539, -0.0228909478, -0.0568575226, -0.0343061872, -0.0485739410, -0.0231419317, -0.0197717343, -0.0219561215, -0.0242139120, -0.0738527924, -0.0265370421, -0.0216378402, -0.0242267493, -0.0251491647, -0.0241692532, -0.0334871672, -0.0300585758, -0.0564476512, -0.0318390951, -0.0230020620, -0.0111877937, -0.0115405964, -0.0686585754, -0.0112948464, -0.0195517819, -0.1408780217, -0.0229906738, -0.0117725292, -0.0254094191, -0.0225193650, -0.0852609500, -0.0422937497, -0.0345382951, -0.0195354521, -0.0368126705, -0.0375116318, -0.0566332676, -0.0270753577, -0.0333681703, -0.0630718619, -0.0238327459, -0.0422695428, -0.0324469097, -0.0132340975, -0.0353390016, -0.0170485210, 0.5030153394, 0.4050612152, 0.5718660355, 0.3666617870, 0.7235978246, 1.9933923483, 0.6927635074, 0.2988619804, 0.9728489518, 0.1957479417, 0.8358342648, 0.4790462852, 0.8009536266, 0.4507888258, 0.2467870265, 0.6671206355, 0.8419346809, 1.1630142927, 0.4604457915, 0.4356873333, 1.0821789503, 0.6529555321, 0.9245161414, 0.4404643476, 0.3763188124, 0.4178946316, 0.4608675539, 1.4056528807, 0.5050840974, 0.4118367434, 0.4611118734, 0.4786683917, 0.4600175619, 0.6373670101, 0.5721099973, 1.0743778944, 0.6059989333, 0.4378021955, 0.2129392028, 0.2196541429, 1.3067904711, 0.2149767578, 0.3721324205, 2.6813554764, 0.4375854433, 0.2240685672, 0.4836218357, 0.4286149144, 1.6227862835, 0.8049842119, 0.6573732495, 0.3718216121, 0.7006618977, 0.7139652967, 1.0779107809, 0.5153299570, 0.6351020932, 1.2004574537, 0.4536127448, 0.8045234680, 0.6175676584, 0.2518868446, 0.6726132631, 0.3244874179, 0.4336794913, 0.3492274284, 0.4930398166, 0.3161209822, 0.6238568425, 1.7186223269, 0.5972726941, 0.2576667368, 0.8387510777, 0.1687659770, 0.7206225395, 0.4130143523, 0.6905498505, 0.3886519372, 0.2127698064, 0.5751644969, 0.7258820534, 1.0027039051, 0.3969777822, 0.3756320477, 0.9330110550, 0.5629518628, 0.7970805168, 0.3797505796, 0.3244468868, 0.3602918983, 0.3973413706, 1.2118971348, 0.4354631007, 0.3550690114, 0.3975520432, 0.4126885533, 0.3966085613, 0.5495120883, 0.4932501614, 0.9262852073, 0.5224677920, 0.3774553835, 0.1835875809, 0.1893769354, 1.1266620159, 0.1853442788, 0.3208375275, 2.3117563725, 0.3772684932, 0.1931828707, 0.4169592261, 0.3695344925, 1.3991007805, 0.6940249205, 0.5667607188, 0.3205696046, 0.6040824056, 0.6155520678, 0.9293311238, 0.4442966580, 0.5475593805, 1.0349860191, 0.3910865784, 0.6936276555, 0.5324418545, 0.2171666771, 0.5799000263, 0.2797599435, -0.5119241476, -0.4122352004, -0.5819942951, -0.3731556833, -0.7364133596, -2.0286970139, -0.7050329447, -0.3041550815, -0.9900789857, -0.1992148161, -0.8506376147, -0.4875306189, -0.8151391745, -0.4587726891, -0.2511578500, -0.6789359450, -0.8568460345, -1.1836122274, -0.4686006904, -0.4434037507, -1.1013453007, -0.6645199060, -0.9408901334, -0.4482653737, -0.3829837441, -0.4252959192, -0.4690299034, -1.4305483103, -0.5140295625, -0.4191307425, -0.4692785442, -0.4871460199, -0.4681648612, -0.6486553550, -0.5822426081, -1.0934060812, -0.6167317033, -0.4455560446, -0.2167105377, -0.2235444188, -1.3299348354, -0.2187841833, -0.3787232041, -2.7288446426, -0.4453354478, -0.2280370146, -0.4921872020, -0.4362060726, -1.6515272856, -0.8192412257, -0.6690159440, -0.3784069121, -0.7130712271, -0.7266102433, -1.0970014334, -0.5244568586, -0.6463503242, -1.2217186689, -0.4616466165, -0.8187722564, -0.6285052896, -0.2563479841, -0.6845258474, -0.3302343786, -0.1229800656, -0.0990316793, -0.1398130804, -0.0896435678, -0.1769093424, -0.4873559475, -0.1693707854, -0.0730674863, -0.2378476858, -0.0478575788, -0.2043495327, -0.1171199754, -0.1958217174, -0.1102114320, -0.0603359044, -0.1631014794, -0.2058410048, -0.2843403816, -0.1125724241, -0.1065193340, -0.2645772994, -0.1596383005, -0.2260310054, -0.1076872498, -0.0920045823, -0.1021692753, -0.1126755327, -0.3436620533, -0.1234858483, -0.1006882042, -0.1127352640, -0.1170275882, -0.1124677286, -0.1558271348, -0.1398727298, -0.2626700401, -0.1481580883, -0.1070363894, -0.0520605929, -0.0537023023, -0.3194916248, -0.0525587462, -0.0909810588, -0.6555531621, -0.1069833934, -0.0547815636, -0.1182386354, -0.1047902256, -0.3967480659, -0.1968071461, -0.1607183814, -0.0909050778, -0.1713018268, -0.1745543182, -0.2635337710, -0.1259908080, -0.1552733928, -0.2934947312, -0.1109018326, -0.1966944933, -0.1509864628, -0.0615827404, -0.1644443423, -0.0793325379, -0.0704758167, -0.0567517877, -0.0801222622, -0.0513717718, -0.1013808995, -0.2792876065, -0.0970608070, -0.0418725647, -0.1363026500, -0.0274255984, -0.1171059757, -0.0671175942, -0.1122189686, -0.0631585345, -0.0345765166, -0.0934680700, -0.1179606840, -0.1629460901, -0.0645115450, -0.0610427149, -0.1516205221, -0.0914834440, -0.1295309067, -0.0617120080, -0.0527247861, -0.0585498400, -0.0645706281, -0.1969413906, -0.0707656667, -0.0577010848, -0.0646048635, -0.0670646504, -0.0644515380, -0.0892993882, -0.0801564455, -0.1505275369, -0.0849045068, -0.0613390207, -0.0298342071, -0.0307750180, -0.1830901057, -0.0301196836, -0.0521382429, -0.3756758869, -0.0613086522, -0.0313935056, -0.0677586570, -0.0600518212, -0.2273632288, -0.1127836853, -0.0921024010, -0.0520947017, -0.0981674269, -0.1000313237, -0.1510225087, -0.0722011775, -0.0889820606, -0.1681921333, -0.0635541826, -0.1127191260, -0.0865253583, -0.0352910347, -0.0942376256, -0.0454628617, -0.5599519014, -0.4509103000, -0.6365958452, -0.4081644118, -0.8055022359, -2.2190253735, -0.7711777687, -0.3326903284, -1.0829662085, -0.2179047614, -0.9304427505, -0.5332697630, -0.8916139603, -0.5018138289, -0.2747209966, -0.7426323891, -0.9372336864, -1.2946565151, -0.5125639439, -0.4850030243, -1.2046713829, -0.7268639207, -1.0291626453, -0.4903207719, -0.4189145565, -0.4651963711, -0.5130333900, -1.5647594929, -0.5622548461, -0.4584527612, -0.5133053660, -0.5328491330, -0.5120872259, -0.7095109224, -0.6368674636, -1.1959872246, -0.6745922565, -0.4873572588, -0.2370419055, -0.2445169240, -1.4547067881, -0.2393100858, -0.4142542779, -2.9848597050, -0.4871159792, -0.2494309992, -0.5383632183, -0.4771300852, -1.8064703941, -0.8961008191, -0.7317817211, -0.4139083028, -0.7799702287, -0.7947794199, -1.1999200583, -0.5736604333, -0.7069896460, -1.3363379240, -0.5049573779, -0.8955879211, -0.6874704361, -0.2803980708, -0.7487467527, -0.3612163365, -0.5083865523, -0.4093864560, -0.5779724717, -0.3705770075, -0.7313244343, -2.0146777630, -0.7001608610, -0.3020532429, -0.9832370877, -0.1978381574, -0.8447593451, -0.4841615558, -0.8095062375, -0.4556023777, -0.2494222373, -0.6742442250, -0.8509248495, -1.1754330397, -0.4653624594, -0.4403396249, -1.0937345028, -0.6599277854, -0.9343882203, -0.4451676607, -0.3803371787, -0.4223569334, -0.4657886922, -1.4206625223, -0.5104774237, -0.4162343442, -0.4660356343, -0.4837796390, -0.4649296403, -0.6441728473, -0.5782190561, -1.0858501196, -0.6124697924, -0.4424770772, -0.2152129710, -0.2219996154, -1.3207443953, -0.2172722816, -0.3761060536, -2.7099871635, -0.4422580004, -0.2264611721, -0.4887859523, -0.4331916869, -1.6401144266, -0.8135798573, -0.6643927097, -0.3757919669, -0.7081435919, -0.7215890884, -1.0894206762, -0.5208326578, -0.6418837309, -1.2132760286, -0.4584564269, -0.8131141663, -0.6241620183, -0.2545765042, -0.6797954440, -0.3279522955, 0.1640143245, 0.1320751756, 0.1864639372, 0.1195545718, 0.2359379530, 0.6499699950, 0.2258840352, 0.0974476114, 0.3172093332, 0.0638260171, 0.2725340128, 0.1561989188, 0.2611607313, 0.1469852328, 0.0804679394, 0.2175228745, 0.2745231092, 0.3792150617, 0.1501339972, 0.1420612037, 0.3528577387, 0.2129041553, 0.3014498353, 0.1436188072, 0.1227033660, 0.1362596750, 0.1502715200, 0.4583303630, 0.1646888703, 0.1342844218, 0.1503511816, 0.1560757011, 0.1499943733, 0.2078213394, 0.1865434945, 0.3503140807, 0.1975933909, 0.1427507699, 0.0694314390, 0.0716209263, 0.4260950685, 0.0700958073, 0.1213383377, 0.8742888570, 0.1426800936, 0.0730603039, 0.1576908231, 0.1397551447, 0.5291293859, 0.2624749839, 0.2143446207, 0.1212370023, 0.2284594029, 0.2327971458, 0.3514660001, 0.1680296510, 0.2070828378, 0.3914238811, 0.1479059905, 0.2623247504, 0.2013655007, 0.0821307972, 0.2193138003, 0.1058031023, 0.2328079343, 0.1874723434, 0.2646737397, 0.1697001457, 0.3348989785, 0.9225912690, 0.3206280768, 0.1383207142, 0.4502585530, 0.0905969962, 0.3868447840, 0.2217144668, 0.3707011342, 0.2086362243, 0.1142191440, 0.3087599576, 0.3896681964, 0.5382717848, 0.2131057084, 0.2016468793, 0.5008592010, 0.3022039831, 0.4278889596, 0.2038578093, 0.1741696596, 0.1934119761, 0.2133008987, 0.6505709291, 0.2337654084, 0.1906082332, 0.2134139836, 0.2215395719, 0.2129075080, 0.2949892282, 0.2647866607, 0.4972486496, 0.2804712951, 0.2026256919, 0.0985535309, 0.1016613767, 0.6048149467, 0.0994965658, 0.1722320914, 1.2409976721, 0.2025253624, 0.1037044749, 0.2238321453, 0.1983735859, 0.7510656714, 0.3725666106, 0.3042486012, 0.1720882505, 0.3242836595, 0.3304408193, 0.4988837540, 0.2385074496, 0.2939409614, 0.5556014180, 0.2099431902, 0.3723533452, 0.2858255804, 0.1165794656, 0.3113020658, 0.1501808017, 0.0480131805, 0.0386633873, 0.0545850284, 0.0349981338, 0.0690679401, 0.1902707517, 0.0661247820, 0.0285265930, 0.0928591415, 0.0186842848, 0.0797809884, 0.0457253158, 0.0764516070, 0.0430281200, 0.0235560015, 0.0636771545, 0.0803632736, 0.1110105589, 0.0439498872, 0.0415866747, 0.1032947749, 0.0623250790, 0.0882457420, 0.0420426428, 0.0359199047, 0.0398883484, 0.0439901426, 0.1341705918, 0.0482106432, 0.0393101163, 0.0440134630, 0.0456892475, 0.0439090095, 0.0608371459, 0.0546083190, 0.1025501490, 0.0578430407, 0.0417885371, 0.0203252006, 0.0209661480, 0.1247341037, 0.0205196887, 0.0355203077, 0.2559373379, 0.0417678468, 0.0213875081, 0.0461620539, 0.0409116074, 0.1548961401, 0.0768363327, 0.0627467558, 0.0354906432, 0.0668786913, 0.0681485087, 0.1028873622, 0.0491886176, 0.0606209598, 0.1145845428, 0.0432976671, 0.0767923519, 0.0589472800, 0.0240427833, 0.0642014295, 0.0309725609, 0.6100285649, 0.4912353456, 0.6935268641, 0.4446666837, 0.8775385618, 2.4174735546, 0.8401444554, 0.3624429107, 1.1798162460, 0.2373920530, 1.0136525631, 0.5809602737, 0.9713513255, 0.5466912389, 0.2992893755, 0.8090462685, 1.0210508108, 1.4104380608, 0.5584026575, 0.5283769965, 1.3124055862, 0.7918675542, 1.1212010384, 0.5341702700, 0.4563782215, 0.5067990422, 0.5589141250, 1.7046964169, 0.6125374436, 0.4994523525, 0.5592104197, 0.5805019736, 0.5578833222, 0.7729627490, 0.6938227415, 1.3029447794, 0.7349212766, 0.5309417844, 0.2582406402, 0.2663841546, 1.5848016739, 0.2607116699, 0.4513011575, 3.2517964840, 0.5306789279, 0.2717376947, 0.5865092278, 0.5197999477, 1.9680235386, 0.9762394428, 0.7972251773, 0.4509242773, 0.8497231603, 0.8658568263, 1.3072292805, 0.6249630451, 0.7702159882, 1.4558470249, 0.5501158834, 0.9756805897, 0.7489511371, 0.3054741621, 0.8157073855, 0.3935200274, -0.7176564336, -0.5779044032, -0.8158863783, -0.5231196284, -1.0323634148, -2.8439905643, -0.9883718491, -0.4263890386, -1.3879722357, -0.2792753279, -1.1924921274, -0.6834595799, -1.1427276134, -0.6431444287, -0.3520932496, -0.9517869949, -1.2011957169, -1.6592828035, -0.6569221020, -0.6215990186, -1.5439543724, -0.9315774441, -1.3190155029, -0.6284143925, -0.5368974209, -0.5962139964, -0.6575238109, -2.0054576397, -0.7206079960, -0.5875711441, -0.6578723788, -0.6829204559, -0.6563111544, -0.9093372226, -0.8162344694, -1.5328245163, -0.8645840883, -0.6246162653, -0.3038022518, -0.3133825362, -1.8644095659, -0.3067092597, -0.5309246182, -3.8255138397, -0.6243070364, -0.3196806014, -0.6899875998, -0.6115087271, -2.3152437210, -1.1484781504, -0.9378802776, -0.5304812193, -0.9996405840, -1.0186206102, -1.5378648043, -0.7352257967, -0.9061058164, -1.7127034664, -0.6471733451, -1.1478208303, -0.8810892105, -0.3593692183, -0.9596233368, -0.4629490972, 0.2826508582, 0.2276091576, 0.3213389814, 0.2060320228, 0.4065990448, 1.1201131344, 0.3892728090, 0.1679344326, 0.5466564894, 0.1099933237, 0.4696661532, 0.2691823542, 0.4500662684, 0.2533041239, 0.1386728436, 0.3748637736, 0.4730940461, 0.6535128355, 0.2587305009, 0.2448183894, 0.6080904603, 0.3669041991, 0.5194976926, 0.2475026548, 0.2114584446, 0.2348204404, 0.2589674592, 0.7898546457, 0.2838133276, 0.2314164191, 0.2591047585, 0.2689699829, 0.2584898472, 0.3581448197, 0.3214760721, 0.6037068963, 0.3405186832, 0.2460067570, 0.1196533069, 0.1234265268, 0.7343025804, 0.1207982376, 0.2091060430, 1.5066885948, 0.2458849549, 0.1259070486, 0.2717534006, 0.2408443093, 0.9118647575, 0.4523311257, 0.3693866134, 0.2089314163, 0.3937110305, 0.4011864066, 0.6056920886, 0.2895705998, 0.3568721414, 0.6745526791, 0.2548908889, 0.4520722032, 0.3470192850, 0.1415385008, 0.3779501617, 0.1823337078, 0.3277618587, 0.2639355063, 0.3726245761, 0.2389146686, 0.4714921117, 1.2988828421, 0.4514006376, 0.1947367191, 0.6339027286, 0.1275482178, 0.5446247458, 0.3121437728, 0.5218967199, 0.2937313616, 0.1608049870, 0.4346919358, 0.5485997200, 0.7578133345, 0.3000237942, 0.2838913202, 0.7051415443, 0.4254620075, 0.6024093628, 0.2870039940, 0.2452071458, 0.2722977102, 0.3002986014, 0.9159152508, 0.3291098475, 0.2683504224, 0.3004578054, 0.3118975163, 0.2997447550, 0.4153046310, 0.3727835417, 0.7000583410, 0.3948653638, 0.2852693498, 0.1387499422, 0.1431253552, 0.8514970541, 0.1400776058, 0.2424793094, 1.7471556664, 0.2851281166, 0.1460017711, 0.3151251674, 0.2792829871, 1.0573980808, 0.5245230198, 0.4283405840, 0.2422768027, 0.4565472007, 0.4652156234, 0.7023603320, 0.3357859850, 0.4138288200, 0.7822111249, 0.2955714166, 0.5242227912, 0.4024034739, 0.1641280055, 0.4382708967, 0.2114341110, 0.4017398655, 0.3235074878, 0.4567283690, 0.2928392887, 0.5779109597, 1.5920491219, 0.5532847047, 0.2386900634, 0.7769786716, 0.1563366950, 0.6675500870, 0.3825966418, 0.6396921873, 0.3600284755, 0.1970997304, 0.5328047276, 0.6724222898, 0.9288567305, 0.3677411377, 0.3479674757, 0.8642965555, 0.5214915872, 0.7383770943, 0.3517826796, 0.3005520105, 0.3337570727, 0.3680779636, 1.1226433516, 0.4033921063, 0.3289188743, 0.3682730794, 0.3822948337, 0.3673991263, 0.5090416074, 0.4569232464, 0.8580660820, 0.4839890599, 0.3496565223, 0.1700667143, 0.1754296869, 1.0436855555, 0.1716940254, 0.2972084880, 2.1414999962, 0.3494834006, 0.1789553165, 0.3862509727, 0.3423189819, 1.2960597277, 0.6429113150, 0.5250198841, 0.2969602644, 0.5595929027, 0.5702178478, 0.8608876467, 0.4115750790, 0.5072327256, 0.9587612748, 0.3622838259, 0.6425433159, 0.4932285547, 0.2011727691, 0.5371915102, 0.2591561675, 0.0562031157, 0.0452584662, 0.0638959706, 0.0409680046, 0.0808493271, 0.2227265239, 0.0774041340, 0.0333925672, 0.1086987630, 0.0218713898, 0.0933897793, 0.0535249971, 0.0894924775, 0.0503677242, 0.0275741089, 0.0745389983, 0.0940713882, 0.1299463958, 0.0514467210, 0.0486803986, 0.1209144667, 0.0729562938, 0.1032984182, 0.0492141433, 0.0420470089, 0.0466923751, 0.0514938422, 0.1570569873, 0.0564342625, 0.0460155122, 0.0515211411, 0.0534827746, 0.0513988696, 0.0712145567, 0.0639232323, 0.1200428307, 0.0677097216, 0.0489166938, 0.0237922091, 0.0245424882, 0.1460108459, 0.0240198709, 0.0415792502, 0.2995943129, 0.0488924757, 0.0250357203, 0.0540362336, 0.0478901789, 0.1813178211, 0.0899428278, 0.0734499022, 0.0415445268, 0.0782866403, 0.0797730684, 0.1204375625, 0.0575790554, 0.0709614903, 0.1341300160, 0.0506832451, 0.0898913443, 0.0690023229, 0.0281439256, 0.0751527026, 0.0362557620, 0.3262026906, 0.2626799941, 0.3708519936, 0.2377781570, 0.4692492485, 1.2927039862, 0.4492533505, 0.1938103586, 0.6308872104, 0.1269414723, 0.5420339704, 0.3106589019, 0.5194140673, 0.2923340797, 0.1600400358, 0.4326241016, 0.5459900498, 0.7542083859, 0.2985965908, 0.2825408578, 0.7017871737, 0.4234381020, 0.5995436907, 0.2856387198, 0.2440406978, 0.2710023820, 0.2988700867, 0.9115582705, 0.3275442719, 0.2670738697, 0.2990285158, 0.3104138374, 0.2983188629, 0.4133290350, 0.3710102141, 0.6967281699, 0.3929870129, 0.2839123309, 0.1380899101, 0.1424445212, 0.8474465013, 0.1394112557, 0.2413258404, 1.7388443947, 0.2837717533, 0.1453072429, 0.3136261106, 0.2779544294, 1.0523680449, 0.5220279098, 0.4263029695, 0.2411242872, 0.4543754160, 0.4630025923, 0.6990191936, 0.3341886401, 0.4118602574, 0.7784901261, 0.2941653728, 0.5217290521, 0.4004892409, 0.1633472443, 0.4361860454, 0.2104283124, 0.4296990633, 0.3460220993, 0.4885145426, 0.3132195473, 0.6181309223, 1.7028483152, 0.5917907953, 0.2553018034, 0.8310527802, 0.1672170013, 0.7140084505, 0.4092236161, 0.6842117906, 0.3850847781, 0.2108169496, 0.5698854923, 0.7192197442, 0.9935008883, 0.3933342099, 0.3721843958, 0.9244475961, 0.5577849746, 0.7897647023, 0.3762651384, 0.3214690387, 0.3569850326, 0.3936944902, 1.2007740736, 0.4314663112, 0.3518100977, 0.3939031959, 0.4089007974, 0.3929683864, 0.5444685221, 0.4887229800, 0.9177834988, 0.5176724792, 0.3739909828, 0.1819025576, 0.1876387894, 1.1163212061, 0.1836431324, 0.3178927898, 2.2905385494, 0.3738058209, 0.1914097816, 0.4131322503, 0.3661427796, 1.3862594366, 0.6876549721, 0.5615587831, 0.3176273108, 0.5985379815, 0.6099023819, 0.9208014607, 0.4402187765, 0.5425337553, 1.0254865885, 0.3874970973, 0.6872613430, 0.5275549889, 0.2151734531, 0.5745775104, 0.2771922350, -0.0497291647, -0.0400452130, -0.0565358922, -0.0362489633, -0.0715364218, -0.1970710009, -0.0684880689, -0.0295461286, -0.0961779132, -0.0193520579, -0.0826323479, -0.0473595336, -0.0791839734, -0.0445659421, -0.0243978892, -0.0659529641, -0.0832354501, -0.1149780601, -0.0455206521, -0.0430729762, -0.1069865152, -0.0645525679, -0.0913996324, -0.0435452424, -0.0372036770, -0.0413139500, -0.0455623455, -0.1389658302, -0.0499336869, -0.0407150537, -0.0455864966, -0.0473221727, -0.0454783142, -0.0630114600, -0.0565600097, -0.1062152758, -0.0599103421, -0.0432820544, -0.0210516211, -0.0217154752, -0.1291920841, -0.0212530587, -0.0367898010, -0.2650845051, -0.0432606265, -0.0221518949, -0.0478118807, -0.0423737802, -0.1604321003, -0.0795824528, -0.0649893209, -0.0367590748, -0.0692689270, -0.0705841258, -0.1065645441, -0.0509466119, -0.0627875403, -0.1186797768, -0.0448451191, -0.0795368999, -0.0610540472, -0.0249020699, -0.0664959773, -0.0320795141, -0.7642825842, -0.6154508591, -0.8688945174, -0.5571066737, -1.0994361639, -3.0287647247, -1.0525863171, -0.4540915191, -1.4781488180, -0.2974198461, -1.2699683905, -0.7278639674, -1.2169706821, -0.6849295497, -0.3749687374, -1.0136245489, -1.2792373896, -1.7670863867, -0.6996023655, -0.6619843245, -1.6442651749, -0.9921020269, -1.4047118425, -0.6692425013, -0.5717796087, -0.6349500418, -0.7002431750, -2.1357522011, -0.7674258947, -0.6257456541, -0.7006143928, -0.7272897959, -0.6989516616, -0.9684168696, -0.8692651987, -1.6324120760, -0.9207561016, -0.6651976109, -0.3235402703, -0.3337429762, -1.9855402708, -0.3266361654, -0.5654187799, -4.0740575790, -0.6648682356, -0.3404502571, -0.7348160744, -0.6512384415, -2.4656651020, -1.2230948210, -0.9988144040, -0.5649465919, -1.0645872355, -1.0848004818, -1.6377799511, -0.7829934359, -0.9649755359, -1.8239777088, -0.6892201900, -1.2223947048, -0.9383336306, -0.3827174306, -1.0219700336, -0.4930268824, 0.6367890239, 0.5127846003, 0.7239500880, 0.4641731083, 0.9160339832, 2.5235221386, 0.8769994378, 0.3783423901, 1.2315717936, 0.2478058487, 1.0581189394, 0.6064455509, 1.0139620304, 0.5706731677, 0.3124184310, 0.8445370793, 1.0658416748, 1.4723104239, 0.5828983784, 0.5515555739, 1.3699774742, 0.8266047835, 1.1703852415, 0.5576030016, 0.4763983786, 0.5290310383, 0.5834322572, 1.7794772387, 0.6394079328, 0.5213620663, 0.5837415457, 0.6059671640, 0.5823562741, 0.8068706393, 0.7242589593, 1.3601016998, 0.7671604156, 0.5542328358, 0.2695690095, 0.2780697346, 1.6543229818, 0.2721484303, 0.4710986018, 3.3944447041, 0.5539584160, 0.2836581469, 0.6122379303, 0.5426023006, 2.0543558598, 1.0190645456, 0.8321974277, 0.4707051814, 0.8869984150, 0.9038397670, 1.3645740747, 0.6523786187, 0.8040034175, 1.5197113752, 0.5742480755, 1.0184812546, 0.7818057537, 0.3188745379, 0.8514903784, 0.4107827544, 0.1485324800, 0.1196081713, 0.1688629985, 0.1082694307, 0.2136670053, 0.5886172652, 0.2045621127, 0.0882492140, 0.2872669101, 0.0578012764, 0.2468086481, 0.1414548010, 0.2365089357, 0.1331108212, 0.0728723109, 0.1969901919, 0.2486100048, 0.3434197307, 0.1359623671, 0.1286515892, 0.3195503652, 0.1928074509, 0.2729950249, 0.1300621629, 0.1111209989, 0.1233976856, 0.1360868961, 0.4150670767, 0.1491433531, 0.1216088831, 0.1361590475, 0.1413432062, 0.1358359158, 0.1882044077, 0.1689350456, 0.3172467947, 0.1789419055, 0.1292760670, 0.0628775805, 0.0648603961, 0.3858745694, 0.0634792373, 0.1098848209, 0.7917619348, 0.1292120665, 0.0661639050, 0.1428058892, 0.1265632063, 0.4791831374, 0.2376991212, 0.1941119432, 0.1097930521, 0.2068943828, 0.2108226717, 0.3182899952, 0.1521687806, 0.1875356138, 0.3544761240, 0.1339446753, 0.2375630587, 0.1823579669, 0.0743782073, 0.1986120641, 0.0958160087, -0.7329683304, -0.5902345777, -0.8332940936, -0.5342808962, -1.0543899536, -2.9046697617, -1.0094596148, -0.4354864359, -1.4175859690, -0.2852339447, -1.2179350853, -0.6980418563, -1.1671087742, -0.6568665504, -0.3596054912, -0.9720942378, -1.2268242836, -1.6946852207, -0.6709381938, -0.6348614097, -1.5768960714, -0.9514535069, -1.3471578360, -0.6418222189, -0.5483525991, -0.6089347601, -0.6715527177, -2.0482459068, -0.7359828353, -0.6001075506, -0.6719087362, -0.6974911690, -0.6703141928, -0.9287387729, -0.8336495757, -1.5655287504, -0.8830307722, -0.6379430890, -0.3102841675, -0.3200688362, -1.9041885138, -0.3132531941, -0.5422524214, -3.9071347713, -0.6376271844, -0.3265013099, -0.7047091126, -0.6245558262, -2.3646414280, -1.1729819775, -0.9578908682, -0.5417995453, -1.0209687948, -1.0403538942, -1.5706765652, -0.7509125471, -0.9254384637, -1.7492455244, -0.6609813571, -1.1723105907, -0.8998880982, -0.3670367002, -0.9800978303, -0.4728265405, 1.0089943409, 0.8125090003, 1.1471014023, 0.7354838848, 1.4514590502, 3.9985294342, 1.3896086216, 0.5994848013, 1.9514298439, 0.3926492333, 1.6765931845, 0.9609150887, 1.6066263914, 0.9042336345, 0.4950281084, 1.3381719589, 1.6888298988, 2.3328809738, 0.9236044884, 0.8739417195, 2.1707341671, 1.3097581863, 1.8544795513, 0.8835238814, 0.7548548579, 0.8382514715, 0.9244504571, 2.8195877075, 1.0131441355, 0.8260999918, 0.9249405861, 0.9601570368, 0.9227455258, 1.2784893513, 1.1475908756, 2.1550858021, 1.2155683041, 0.8781839013, 0.4271330237, 0.4406024814, 2.6212804317, 0.4312201440, 0.7464573979, 5.3785095215, 0.8777490854, 0.4494573176, 0.9700931311, 0.8597552180, 3.2551338673, 1.6147114038, 1.3186197281, 0.7458339930, 1.4054520130, 1.4321372509, 2.1621723175, 1.0336961746, 1.2739461660, 2.4079880714, 0.9098981023, 1.6137870550, 1.2387739420, 0.5052577853, 1.3491895199, 0.6508866549, -0.2890120447, -0.2327316254, -0.3285708725, -0.2106688768, -0.4157497585, -1.1453217268, -0.3980335891, -0.1717138737, -0.5589592457, -0.1124687716, -0.4802362025, -0.2752404213, -0.4601952136, -0.2590048313, -0.1417937428, -0.3833002746, -0.4837412536, -0.6682205200, -0.2645533383, -0.2503281534, -0.6217758656, -0.3751615584, -0.5311892033, -0.2530728281, -0.2162174284, -0.2401051819, -0.2647956610, -0.8076307178, -0.2902006805, -0.2366245687, -0.2649360299, -0.2750233114, -0.2643072903, -0.3662050664, -0.3287110329, -0.6172936559, -0.3481822312, -0.2515432537, -0.1223461628, -0.1262042969, -0.7508284450, -0.1235168651, -0.2138120830, -1.5405973196, -0.2514187098, -0.1287406385, -0.2778693438, -0.2462646216, -0.9323866963, -0.4625110626, -0.3776998222, -0.2136335224, -0.4025717080, -0.4102152884, -0.6193234921, -0.2960875332, -0.3649037182, -0.6897338629, -0.2606273592, -0.4622462988, -0.3548291326, -0.1447238922, -0.3864561021, -0.1864372194, 0.4709531963, 0.3792426586, 0.5354154110, 0.3432908058, 0.6774758101, 1.8663338423, 0.6486068368, 0.2798125446, 0.9108397365, 0.1832710057, 0.7825583220, 0.4485119581, 0.7499009371, 0.4220556021, 0.2310568690, 0.6245985031, 0.7882698774, 1.0888838768, 0.4310970604, 0.4079166949, 1.0132011175, 0.6113362312, 0.8655876517, 0.4123892188, 0.3523323238, 0.3912580907, 0.4314919114, 1.3160568476, 0.4728901088, 0.3855863214, 0.4317206740, 0.4481581450, 0.4306961000, 0.5967413783, 0.5356438160, 1.0058971643, 0.5673726797, 0.4098967612, 0.1993664801, 0.2056534290, 1.2234958410, 0.2012741715, 0.3484127522, 2.5104463100, 0.4096938074, 0.2097864598, 0.4527958632, 0.4012950659, 1.5193501711, 0.7536746860, 0.6154723763, 0.3481217623, 0.6560018063, 0.6684572697, 1.0092048645, 0.4824828804, 0.5946208239, 1.1239405870, 0.4246995151, 0.7532432675, 0.5782039762, 0.2358316183, 0.6297410131, 0.3038046360, 0.5989318490, 0.4822995365, 0.6809111834, 0.4365779757, 0.8615756631, 2.3734984398, 0.8248617649, 0.3558498919, 1.1583547592, 0.2330737710, 0.9952136874, 0.5703923106, 0.9536818862, 0.5367466211, 0.2938451469, 0.7943292856, 1.0024774075, 1.3847813606, 0.5482450128, 0.5187655687, 1.2885322571, 0.7774630785, 1.1008057594, 0.5244534612, 0.4480764568, 0.4975800812, 0.5487471819, 1.6736871004, 0.6013950706, 0.4903670251, 0.5490381122, 0.5699423552, 0.5477350950, 0.7589021325, 0.6812016964, 1.2792435884, 0.7215526700, 0.5212836862, 0.2535431087, 0.2615384758, 1.5559732914, 0.2559691966, 0.4430917501, 3.1926445961, 0.5210255980, 0.2667946517, 0.5758403540, 0.5103445053, 1.9322241545, 0.9584810734, 0.7827232480, 0.4427217245, 0.8342662454, 0.8501064181, 1.2834500074, 0.6135946512, 0.7562053204, 1.4293644428, 0.5401089787, 0.9579324722, 0.7353273034, 0.2999173999, 0.8008692265, 0.3863616884, -0.9168754220, -0.7383286953, -1.0423736572, -0.6683358550, -1.3189439774, -3.6334726810, -1.2627404928, -0.5447531939, -1.7732685804, -0.3568012118, -1.5235239267, -0.8731856346, -1.4599449635, -0.8216791153, -0.4498331249, -1.2159998417, -1.5346435308, -2.1198940277, -0.8392814398, -0.7941527963, -1.9725508690, -1.1901801825, -1.6851695776, -0.8028601408, -0.6859382987, -0.7617209554, -0.8400502205, -2.5621657372, -0.9206463099, -0.7506788969, -0.8404955268, -0.8724968433, -0.8385008574, -1.1617661715, -1.0428183079, -1.9583313465, -1.1045897007, -0.7980076671, -0.3881367147, -0.4003764391, -2.3819632530, -0.3918506801, -0.6783074737, -4.8874635696, -0.7976125479, -0.4084228575, -0.8815257549, -0.7812614441, -2.9579472542, -1.4672918320, -1.1982326508, -0.6777409911, -1.2771373987, -1.3013862371, -1.9647707939, -0.9393219948, -1.1576377153, -2.1881439686, -0.8268264532, -1.4664518833, -1.1256766319, -0.4591288865, -1.2260115147, -0.5914621949, 0.7144432068, 0.5753169060, 0.8122332692, 0.5207774043, 1.0277410746, 2.8312566280, 0.9839464426, 0.4244799018, 1.3817577362, 0.2780249119, 1.1871528625, 0.6803994179, 1.1376111507, 0.6402648091, 0.3505167663, 0.9475254416, 1.1958173513, 1.6518534422, 0.6539807916, 0.6188158393, 1.5370414257, 0.9274063706, 1.3131096363, 0.6256007552, 0.5344935060, 0.5935444832, 0.6545798182, 1.9964782000, 0.7173814774, 0.5849403143, 0.6549268365, 0.6798627377, 0.6533725262, 0.9052656889, 0.8125798106, 1.5259612799, 0.8607129455, 0.6218196154, 0.3024419844, 0.3119793832, 1.8560618162, 0.3053359687, 0.5285474658, 3.8083853722, 0.6215117574, 0.3182492554, 0.6868981719, 0.6087707281, 2.3048772812, 1.1433359385, 0.9336810112, 0.5281060338, 0.9951647520, 1.0140599012, 1.5309791565, 0.7319338918, 0.9020488262, 1.7050348520, 0.6442756653, 1.1426814795, 0.8771442175, 0.3577601612, 0.9553266764, 0.4608762562, 0.5511922836, 0.4438565075, 0.6266372800, 0.4017793238, 0.7929013968, 2.1843121052, 0.7591138482, 0.3274858892, 1.0660248995, 0.2144959718, 0.9158874154, 0.5249276161, 0.8776660562, 0.4939637482, 0.2704233825, 0.7310150862, 0.9225721359, 1.2744035721, 0.5045456290, 0.4774158895, 1.1858261824, 0.7154932022, 1.0130629539, 0.4826504290, 0.4123612642, 0.4579190612, 0.5050077438, 1.5402812958, 0.5534592271, 0.4512809813, 0.5052754879, 0.5245134830, 0.5040763617, 0.6984117031, 0.6269046664, 1.1772779226, 0.6640393138, 0.4797333181, 0.2333337367, 0.2406918257, 1.4319500923, 0.2355664521, 0.4077739120, 2.9381661415, 0.4794957936, 0.2455290407, 0.5299413800, 0.4696660936, 1.7782108784, 0.8820827007, 0.7203341126, 0.4074333608, 0.7677687407, 0.7823463082, 1.1811491251, 0.5646863580, 0.6959298849, 1.3154330254, 0.4970581234, 0.8815777898, 0.6767160296, 0.2760116756, 0.7370337248, 0.3555656374, -0.4290497303, -0.3454992175, -0.4877763391, -0.3127462268, -0.6171967983, -1.7002750635, -0.5908964872, -0.2549159825, -0.8297969699, -0.1669643074, -0.7129294872, -0.4086052179, -0.6831778288, -0.3845028579, -0.2104983777, -0.5690243244, -0.7181328535, -0.9919995666, -0.3927398324, -0.3716219664, -0.9230506420, -0.5569420457, -0.7885712385, -0.3756965399, -0.3209832311, -0.3564455807, -0.3930995464, -1.1989594698, -0.4308142960, -0.3512784541, -0.3933079541, -0.4082828760, -0.3923745453, -0.5436457992, -0.4879844487, -0.9163966179, -0.5168901682, -0.3734258413, -0.1816276759, -0.1873552352, -1.1146342754, -0.1833656281, -0.3174124360, -2.2870771885, -0.3732409477, -0.1911205351, -0.4125079513, -0.3655894995, -1.3841646910, -0.6866158247, -0.5607101917, -0.3171473444, -0.5976334810, -0.6089807153, -0.9194099903, -0.4395535588, -0.5417138934, -1.0239369869, -0.3869115114, -0.6862227917, -0.5267577767, -0.2148482949, -0.5737092495, -0.2767733634, -0.7521438003, -0.6056759357, -0.8550941944, -0.5482584238, -1.0819742680, -2.9806599617, -1.0358685255, -0.4468793869, -1.4546719790, -0.2926960588, -1.2497979403, -0.7163035870, -1.1976419687, -0.6740510464, -0.3690132797, -0.9975255728, -1.2589197159, -1.7390204668, -0.6884908676, -0.6514702439, -1.6181498766, -0.9763448834, -1.3824014664, -0.6586132050, -0.5626983047, -0.6248653531, -0.6891214848, -2.1018307209, -0.7552371621, -0.6158071756, -0.6894868016, -0.7157385349, -0.6878505349, -0.9530358911, -0.8554590344, -1.6064851284, -0.9061321020, -0.6546325684, -0.3184016347, -0.3284422755, -1.9540047646, -0.3214483261, -0.5564385056, -4.0093507767, -0.6543084383, -0.3350430429, -0.7231453061, -0.6408950686, -2.4265038967, -1.2036688328, -0.9829506278, -0.5559737682, -1.0476788282, -1.0675710440, -1.6117677689, -0.7705574632, -0.9496492147, -1.7950083017, -0.6782735586, -1.2029799223, -0.9234304428, -0.3766388893, -1.0057384968, -0.4851963520, 0.5689483285, 0.4581548274, 0.6468237042, 0.4147221744, 0.8184438348, 2.2546772957, 0.7835678458, 0.3380354643, 1.1003656387, 0.2214057297, 0.9453917146, 0.5418375731, 0.9059390426, 0.5098762512, 0.2791347802, 0.7545638680, 0.9522917271, 1.3154569864, 0.5207989812, 0.4927953184, 1.2240262032, 0.7385420203, 1.0456976891, 0.4981984794, 0.4256450236, 0.4726704359, 0.5212759972, 1.5898996592, 0.5712882876, 0.4658184648, 0.5215523839, 0.5414101481, 0.5203146338, 0.7209102511, 0.6470996737, 1.2152025700, 0.6854305863, 0.4951873720, 0.2408503294, 0.2484454364, 1.4780788422, 0.2431549579, 0.4209098816, 3.0328156948, 0.4949421883, 0.2534384727, 0.5470128655, 0.4847958684, 1.8354939222, 0.9104980230, 0.7435388565, 0.4205583632, 0.7925015688, 0.8075487018, 1.2191984653, 0.5828770995, 0.7183485031, 1.3578081131, 0.5130702853, 0.9099768400, 0.6985156536, 0.2849030793, 0.7607764602, 0.3670198023, 0.5814836025, 0.4682490826, 0.6610747576, 0.4238594770, 0.8364760876, 2.3043532372, 0.8008316755, 0.3454831839, 1.1246093512, 0.2262838185, 0.9662209153, 0.5537754893, 0.9258990288, 0.5211099982, 0.2852847874, 0.7711887360, 0.9732729793, 1.3444396257, 0.5322734118, 0.5036527514, 1.2509944439, 0.7548138499, 1.0687367916, 0.5091749430, 0.4350229800, 0.4830844700, 0.5327609777, 1.6249289513, 0.5838751197, 0.4760815501, 0.5330433846, 0.5533386469, 0.5317783952, 0.7367936373, 0.6613568068, 1.2419763803, 0.7005322576, 0.5060974956, 0.2461568266, 0.2539192736, 1.5106443167, 0.2485122383, 0.4301835299, 3.0996358395, 0.5058469176, 0.2590223253, 0.5590648055, 0.4954770803, 1.8759342432, 0.9305584431, 0.7599207759, 0.4298242629, 0.8099622130, 0.8253409266, 1.2460603714, 0.5957192779, 0.7341753840, 1.3877239227, 0.5243744254, 0.9300257564, 0.7139056325, 0.2911801636, 0.7775381207, 0.3751060963, -0.3461629450, -0.2787533104, -0.3935443461, -0.2523277402, -0.4979624748, -1.3718042374, -0.4767430425, -0.2056695670, -0.6694910526, -0.1347090006, -0.5752008557, -0.3296680450, -0.5511968732, -0.3102219403, -0.1698328555, -0.4590962827, -0.5793990493, -0.8003582358, -0.3168676496, -0.2998294830, -0.7447293401, -0.4493481517, -0.6362296343, -0.3031168878, -0.2589734793, -0.2875849605, -0.3171578646, -0.9673362374, -0.3475866318, -0.2834160626, -0.3173260093, -0.3294079900, -0.3165729344, -0.4386205375, -0.3937122524, -0.7393608093, -0.4170337617, -0.3012848496, -0.1465395987, -0.1511606574, -0.8993015289, -0.1479417980, -0.2560925186, -1.8452439308, -0.3011356890, -0.1541985571, -0.3328168094, -0.2949624062, -1.1167621613, -0.5539706349, -0.4523883462, -0.2558786273, -0.4821785390, -0.4913336337, -0.7417920232, -0.3546375632, -0.4370618761, -0.8261257410, -0.3121652901, -0.5536535382, -0.4249950647, -0.1733424217, -0.4628761411, -0.2233043760, 0.2376595587, 0.1913791895, 0.2701894343, 0.1732366234, 0.3418781161, 0.9418176413, 0.3273098171, 0.1412032545, 0.4596417546, 0.0924849957, 0.3949064314, 0.2263348997, 0.3784264028, 0.2129841149, 0.1165994182, 0.3151943684, 0.3977887034, 0.5494891405, 0.2175467312, 0.2058491111, 0.5112968683, 0.3085017502, 0.4368059635, 0.2081061006, 0.1777992845, 0.1974425912, 0.2177459896, 0.6641285419, 0.2386369854, 0.1945804209, 0.2178614289, 0.2261563540, 0.2173444033, 0.3011366725, 0.2703047097, 0.5076110959, 0.2863161862, 0.2068483233, 0.1006073430, 0.1037799492, 0.6174190640, 0.1015700251, 0.1758213192, 1.2668595314, 0.2067459077, 0.1058656275, 0.2284967154, 0.2025076002, 0.7667174935, 0.3803307414, 0.3105890155, 0.1756744832, 0.3310415745, 0.3373270333, 0.5092802644, 0.2434778363, 0.3000665605, 0.5671799183, 0.2143183202, 0.3801130354, 0.2917820513, 0.1190089285, 0.3177894652, 0.1533105075, 0.4633418918, 0.3731135428, 0.5267622471, 0.3377427161, 0.6665267944, 1.8361710310, 0.6381243467, 0.2752903700, 0.8961191773, 0.1803090721, 0.7699109912, 0.4412633181, 0.7377814054, 0.4152345657, 0.2273226380, 0.6145040393, 0.7755302191, 1.0712859631, 0.4241298735, 0.4013241529, 0.9968262315, 0.6014561057, 0.8515984416, 0.4057243764, 0.3466380835, 0.3849347830, 0.4245183468, 1.2947872877, 0.4652474821, 0.3793546557, 0.4247434139, 0.4409152269, 0.4237354100, 0.5870971084, 0.5269870162, 0.9896403551, 0.5582030416, 0.4032722116, 0.1961444169, 0.2023297548, 1.2037223577, 0.1980212778, 0.3427818716, 2.4698736668, 0.4030725360, 0.2063959986, 0.4454779923, 0.3948095441, 1.4947950840, 0.7414941192, 0.6055254340, 0.3424955904, 0.6453998089, 0.6576539874, 0.9928945899, 0.4746852219, 0.5850108266, 1.1057759523, 0.4178357422, 0.7410696745, 0.5688592792, 0.2320202291, 0.6195634604, 0.2988947034, -0.4955335855, -0.3990364075, -0.5633602142, -0.3612081110, -0.7128351927, -1.9637429714, -0.6824594736, -0.2944167554, -0.9583790302, -0.1928364336, -0.8234022260, -0.4719210565, -0.7890403867, -0.4440838993, -0.2431163639, -0.6571980715, -0.8294119239, -1.1457158327, -0.4535972178, -0.4292070270, -1.0660828352, -0.6432436109, -0.9107651114, -0.4339129925, -0.3707215190, -0.4116789699, -0.4540126920, -1.3847454786, -0.4975715876, -0.4057111740, -0.4542533755, -0.4715487659, -0.4531753659, -0.6278869510, -0.5636005998, -1.0583977699, -0.5969853997, -0.4312904179, -0.2097719908, -0.2163870484, -1.2873535156, -0.2117792368, -0.3665973842, -2.6414735317, -0.4310768843, -0.2207358181, -0.4764285386, -0.4222397804, -1.5986492634, -0.7930110693, -0.6475956440, -0.3662912250, -0.6902403831, -0.7033459544, -1.0618780851, -0.5076650381, -0.6256557107, -1.1826021671, -0.4468657970, -0.7925571203, -0.6083820462, -0.2481403351, -0.6626089811, -0.3196610510, 0.1558714211, 0.1255179793, 0.1772064716, 0.1136189848, 0.2242242247, 0.6177006364, 0.2146694511, 0.0926095843, 0.3014606833, 0.0606572181, 0.2590033710, 0.1484440267, 0.2481947690, 0.1396877766, 0.0764729083, 0.2067234069, 0.2608937323, 0.3603879809, 0.1426802278, 0.1350082159, 0.3353392184, 0.2023340017, 0.2864836156, 0.1364884973, 0.1166114509, 0.1294947267, 0.1428109109, 0.4355754256, 0.1565124691, 0.1276175380, 0.1428866237, 0.1483269334, 0.1425475180, 0.1975035220, 0.1772820652, 0.3329218626, 0.1877833605, 0.1356635541, 0.0659843385, 0.0680651292, 0.4049405158, 0.0666157231, 0.1153141931, 0.8308826089, 0.1355963945, 0.0694330409, 0.1498618722, 0.1328166574, 0.5028594136, 0.2494437546, 0.2037029415, 0.1152178869, 0.2171169668, 0.2212393433, 0.3340165913, 0.1596873999, 0.1968016922, 0.3719906807, 0.1405628324, 0.2493009716, 0.1913682073, 0.0780532062, 0.2084254175, 0.1005502418, 0.5136076808, 0.4135908782, 0.5839082003, 0.3743828237, 0.7388351560, 2.0353686810, 0.7073515058, 0.3051553369, 0.9933349490, 0.1998699605, 0.8534349799, 0.4891338944, 0.8178198338, 0.4602814019, 0.2519837916, 0.6811686754, 0.8596639037, 1.1875046492, 0.4701417387, 0.4448619187, 1.1049672365, 0.6667052507, 0.9439843893, 0.4497395158, 0.3842432499, 0.4266945422, 0.4705723524, 1.4352527857, 0.5157200098, 0.4205090702, 0.4708218277, 0.4887480438, 0.4697044790, 0.6507885456, 0.5841573477, 1.0970017910, 0.6187598705, 0.4470213056, 0.2174232155, 0.2242795676, 1.3343085051, 0.2195036709, 0.3799686730, 2.7378187180, 0.4467999935, 0.2287869304, 0.4938057959, 0.4376405776, 1.6569584608, 0.8219353557, 0.6712160707, 0.3796513379, 0.7154162526, 0.7289997935, 1.1006090641, 0.5261815786, 0.6484758854, 1.2257363796, 0.4631647766, 0.8214648962, 0.6305721998, 0.2571910024, 0.6867769957, 0.3313203752, 0.4847867489, 0.3903823495, 0.5511423945, 0.3533744514, 0.6973756552, 1.9211544991, 0.6676586866, 0.2880316079, 0.9375942349, 0.1886543036, 0.8055447340, 0.4616862833, 0.7719281316, 0.4344528615, 0.2378437966, 0.6429451108, 0.8114240766, 1.1208682060, 0.4437598884, 0.4198986292, 1.0429623127, 0.6292933226, 0.8910129666, 0.4245025218, 0.3626815379, 0.4027507007, 0.4441663325, 1.3547139168, 0.4867805243, 0.3969123363, 0.4444018006, 0.4613220990, 0.4433471560, 0.6142697334, 0.5513775349, 1.0354439020, 0.5840383768, 0.4219368398, 0.2052225769, 0.2116941810, 1.2594342232, 0.2071862966, 0.3586468399, 2.5841867924, 0.4217279255, 0.2159486264, 0.4660960436, 0.4130825102, 1.5639786720, 0.7758126855, 0.6335509419, 0.3583473265, 0.6752708554, 0.6880921721, 1.0388487577, 0.4966550767, 0.6120868921, 1.1569545269, 0.4371744096, 0.7753686309, 0.5951878428, 0.2427588105, 0.6482386589, 0.3127284348, -0.4837761223, -0.3895685077, -0.5499934554, -0.3526377678, -0.6959218383, -1.9171495438, -0.6662667990, -0.2874311805, -0.9356396794, -0.1882610321, -0.8038654327, -0.4607238173, -0.7703189254, -0.4335471690, -0.2373479754, -0.6416047812, -0.8097325563, -1.1185315847, -0.4428347945, -0.4190232754, -1.0407880545, -0.6279814243, -0.8891555071, -0.4236175716, -0.3619254529, -0.4019111097, -0.4432403743, -1.3518898487, -0.4857657552, -0.3960849047, -0.4434753656, -0.4603603780, -0.4424229264, -0.6129891872, -0.5502280593, -1.0332852602, -0.5828208327, -0.4210572541, -0.2047947496, -0.2112528682, -1.2568086386, -0.2067543715, -0.3578991890, -2.5787997246, -0.4208487570, -0.2154984474, -0.4651243687, -0.4122213721, -1.5607182980, -0.7741953731, -0.6322302222, -0.3576002717, -0.6738631725, -0.6866577268, -1.0366830826, -0.4956197143, -0.6108108759, -1.1545426846, -0.4362630546, -0.7737522125, -0.5939470530, -0.2422527522, -0.6468873024, -0.3120765090, 0.7024983764, 0.5656981468, 0.7986535430, 0.5120704770, 1.0105582476, 2.7839207649, 0.9674957991, 0.4173830152, 1.3586560488, 0.2733765841, 1.1673047543, 0.6690238118, 1.1185914278, 0.6295601726, 0.3446564674, 0.9316837192, 1.1758245230, 1.6242361069, 0.6430468559, 0.6084698439, 1.5113435984, 0.9119010568, 1.2911556959, 0.6151412725, 0.5255572796, 0.5836210251, 0.6436358690, 1.9630990028, 0.7053875923, 0.5751606822, 0.6439770460, 0.6684960723, 0.6424487829, 0.8901305199, 0.7989942431, 1.5004487038, 0.8463226557, 0.6114233732, 0.2973854542, 0.3067633808, 1.8250303268, 0.3002310693, 0.5197106600, 3.7447128296, 0.6111206412, 0.3129284382, 0.6754139066, 0.5985926986, 2.2663419247, 1.1242204905, 0.9180707335, 0.5192766190, 0.9785265326, 0.9971057773, 1.5053826571, 0.7196966410, 0.8869674206, 1.6765283346, 0.6335039735, 1.1235769987, 0.8624792099, 0.3517787457, 0.9393545389, 0.4531708658, 0.2830428779, 0.2279248536, 0.3217846453, 0.2063177824, 0.4071629643, 1.1216666698, 0.3898127377, 0.1681673527, 0.5474146605, 0.1101458743, 0.4703175426, 0.2695556879, 0.4506904781, 0.2536554337, 0.1388651729, 0.3753837049, 0.4737502038, 0.6544192433, 0.2590893507, 0.2451579422, 0.6089338660, 0.3674130738, 0.5202181935, 0.2478459328, 0.2117517292, 0.2351461202, 0.2593266368, 0.7909501791, 0.2842069566, 0.2317373902, 0.2594641149, 0.2693430483, 0.2588483691, 0.3586415648, 0.3219219446, 0.6045442224, 0.3409909606, 0.2463479489, 0.1198192611, 0.1235977113, 0.7353210449, 0.1209657788, 0.2093960643, 1.5087783337, 0.2462259829, 0.1260816753, 0.2721303105, 0.2411783487, 0.9131294489, 0.4529584944, 0.3698989153, 0.2092211843, 0.3942570984, 0.4017428160, 0.6065321565, 0.2899722159, 0.3573670983, 0.6754882932, 0.2552444339, 0.4526992142, 0.3475005925, 0.1417348087, 0.3784743547, 0.1825865954, 0.2333736271, 0.1879278868, 0.2653168738, 0.1701124907, 0.3357127309, 0.9248330593, 0.3214071691, 0.1386568099, 0.4513526261, 0.0908171311, 0.3877847493, 0.2222532034, 0.3716019094, 0.2091431767, 0.1144966781, 0.3095102012, 0.3906150460, 0.5395796895, 0.2136235237, 0.2021368593, 0.5020762086, 0.3029382825, 0.4289286733, 0.2043531537, 0.1745928675, 0.1938819438, 0.2138191909, 0.6521517634, 0.2343334258, 0.1910713911, 0.2139325440, 0.2220778763, 0.2134248465, 0.2957060039, 0.2654300630, 0.4984568954, 0.2811528146, 0.2031180412, 0.0987930000, 0.1019083932, 0.6062845588, 0.0997383222, 0.1726505905, 1.2440131903, 0.2030174732, 0.1039564610, 0.2243760228, 0.1988556087, 0.7528906465, 0.3734719157, 0.3049879074, 0.1725063920, 0.3250716329, 0.3312437236, 0.5000959635, 0.2390869856, 0.2946552038, 0.5569514632, 0.2104533315, 0.3732581139, 0.2865200937, 0.1168627366, 0.3120584786, 0.1505457163, 0.4048354030, 0.3260002434, 0.4602476358, 0.2950957119, 0.5823640227, 1.6043164730, 0.5575479865, 0.2405292690, 0.7829656005, 0.1575413197, 0.6726937890, 0.3855446875, 0.6446212530, 0.3628026247, 0.1986184567, 0.5369101763, 0.6776035428, 0.9360139370, 0.3705747128, 0.3506486714, 0.8709563017, 0.5255098343, 0.7440665364, 0.3544932902, 0.3028678596, 0.3363288045, 0.3709141314, 1.1312936544, 0.4065003693, 0.3314532936, 0.3711107671, 0.3852405548, 0.3702300489, 0.5129639506, 0.4604440033, 0.8646777868, 0.4877183735, 0.3523507416, 0.1713771373, 0.1767814457, 1.0517275333, 0.1730169952, 0.2994985580, 2.1580011845, 0.3521763086, 0.1803342402, 0.3892271817, 0.3449566662, 1.3060463667, 0.6478651762, 0.5290653110, 0.2992484570, 0.5639047623, 0.5746116042, 0.8675211072, 0.4147464037, 0.5111411214, 0.9661488533, 0.3650753498, 0.6474943161, 0.4970290661, 0.2027228773, 0.5413307548, 0.2611530721, 0.7048048973, 0.5675554872, 0.8012757301, 0.5137517452, 1.0138761997, 2.7930612564, 0.9706723690, 0.4187534153, 1.3631169796, 0.2742741704, 1.1711374521, 0.6712204218, 1.1222640276, 0.6316272020, 0.3457880914, 0.9347426891, 1.1796851158, 1.6295689344, 0.6451581717, 0.6104676127, 1.5163058043, 0.9148950577, 1.2953950167, 0.6171609759, 0.5272828341, 0.5855371952, 0.6457490921, 1.9695445299, 0.7077035904, 0.5770491362, 0.6460914612, 0.6706909537, 0.6445581317, 0.8930531144, 0.8016176224, 1.5053751469, 0.8491013646, 0.6134308577, 0.2983618677, 0.3077705801, 1.8310223818, 0.3012168109, 0.5214170218, 3.7570078373, 0.6131271720, 0.3139558733, 0.6776314974, 0.6005580425, 2.2737829685, 1.1279115677, 0.9210850596, 0.5209815502, 0.9817393422, 1.0003795624, 1.5103253126, 0.7220596075, 0.8898795843, 1.6820329428, 0.6355839372, 1.1272659302, 0.8653109670, 0.3529337645, 0.9424387217, 0.4546587467, 0.4689455926, 0.3776260018, 0.5331329703, 0.3418274224, 0.6745878458, 1.8583779335, 0.6458419561, 0.2786197662, 0.9069569111, 0.1824897528, 0.7792223692, 0.4466000199, 0.7467042208, 0.4202564657, 0.2300719023, 0.6219359040, 0.7849096060, 1.0842422247, 0.4292593598, 0.4061778188, 1.0088819265, 0.6087301970, 0.8618977666, 0.4106312692, 0.3508303761, 0.3895902336, 0.4296525419, 1.3104466200, 0.4708742499, 0.3839426339, 0.4298802912, 0.4462476969, 0.4288601279, 0.5941975117, 0.5333604217, 1.0016092062, 0.5649540424, 0.4081494212, 0.1985166222, 0.2047767490, 1.2182803154, 0.2004161626, 0.3469275236, 2.4997446537, 0.4079473317, 0.2088921815, 0.4508656561, 0.3995844126, 1.5128734112, 0.7504618764, 0.6128487587, 0.3466377854, 0.6532053947, 0.6656077504, 1.0049027205, 0.4804261327, 0.5920860171, 1.1191493273, 0.4228890836, 0.7500323057, 0.5757391453, 0.2348263115, 0.6270565391, 0.3025095761, 0.4893381298, 0.3940474093, 0.5563167334, 0.3566920757, 0.7039228678, 1.9391911030, 0.6739269495, 0.2907357812, 0.9463967681, 0.1904254854, 0.8131075501, 0.4660208225, 0.7791753411, 0.4385316968, 0.2400767803, 0.6489813924, 0.8190420866, 1.1313914061, 0.4479260743, 0.4238408208, 1.0527540445, 0.6352013946, 0.8993781805, 0.4284879565, 0.3660865426, 0.4065319002, 0.4483363628, 1.3674325943, 0.4913506508, 0.4006387293, 0.4485740364, 0.4656531811, 0.4475094974, 0.6200367212, 0.5565540791, 1.0451650620, 0.5895215869, 0.4258981645, 0.2071492970, 0.2136816531, 1.2712583542, 0.2091314495, 0.3620139658, 2.6084482670, 0.4256873131, 0.2179760486, 0.4704719484, 0.4169606864, 1.5786620378, 0.7830963731, 0.6394990087, 0.3617116511, 0.6816105843, 0.6945523024, 1.0486018658, 0.5013179183, 0.6178334355, 1.1678165197, 0.4412788153, 0.7826481462, 0.6007757187, 0.2450379431, 0.6543246508, 0.3156644702, -0.6471433640, -0.5211226344, -0.7357217073, -0.4717206657, -0.9309288859, -2.5645551682, -0.8912596703, -0.3844943047, -1.2515975237, -0.2518352270, -1.0753241777, -0.6163064837, -1.0304492712, -0.5799524784, -0.3174984455, -0.8582694530, -1.0831725597, -1.4962505102, -0.5923764706, -0.5605239868, -1.3922536373, -0.8400456309, -1.1894160509, -0.5666697621, -0.4841447175, -0.5376331806, -0.5929190516, -1.8084119558, -0.6498048902, -0.5298395157, -0.5932333469, -0.6158202887, -0.5918254852, -0.8199905753, -0.7360355854, -1.3822172880, -0.7796346545, -0.5632448196, -0.2739522457, -0.2825912237, -1.6812226772, -0.2765736282, -0.4787587821, -3.4496390820, -0.5629659295, -0.2882705033, -0.6221930385, -0.5514250994, -2.0877602100, -1.0356347561, -0.8457291722, -0.4783589542, -0.9014211893, -0.9185364246, -1.3867623806, -0.6629864573, -0.8170766830, -1.5444222689, -0.5835855007, -1.0350420475, -0.7945181131, -0.3240595162, -0.8653358221, -0.4174621701, -0.4512222409, -0.3633539975, -0.5129837394, -0.3289083540, -0.6490924358, -1.7881422043, -0.6214329600, -0.2680895925, -0.8726793528, -0.1755927205, -0.7497723699, -0.4297211766, -0.7184832692, -0.4043732584, -0.2213765532, -0.5984304547, -0.7552446723, -1.0432642698, -0.4130358994, -0.3908267021, -0.9707521796, -0.5857238173, -0.8293231726, -0.3951118588, -0.3375710845, -0.3748660386, -0.4134142101, -1.2609195709, -0.4530780017, -0.3694318831, -0.4136333764, -0.4293822050, -0.4126517475, -0.5717403889, -0.5132026076, -0.9637542963, -0.5436021090, -0.3927237988, -0.1910138726, -0.1970374137, -1.1722365618, -0.1928416342, -0.3338157237, -2.4052691460, -0.3925293684, -0.2009972930, -0.4338256121, -0.3844825029, -1.4556957483, -0.7220988274, -0.5896866918, -0.3335369229, -0.6285181046, -0.6404517293, -0.9669234157, -0.4622688890, -0.5697087049, -1.0768522024, -0.4069063962, -0.7216855288, -0.5539796352, -0.2259512693, -0.6033574939, -0.2910765111, -0.1920432597, -0.1546459347, -0.2183293700, -0.1399856359, -0.2762581408, -0.7610455155, -0.2644861042, -0.1141007543, -0.3714182675, -0.0747334585, -0.3191082478, -0.1828922629, -0.3057913482, -0.1721040159, -0.0942193642, -0.2546960711, -0.3214372694, -0.4440203905, -0.1757908911, -0.1663385034, -0.4131587446, -0.2492880374, -0.3529655933, -0.1681623012, -0.1436725408, -0.1595455408, -0.1759519130, -0.5366559625, -0.1928330809, -0.1572327316, -0.1760451794, -0.1827479899, -0.1756273955, -0.2433366030, -0.2184225172, -0.4101803899, -0.2313607633, -0.1671459228, -0.0812968016, -0.0838604644, -0.4989118576, -0.0820747092, -0.1420742422, -1.0236989260, -0.1670631617, -0.0855458155, -0.1846391261, -0.1636383682, -0.6195540428, -0.3073301911, -0.2509746850, -0.1419555843, -0.2675015926, -0.2725806236, -0.4115291834, -0.1967447847, -0.2424719036, -0.4583156109, -0.1731821299, -0.3071542680, -0.2357775122, -0.0961664021, -0.2567930520, -0.1238841414, 0.2732008398, 0.2199993730, 0.3105954528, 0.1991436332, 0.3930049837, 1.0826636553, 0.3762580156, 0.1623197794, 0.5283797979, 0.1063158512, 0.4539635181, 0.2601826191, 0.4350189269, 0.2448352426, 0.1340365112, 0.3623307347, 0.4572768211, 0.6316635609, 0.2500801980, 0.2366332263, 0.5877597928, 0.3546372950, 0.5021290183, 0.2392277569, 0.2043886334, 0.2269695550, 0.2503092587, 0.7634469867, 0.2743244171, 0.2236793488, 0.2504419684, 0.2599773705, 0.2498476058, 0.3461707532, 0.3107279539, 0.5835227966, 0.3291339278, 0.2377818674, 0.1156528667, 0.1192999333, 0.7097522020, 0.1167595163, 0.2021148801, 1.4563145638, 0.2376641333, 0.1216975152, 0.2626677155, 0.2327920198, 0.8813778162, 0.4372080564, 0.3570366800, 0.2019460797, 0.3805478811, 0.3877733052, 0.5854415894, 0.2798892260, 0.3449406326, 0.6520000100, 0.2463689744, 0.4369578063, 0.3354171813, 0.1368063688, 0.3653139174, 0.1762376279, -0.2350601554, -0.1892859787, -0.2672342360, -0.1713418514, -0.3381388485, -0.9315165877, -0.3237298727, -0.1396588534, -0.4546144307, -0.0914734453, -0.3905871809, -0.2238593698, -0.3742873669, -0.2106546015, -0.1153241172, -0.3117469251, -0.3934378922, -0.5434790850, -0.2151673287, -0.2035976499, -0.5057045817, -0.3051275313, -0.4320284128, -0.2058299482, -0.1758546084, -0.1952830702, -0.2153644115, -0.6568646431, -0.2360268980, -0.1924522072, -0.2154785842, -0.2236827761, -0.2149672061, -0.2978430092, -0.2673482597, -0.5020591021, -0.2831846178, -0.2045859247, -0.0995069519, -0.1026448607, -0.6106660366, -0.1004591063, -0.1738982797, -1.2530032396, -0.2044846267, -0.1047077253, -0.2259975374, -0.2002926916, -0.7583315969, -0.3761708736, -0.3071919680, -0.1737530529, -0.3274208307, -0.3336375356, -0.5037100315, -0.2408148050, -0.2967846096, -0.5609763861, -0.2119742185, -0.3759555519, -0.2885906994, -0.1177072749, -0.3143136501, -0.1516336799, 0.2415097207, 0.1944795996, 0.2745665908, 0.1760431081, 0.3474166691, 0.9570754766, 0.3326123655, 0.1434908062, 0.4670881331, 0.0939832851, 0.4013040662, 0.2300016135, 0.3845570385, 0.2164345235, 0.1184883714, 0.3203006387, 0.4042330384, 0.5583910346, 0.2210710794, 0.2091839463, 0.5195800662, 0.3134995997, 0.4438823760, 0.2114775032, 0.1806796938, 0.2006412446, 0.2212735564, 0.6748876572, 0.2425029874, 0.1977327019, 0.2213908732, 0.2298201770, 0.2208654583, 0.3060151935, 0.2746837437, 0.5158345699, 0.2909546196, 0.2101993412, 0.1022372171, 0.1054612249, 0.6274214387, 0.1032155007, 0.1786696911, 1.2873830795, 0.2100952566, 0.1075806916, 0.2321984470, 0.2057882994, 0.7791386247, 0.3864922225, 0.3156206906, 0.1785204858, 0.3364045918, 0.3427918553, 0.5175307989, 0.2474222630, 0.3049277663, 0.5763684511, 0.2177903503, 0.3862709999,