//Numpy array shape [1, 1, 32, 64]
//Min -1.890462636948
//Max 1.382936120033
//Number of zeros 0

#ifndef W19_H_
#define W19_H_

#ifndef __SYNTHESIS__
conv_pw_1_weight_t w19[2048];
#else
conv_pw_1_weight_t w19[2048] = {0.2473915964, -0.5193653107, -0.2930491567, -0.6572646499, -0.2158936113, -0.0744835883, -0.2890665829, 0.2967419624, -0.1132252067, 0.0719589591, 0.3002614677, -0.0554075688, -0.1666533053, -0.0393658020, -1.2372919321, -0.0207995865, -0.6416287422, -0.4643087089, -0.0237860549, -0.7347326279, -0.1017357931, 0.0774425268, 0.1490914673, 0.1173123494, -0.5727301240, -0.7849745154, 0.2801899612, -0.9180350304, -0.7329789996, -0.1953742802, -0.1795728654, -0.0345801376, -0.3117381036, -0.0638513416, -0.2225299180, -0.3816494346, 0.0260546096, -0.0276285373, 0.0931320190, 0.5580250025, -0.2653748989, 0.1872530729, -0.0906102806, 0.2905442417, -0.1545892656, -0.4855479002, -0.2397533059, -0.4165358841, -0.7671067715, -0.7275409698, -0.0008318672, 0.0579877608, -0.8683201671, 0.3877603114, 0.4213002920, 0.4703379571, -0.2639347911, -0.2899146080, 0.2939412594, 0.3659382463, 0.0185270179, 0.1533118784, 0.2135486305, -0.4922887683, 0.2922402322, 0.2980278432, -0.4894928634, -0.5024582744, -0.0873431265, -0.0290580280, 0.1110198870, -0.9283639789, 0.2605908811, 0.6456173658, 0.7403434515, 0.3061185479, 0.3656975329, 0.3773111701, 0.3355197906, -0.3585947752, 0.1453803778, -0.4623102248, 0.4952011406, 0.4752729535, 0.2423963696, -0.3149344027, -0.0096262190, 0.0226495489, -0.2085784227, -0.1268376559, -0.0148487194, 0.3690121770, 0.0609949231, 0.2637398541, -0.3474307060, -0.3935399055, -0.4997923374, -0.5678005815, -0.6072098017, 0.2881138921, 0.0911249816, -0.2052407116, -0.2488954067, 0.1687614024, 0.3798704147, 0.0107772229, 0.3029142022, -0.1030731723, 0.0144513296, -0.1020221561, 0.5072948337, 0.0796356201, -0.0722787082, -0.0981115997, 0.3067399561, 0.6539214849, 0.0947057977, 0.1473343670, -0.5593348742, -0.2250325233, 0.1171181202, -0.1648050100, 0.2049251199, -0.7889901996, -0.6001608968, -0.1674478352, 0.2462507188, -0.2624809146, -0.1865099818, 0.5007299185, -0.4896367192, 0.3031509817, 0.1472002119, -0.2790424526, 0.2866925001, 0.0812719017, -0.0065614777, -0.3914022446, -0.0455305763, 0.3623673022, -0.4184451997, -0.3748645782, -0.0783919394, 0.0594160073, 0.4652933478, -0.2023854256, -0.6237040758, 0.3919855952, 0.5673564076, 0.1627572775, 0.0415948145, -0.2045650482, -0.1318745166, -0.3370616734, -0.2092869878, -0.7627626657, -0.0641675740, 0.4198808372, -0.4041276872, 0.1526304781, -0.3133225441, -0.0532089360, 0.3898010254, 0.5548921227, 0.2951913774, -0.2165357023, -0.2013668716, 0.8756029606, -0.2701557577, -0.7603737712, 0.2041473389, 0.4415379763, 0.2663748562, -0.0495709144, 0.7480521202, -0.1022120863, 0.1328697205, -0.3083132803, -0.2067093551, -0.0835282132, -0.5177479386, 0.7609275579, 0.3394512832, -0.4047043324, -0.5439292789, -0.8554089665, -0.3590251207, 0.1180368662, 0.0477797315, 0.4079506099, -0.3662061989, -0.0687774718, 0.3168648183, -0.6315943003, 0.4633717537, 0.6759996414, -0.1772838235, 0.4131932557, 0.2991642058, 0.7118031383, -0.3698910177, -0.3082080185, -0.8199371696, 0.7686156034, 0.0934545472, -0.6985471845, -0.1300829947, 0.3691917658, 0.1353661567, 0.2235011458, -0.0751346871, 0.3437128067, 0.0435215533, 0.5866034627, -0.8871120811, 0.9537375569, -0.1121152043, 0.0056875939, 0.2044423819, 0.0167234950, -0.1272559017, -0.4991056621, 0.2625954151, 0.2581501603, -0.0397399217, -0.7305051088, -0.2092781514, -0.3612800837, -0.1513320059, 0.0589508973, -0.4051952064, 0.0276659336, 0.2849872112, -0.0820798650, -0.0592094809, -0.1342523247, -0.1727254540, -0.1880419403, 0.2959503829, 0.4901155531, -0.5569213033, 0.0787639320, -0.0331542008, -0.6037560701, 0.1557422280, 0.4291675985, 0.2280780822, -0.0581215508, -0.0265002660, -0.1106421277, 0.4733359814, -0.4713561237, -0.3297662735, -0.1223325580, -0.4451692998, -0.0475735441, -0.5280516744, 0.2931450307, -0.1530928761, 0.3489168584, 0.1856537163, -0.7095427513, 0.2838537693, -0.5814135671, -0.7428507805, 0.1455558538, 0.2228505313, -0.1503009051, -1.1650681496, -0.1977384090, 0.1160561442, 0.2816246748, -0.3923886120, -0.2590793967, -0.5879120231, -0.1450275779, -0.1253359914, 0.2435184270, -0.1304074675, -0.3978976607, 0.6538049579, -0.0235652830, 0.3275281787, 0.2394453585, 0.2110290080, 0.0884520859, -0.0758028328, -0.2966994941, -0.0161049031, -0.4931444526, -0.3230533004, -0.6949524283, -0.1208846122, 0.7682560682, 0.5452489853, -0.2398159504, 0.3865188062, -0.2470210046, 0.3685957491, -0.3447657526, 0.8138975501, -0.5239533782, 0.0966877937, -0.2818717659, 0.2243902981, 0.4677824080, -0.3322798014, 0.2978821397, -0.7465909123, 0.3096941710, -0.4415353239, 0.0513263159, -0.0890307575, -0.3803222775, -0.2732315958, -0.5900674462, -0.3906413913, 0.3178565204, -0.6442166567, 0.0359995589, -0.1966597736, -0.1156214550, -0.3584171832, -0.7755911350, 0.3083437085, -0.3933545649, -0.2325101644, 0.5887400508, 0.2197411507, 0.2915026546, -0.3428428769, -0.1528917253, 0.2826321423, 0.4717287719, -0.1780457199, 0.2681288421, 0.2137529105, -0.6575266719, 0.2341761440, -0.1240126416, -0.7019746304, 0.5185603499, 0.1976007670, -0.3380987346, 0.0303587187, -0.5198883414, -0.2064829320, -0.1696510762, 0.2143164128, 0.1030212417, -0.0797593296, -0.1695001721, 0.2202458084, -0.1857290566, -0.3130070567, -0.0717747584, -0.7897943258, -0.4858888090, -0.3331894577, 0.3322029710, -0.0608339645, -0.6233348250, -0.1923208237, 0.3442417681, -0.1920173168, -1.2222871780, 0.3543358147, -0.1010275185, -0.4339168966, -0.4695542753, 0.6301894188, 0.9794132113, 0.3025723696, 0.2189723849, 0.4226859510, 0.0828685090, 0.0363864861, -0.2134190500, 0.0552332625, -0.2482108176, -0.1736970544, -0.1146403328, -0.7183504105, -0.2104610503, -0.2508531809, 0.0549736172, 0.0902290419, -0.7684274316, 0.6073936224, -0.5030853152, 0.7162075043, 0.1766813844, -0.5985482931, -0.6403827667, 0.1799250841, 0.6497519016, -1.8904626369, 0.2304074764, 0.0138371773, -0.4542497098, 0.1641989499, -0.2419608235, 0.0861492380, -0.1330730319, 0.0140029844, -0.2187742144, 0.3931279480, 0.0542865656, -0.3590231240, -0.6712428331, 0.2140649259, -0.0931997970, 0.0892121345, -0.4678522646, 0.2348970026, 0.0956096649, -0.6866413951, 0.4350730181, 0.1858679205, 0.0879112706, -0.1497831792, 0.7531797886, 0.2436778843, -0.0492687784, 0.4663431644, 0.0440182127, -0.3813780546, 0.0066708480, -0.0831251889, 0.4074116647, 0.2295693755, 0.2393754423, 0.0280367006, -0.1899605244, 0.4059498906, 0.0124973143, 0.3990488052, -0.3490607440, 0.5616680980, -0.1279792935, -0.1669270843, -0.7084639072, -1.2682307959, 0.1981610060, -1.0894300938, 0.2045224607, -0.2744771540, 0.3580590189, 0.2475055456, 0.2422181070, 0.0459236577, -0.0263285637, 0.4501614571, 0.2156157941, 0.2706996799, 0.4167365432, 0.1759368330, 1.2650239468, 0.0483547151, 0.1341528445, 0.4496391118, 0.2021433860, -0.0938260257, -0.2663390040, -0.2678561509, -0.4785053730, -1.4165252447, 0.3286873400, 0.9257827997, 0.3652471900, 0.2018314451, -0.3685900867, -1.2499403954, 0.3740500212, 0.1354367584, 0.1937974840, 0.5456997752, 0.4876793325, -0.4702229500, 0.1615073085, 0.2719380558, -0.1934796721, 0.7745332718, 0.3058112562, 0.7994349599, 0.4049295485, -0.1749197245, 0.0718664601, 0.6249695420, -0.4496820569, 0.2783280015, 0.6346924901, -0.7594608665, 0.0186273996, 0.4881851971, -0.6363424063, 0.1085676253, 0.2012243569, 0.6375616193, 0.4490199983, -0.3613293767, 0.1055608243, 0.5720691085, 0.4746412933, -0.2228257805, 0.5078006387, -0.4180091023, -0.3363336921, -0.4774868786, 0.6009604931, -0.4965792596, -0.1954892129, -0.1301674396, 0.1302662939, -0.3706903160, -0.2836781740, -0.3405274451, -0.3796024621, 0.4302182198, -0.5522466302, -0.6818377972, -0.5939136744, 0.2579822838, 0.1845055670, -0.1388800293, -0.4493412375, -0.0740727186, -0.5693161488, 0.0331932195, 0.1719125211, -0.0741741583, 0.1501425356, 0.0828143805, 0.7103460431, -0.7019978762, 0.0730603635, 0.3241268694, -0.5698202252, 0.2443668991, -0.3850471079, -0.5270745158, -0.0399940759, -0.3929435313, 0.4660874903, -0.0780521929, -0.3592091501, 0.5045806170, 0.7039437294, 0.4517038763, -0.3819219768, -0.4685078263, -0.6649405956, 0.0515531637, 0.3874610960, 0.4483332038, 0.7201997042, 0.2100070417, 0.0894985870, -0.7516043186, 0.3496631086, 0.6299465299, -0.5641430616, -0.7197190523, -0.4192400277, 0.0590723492, 0.4480054975, -0.5737890005, 0.1228574738, 0.0279770009, 0.2145039588, 0.4201258719, -0.1381104439, -0.0021748582, 0.6320697069, 0.3083371818, -0.2419410348, 0.1758480817, -0.1387305409, 0.6019610763, -0.5468746424, -0.6462630630, 0.4359798431, 0.0760525763, -0.5328825116, 0.0041489620, 0.3388345540, 0.2252443880, 0.6271328926, 0.2388157099, 0.3141818941, -0.7149066329, 0.6169680357, -0.5471893549, 0.3329750001, 0.3207948506, -0.0506520383, 1.0529302359, -0.2589816749, -0.1645024121, -0.6843554974, 0.2494677156, 0.0729479194, -0.5054188967, -0.3244450688, 0.2185593396, -0.4880850911, -0.8940703273, -0.2656377554, 0.0346214920, -0.0066912067, 0.3594228625, 0.4019823968, -0.1714118272, 0.3657833040, 0.0903418586, 0.2432622612, -0.4373731017, 0.0471648574, -0.5757937431, -0.9008268714, -0.0509522073, -0.2552570999, -0.1760921478, 0.3494825065, -0.3452458084, -0.1628373712, -0.4800197780, -0.4990196526, -0.1112620831, -0.3287053108, -0.0083912183, -0.7436852455, 0.1939725578, 0.1811282635, 0.0478124097, 0.2962277234, 0.2001042366, -0.8696426749, 0.3963144124, 0.3955694437, 0.4195289910, 0.5224730372, -0.3279360831, 0.3504628837, 0.0204277541, 0.4631260931, -0.0343941301, -0.4955643415, -0.5151199698, -0.3304368854, 0.6314383745, -0.8022385836, 0.0402124152, -0.3212338388, 0.3313300610, 0.0189753976, 0.2537511587, -0.5970098972, 0.3275460005, 0.4884407222, -0.3098000884, 0.4282570183, 0.5311557651, -0.4882335365, 0.5636237860, -0.0770585462, 0.7162711620, -0.5129305720, -0.3111751676, 0.6767999530, 0.1877206117, 0.4152728617, -0.2935382128, -0.2487341464, -0.3925785124, -0.4013001323, 0.7653810978, -0.4215863943, -0.5241187811, -0.0133677069, -0.7620849609, 0.5438479781, 0.9046342969, 0.1892506182, 0.0728364065, -0.3618213236, 0.1952508986, -0.2969902754, -0.2013972849, 0.3373361230, -0.0637510121, -0.7398713827, -0.1509428024, 0.3262359500, 0.7004792690, 0.0941397473, 0.3572995663, 0.2947196960, 0.1481511146, 0.1138670966, 0.1956391931, 0.0934960619, 0.1840495318, 0.2056564093, 0.1012565643, -0.1818788350, 0.5271190405, -0.1910334975, -0.2719370425, 0.5230007768, 0.3121305108, -0.5580326915, 0.1428453177, -0.3010837436, -0.0297405068, 0.3152993023, -0.0904906094, -0.1797172278, -0.1727570891, -0.3950209916, 0.0289260074, -0.1962210238, -0.5633786917, 0.2019731849, -0.0828040987, -0.6089609861, 0.1730367541, -0.0379017629, -0.4076166153, 0.7397438288, 0.2086322755, -0.1111432686, -0.0053266836, 0.1186523959, 0.0597479753, 0.3049279749, 0.3511058986, -0.6123246551, -0.0130648185, 0.0466060117, -0.7471393943, 0.0361698270, -0.1388293207, -0.0558092222, -0.1394802183, 0.3308400214, -0.0218841583, 0.8199993968, 0.0018875949, -0.3425196111, 0.1991016418, -0.5537974834, -0.3277905583, -1.1819055080, 0.2410819381, 0.1352582723, -0.0274438672, 0.0270685907, -0.0075091100, -0.5092006922, 0.0449374132, -0.0552460700, -0.9166039824, 0.2142274976, -0.5068168044, -0.2054636925, -0.4054639637, -1.2906001806, -0.3122438192, -0.4457598031, 0.6873865128, -0.4792233706, -0.3139964342, 0.5337876081, 0.0061332374, -0.7821929455, -0.6639294028, 0.4960954785, 0.6621161103, 0.1558021903, 0.2557794452, 0.5625663996, -0.5791853666, 0.3735330999, -0.1529030800, -0.4864087403, 0.7634939551, -0.2160434872, 0.0263450928, 0.2043391615, 0.7040038109, -0.6699643731, -0.4577791989, 0.1480612606, -0.3276419044, 0.0412982590, -0.0704845041, -0.0719556287, -0.9359369278, 0.2491145283, 0.3561059833, -0.6167080402, 0.5696283579, -0.0080473898, 0.1934390962, 0.2477626503, 0.4228893816, 0.1475242078, -0.3145669997, 0.1690522730, -0.5890400410, -0.7463655472, 0.3747819662, 0.1973817348, -0.0896103084, 0.2126672268, -0.6439307928, 0.2503455877, -0.8365163803, 0.2537165880, -0.1085885167, -0.1783038378, 0.2342785299, -0.6178238392, -0.1799020171, 0.5296080709, 0.3352157176, 0.3645148575, 0.4156143367, -0.7186300159, -0.0947828293, 0.7066869140, -0.3361667395, 0.3944490552, -0.6201355457, 0.0330451466, -0.6499847770, -0.1329366863, 0.1382572949, -0.0157127716, 0.3358028829, 0.4163312316, 0.3262697756, -0.1181007922, -0.3280514777, -0.0540015139, -0.7903950810, 0.1079622209, -0.3852525651, -0.5806947947, 0.0797073990, -0.5608048439, 0.2301581055, -0.3817870915, -0.0765840858, -0.0208318233, -0.1698155105, -0.0660150871, -0.8707838655, -0.0806486011, -0.0234077778, 0.3325731456, -0.3474647105, 0.4808104634, -0.1303245276, -0.1755982786, 0.3224171400, -0.0928041562, -0.4619809389, -0.0600270703, -0.3028906286, -0.0858983397, -0.1827992946, 0.3854268491, -1.4229549170, 0.0359492078, -0.7658491731, 0.5619347692, -0.9873688221, 0.0473965481, 0.2259382010, -0.4232936203, 0.5084943175, -0.1349167377, -0.2683044076, 0.4384319186, -0.6581434608, -0.1240804568, 0.2446725219, 0.3216509223, -0.0577172264, 0.3572856784, 0.7627127767, -0.0609654412, -0.2475651205, -0.1963919401, 0.0909956396, 0.0522834621, -0.0623096824, 0.0382334031, -0.5838576555, 0.3376832306, 0.2459014505, 0.1171186045, 0.7818352580, -0.4021057487, 0.1743825227, 0.0355675444, -0.6918899417, -0.0747164562, -0.0794442818, -0.7367975712, 0.1198855340, -0.0516618602, 0.2478831261, -0.1718246490, -0.0161004793, -0.4071417451, -0.2649825513, -0.3821595907, -0.4742030203, -0.3710165620, -0.8972145915, 0.2720714211, 0.3474537134, -0.5354559422, 0.7606285214, -0.0220172312, -0.3634309471, 0.6555598974, 0.0816692039, 0.1020025387, -0.0740662366, -0.4736028612, 0.3750478029, 0.6243494749, 0.0556985512, -0.4016689956, 0.2670457959, 0.2974550724, 0.9767081738, -0.4996439219, 0.2136813253, -0.0765774250, 0.6928640008, -0.8019788861, -0.2823413014, 0.1025420800, 0.0867083371, 0.4740020037, 0.0900467411, 0.3507070243, 0.3527945578, -0.8936196566, -0.1634612828, 0.4379537404, -0.4664227366, 0.0950574502, 0.1091757193, 0.2354007661, -0.2330170125, -0.8231008053, 0.3768907785, 0.4276622534, 0.3723290265, 0.0349375941, -0.5562019348, 0.1159806624, 0.3475548029, -0.1826025248, 0.1444736421, 0.3072141111, 0.1485503614, 0.2171718180, 0.4251857400, 0.3843448460, 0.0856723711, -0.0742668584, 0.7822465897, 0.1788243353, -0.1611109525, -0.1905043125, 0.0621626563, -0.4913749397, 0.2297444046, -0.3470497727, 0.5768369436, -0.6745329499, -0.1348309517, -0.1093724146, 0.4541292191, -0.8569946289, 0.0058411951, -0.1937531084, -0.2775446475, 0.1820183396, 0.3429421782, -0.2109305561, 0.5692573190, -0.2569655180, -0.3800671995, 0.1417323947, -0.1460881978, -0.1964343637, 0.5304883718, -0.2725419700, -0.3152578175, -0.3219519556, -0.8916180730, -0.3851806819, 0.3193616569, -0.3730197549, 0.0384198315, 0.3195612431, -0.2020293176, -0.5127509832, 0.0917242095, -0.0294017270, 0.1671652645, 0.5089976192, -0.2351430357, -0.7457032204, -0.0067389016, -0.2222409099, 0.2048632056, -0.0264326371, 0.0746036693, -0.0295826048, 0.2121231705, -0.7068399787, -0.5849817991, 0.2457062900, 0.0230137017, -0.1081114262, -0.0870374143, 0.6551427841, 0.3601138592, -0.1453274637, 0.1788828075, 0.2906677127, 0.3500189185, 0.2464372516, -0.1017276645, -0.3351368904, 0.0297416430, 0.5893113613, 0.7721418142, 0.4138187766, 0.4128369689, -0.1801966131, 0.1630512476, -0.0544546321, -0.0177041087, -0.7344304919, -0.3115735650, -0.3654860854, 1.3829361200, 0.0804284662, 0.3839656115, 0.1887651086, 0.4542302787, 0.0435401611, 0.1642223448, -0.0521492437, -1.0104688406, 0.4388726354, 0.2311580479, 0.3780671358, -0.4658712149, 0.0560323223, 0.2008076608, 0.7022156715, 0.4190705419, 0.1422045827, 0.0499447063, 0.0937968343, 0.1206157431, 0.1688679010, 0.1978740543, -0.8854302168, -0.6705676317, 0.7331697941, 0.2485177219, 0.1199858561, 0.2046732605, -0.0573890097, 0.6252320409, 0.0723609477, -1.1907483339, -0.3087369800, -0.8018252254, -0.2406651080, -0.3258846104, -0.2268579006, 0.1043207645, -0.3357896209, -0.2789293528, 0.0120498734, -0.4967454970, -0.4854334891, -0.3198580146, 0.2329776883, -0.4592894316, -0.2451097965, -0.4417464435, 0.0903370529, -0.3419969976, -0.3840004504, -0.4569541216, -0.4067826271, 0.0156722441, 0.0760457069, -0.5955364108, -0.6494280100, 0.1445105523, -0.4459684193, -0.7759987712, -0.1070049480, 0.2276391685, 0.4635154307, 0.2471710891, -0.1238046661, 0.1681697071, -0.4326819777, 0.3389149010, -0.0722939968, 0.0672804862, -0.2093470991, 0.1142667606, -0.4100407958, -0.3848033845, -0.0286330041, 0.0635902807, 0.0641099140, -0.4741626978, -0.8042696118, 0.0932097733, -0.6277744770, 0.5731297731, -0.2137797028, -0.5853613019, -0.3947288990, -0.0203206092, 0.3641652167, -0.1704016775, 0.1842697263, -0.6183826923, 0.0988210738, -0.2918130755, 0.1203532144, -0.6347250342, -0.5553946495, -0.6814216971, -0.6240872741, -0.1293153465, -0.7929677367, -0.5761697888, 0.5195981860, 0.2829519808, 0.0374472514, -0.4218125641, 0.4945895672, 0.2245587707, -0.2995944023, -0.0893816575, 0.1445434988, -0.2695479989, 0.1257826984, -0.6345207095, -0.0206536837, -0.4586065710, -0.3842455745, -0.4595697522, -0.7544025183, 0.0375923812, -0.1635966748, 0.4013974667, -0.4763680696, -0.2539111674, -0.2789134383, -0.0183824860, 0.3104680181, 0.0662478134, 0.0498664305, -0.5637715459, 0.0540737957, 0.3682394624, -0.0013935973, -0.2150182277, 0.0267246161, -0.0505321436, -0.1451532692, -0.4146534801, 0.4656149447, -0.0357503407, 0.3546469212, 0.4753215313, -0.1921211481, 0.0667259097, -0.1983837783, -0.1153744310, 0.0016678688, 0.0956494808, -0.8048039079, -0.5678746700, 0.0932907313, 0.0631050020, -0.3623274863, -0.7954210639, -0.3409572244, -0.0277139973, 0.4807789326, 0.3346503377, -0.0465774313, 0.3104128838, -0.7149190903, -0.1443354338, 0.2362024784, -0.2114156634, 0.2181181163, -0.8825519085, 0.0538203716, 0.8222739100, 0.6399410367, -0.4831306040, 0.2230382860, -0.2379153967, -0.0343622789, 0.0328121670, -0.6751250029, -0.4015269876, -1.1861963272, 0.4385804236, 0.4013717175, -0.6500309110, -0.1594228297, 0.2782272398, 0.4178377092, -0.6578403115, 0.4256789982, -0.2675571144, 0.2275012732, -0.2518591881, -0.0261550434, -0.0547125340, 0.3122564852, 0.0844247416, 0.2102448344, -0.1343231648, -0.2031510323, 0.3817123473, -0.0945613980, 0.5334416628, 0.2975544035, -0.2253285795, 0.0893396214, 0.5945490599, 0.4146812558, 0.2237300873, 0.4078241587, 0.0298702791, -0.0066493005, 0.0723650604, 0.6346701384, 0.2846201956, -1.0840572119, 0.2988039553, 0.1851773858, 0.2182700634, -0.2058093250, -0.7559937239, 0.8626195788, 0.5705459714, 0.2834788263, -0.0569930151, -1.0322602987, 0.0415955335, 0.3061681390, 0.1154764369, 0.2132503241, 0.2064902335, 0.2932892144, -0.3444174230, 0.2585100234, 0.3202151060, 0.0731956065, -0.1710139364, -0.1062245965, 0.3134866655, 0.2599269152, -0.0282222927, -0.9186572433, -0.4332645237, 0.3113552630, 0.1706998199, 0.2733492255, -0.8262695670, -0.1061201468, -0.6877474785, 0.0158482119, -0.2892607450, -0.5632351041, -0.1193032265, 0.3863438666, 0.0979097337, 0.2573847771, -0.5401948690, -0.5941935778, -0.6298931241, 0.3113596141, -0.2714236975, -0.1447739154, -0.4036765993, 0.1649273932, -0.4639916718, -0.8837316036, 0.7258948088, -1.0353815556, -0.8525100946, -0.1852046251, -0.4620261192, -0.1473296285, -0.0836714506, 0.0917543918, 0.1437498480, -0.3186400235, -0.2144055068, 0.0420746729, -0.6858139634, -0.2226139903, -0.1979994923, -0.0406325832, 0.1916466653, 0.4816481471, -0.6102513075, -0.1818592101, -0.0656190589, -0.0017134926, -0.0821256191, 0.0458109230, 0.1110299155, -0.2967403531, -0.2175427377, -0.5871323943, 0.1938954294, 0.1726388037, 0.0104541453, -0.0055499608, -0.4100699425, 0.2858035266, -0.0026058657, 0.0027625426, -0.3289966285, 0.4886923134, 0.0933436826, 0.4672065675, 0.2223049849, -0.9756619930, -0.0091114463, -0.3925949037, 0.3590359986, -0.1064187959, -0.1000450924, -0.0593449622, 0.2541776597, 0.0772253200, -0.3042472899, -0.2302421629, -0.2853911221, 0.0724019557, 0.4548358619, 0.3885810673, 0.2220230252, 0.7227652669, -0.1839629710, 0.4965114594, 0.1979447901, -0.1771135330, 0.0274812914, 0.1367277056, 0.3657703698, -0.7507660389, -0.3414413631, -0.1075214818, 0.2881771922, 0.1327722073, 0.2486458272, -0.1137345359, -0.5142652988, 0.1701777130, 0.6542637944, 0.7064015269, 0.1135578901, -0.4760664105, 0.1993976235, 0.4672541618, -0.0682653859, 0.4560845792, -0.2681421638, -0.0476364642, 0.4389395416, 0.2881366611, 0.2377677709, -0.4971172810, -1.0029927492, 1.1009109020, 0.0579201803, -0.3691720366, -0.1511485279, 0.1947786659, 0.7262275219, 0.2373469025, -0.3905866444, 0.6653100252, -0.7184151411, 0.2272351086, 0.0778711066, -0.5132488012, -0.6589549184, 0.1254393905, 0.0543564484, 0.7197934985, -0.3798165917, -0.0207762104, -0.7832892537, 0.6424733996, 0.1327557713, -0.0441582724, 0.6551145315, -0.0129294647, 0.3456632793, 0.1155710295, -0.5696781874, 0.3477892578, -0.2012627721, -0.6114106178, 0.6586269140, 0.1964782178, 0.6627194881, 0.2654181421, 0.2954558730, 0.3778562546, -0.1853076071, 0.6802838445, -0.5225273967, -0.0288080107, 0.4761137962, 0.3479347229, 0.2367669940, -0.6080103517, 0.0221329816, -0.1843008250, -0.0144969597, -0.3083376884, -0.2464453131, 0.2553630471, -0.4036465585, 0.2799926698, -0.1351191103, 0.4322268069, 0.3810160160, -0.7793700695, 0.0737637058, -0.8383996487, 0.3275427222, -0.3858462274, 0.1249053255, -0.0465892926, 0.0920994729, 0.0442263968, 0.5230811834, -0.0466767401, -0.1520325094, -0.4280632436, -0.0350452811, -0.4088093936, 0.3325649500, -0.0708638430, 0.2862698734, -0.1528762132, 0.3215688467, 0.2671631575, -0.4531933665, -0.0860547274, -0.3151708841, 0.1370189786, -0.3380720317, -0.8010312319, -0.5498501658, 0.9322894812, -0.5751094222, -0.6160221696, -0.2170546800, -0.2219166458, -0.2698794305, 0.6757619977, -0.4408774376, 0.1838717312, -0.3696713448, -0.4316745698, -0.0225318111, -0.6404561400, -0.2513050139, -0.7795452476, -0.6437863708, 0.0094627496, 0.6096715331, -0.4303749204, 0.3855908215, -0.2016627043, 0.0259328876, 0.4365583658, 0.4564166367, -0.2376092076, -0.2019659430, 0.0894669741, -0.3244760931, -0.8957064152, 0.1339030862, 0.5835168958, -0.3433205485, -0.0099200038, -0.2237525731, -0.2299856544, -0.2107642293, -0.6368983388, 0.0984133482, -0.0504344814, -0.6425705552, -0.4599926770, -0.5724838972, 0.9797808528, -0.4523650706, -0.2441436797, -0.4406977892, 0.0279649682, -0.5093143582, -0.5588784218, -0.0751280487, 0.0559291430, 0.0764711127, -0.8879266381, 0.0747479275, 0.0866889656, -0.2406196445, 0.0704998150, 0.7359325290, -0.0081442893, -0.5474660397, -0.2478795201, 0.2524885833, 0.2832557857, -0.3076398969, 0.2067121714, 0.0136473691, -0.5227485299, 0.3231135607, -0.1393263489, -0.0890827402, -0.3545008004, 0.7556693554, 0.3099614084, 0.4708504975, 0.3208229840, 0.1229243800, -0.2673678100, -0.4057771266, -0.3716233969, 0.1771376133, -0.6030131578, 0.0803517848, -0.4508948624, -0.5123255253, 0.1446512789, 0.6653454304, 0.2415937185, 0.3870997429, 0.3936095834, 0.2031928748, -0.8534762263, 0.2718402147, 0.5333362818, -0.0256029088, -0.4304637909, 0.3033456504, 0.2691292167, -0.2553662062, 0.2542944849, -0.1377590895, 0.2853918374, 0.1292951703, 0.1099024862, 0.2105427980, -0.4545464218, 0.4009757936, -0.3314978480, 0.2772049606, -0.6490638852, -0.1049713939, 0.5402360559, -0.2838449478, 0.6075944304, -0.0746772438, 0.3152780533, -0.1129871681, 0.2929096222, -0.2411971688, 0.6026166677, 0.5777980089, -0.4304890335, -0.3982927203, -0.2326912582, -0.1125264317, 0.3156368732, -0.2170043886, 0.0947053134, -0.6085427403, -0.0624919236, -0.3440523744, 0.5825604796, -0.4842773676, -0.4454056919, 0.1334844679, 0.4934849143, 0.1415477991, 0.9316626787, -0.5820522904, -0.5412973762, -0.7472730875, -0.1430631280, 0.7513579130, 0.3083497882, -0.3051826954, 0.6054018140, -0.7496654987, 0.0601614565, -0.1090279445, 0.1888015419, -0.0292124525, -0.2244012654, 0.0458682440, -0.4364613593, 0.1116089821, 0.1757796705, -0.0218912773, 0.6691740751, -0.4746287167, -0.0156197092, 0.2672323883, 0.0974823087, 1.0284770727, 0.4616393447, -0.4081531465, -0.0076231509, -0.2516703606, -0.0203255080, 0.0072431890, -0.4997865260, 0.4422246516, -0.2691923678, 0.1011612415, 0.0955629945, 0.8167881370, -0.4259745181, -0.4036561847, -0.2789870799, 0.3661631942, -0.3566775918, 0.2707396150, -0.4320548773, -0.7695786357, 0.1384012550, 0.1724689156, 0.3170401454, -0.5900434256, -0.3394880295, 0.0295402203, 0.0602832623, 0.4816807806, -0.0675001368, 0.1161350310, -0.5968012214, -0.3314621150, -0.1404735148, -0.5702474713, 0.2775377035, 0.1547112763, -0.4836246669, 0.3837107122, -0.3069247305, -0.1713715196, -0.9619562626, -0.4313170910, -0.1647231728, 0.3978689909, -0.2650713027, -0.1197198257, -0.5860670209, 0.4327940047, -0.7004089952, 0.6921448112, -0.5009081364, 0.1076356992, -0.2107650340, 0.1021925882, 0.2351370901, 0.0251245201, -0.0494961925, -0.3043368757, -0.3479219973, 0.5452926159, -0.4203102291, -0.8227273822, 0.4212739766, 0.0212887097, 0.1887302548, -0.3648387492, 0.4931293726, 0.4232600331, -0.1626879573, -0.9229453802, -0.3448653221, -0.0788047090, 0.5562232733, 0.0042025251, -0.2025242001, -0.5359821320, 0.5977483988, -0.6428090930, -0.4084858596, 0.6059868932, -0.5357242823, 0.1844334453, -0.2178399414, -0.3324803710, 0.3488373160, 0.4148018062, 0.1793848723, -0.5900329351, -0.2567584515, -0.1596022844, 0.5248733759, -0.7474429011, 0.2639028132, 0.3916515708, 0.3054860830, 0.0801724121, -0.6334039569, -0.2361668497, -0.2253949791, 0.1150306538, 0.6088218093, -0.2815630138, -0.1050087586, -0.7555717230, -0.4063822329, -0.6204887033, -0.6097623110, 0.5317295790, -0.6499761939, -0.4375586808, -0.8104166389, -0.8377350569, 0.0242989101, -0.0376146547, 0.3315255940, -0.1433990598, 0.2734450698, 0.3438896835, -0.0036482054, -0.8330447674, -0.2161450088, 0.1752721071, -0.2320488542, 0.1806136370, -0.0348312333, -0.2922307253, -0.4468587041, -0.2700102925, 0.3585677445, -0.5100640655, 0.0266547594, -0.7659765482, 0.2525043786, -0.5869598389, -0.2233373821, -0.3387999833, 0.2809566259, -0.0847894773, -0.1814719737, 0.0245591160, -0.4006265402, -0.5648908615, -0.2199383676, 0.2561179996, -0.4570367336, 0.3149925470, -0.1646012664, -0.3344826400, -0.2730019391, 0.5520016551, 0.3346844316, -0.0911927819, 0.3613669872, 0.3357465863, 0.3153890967, -0.1334591061, 0.8404360414, 0.4813628495, 0.4332537651, 0.1889749765, -0.7086652517, 0.2298938930, -0.1965325475, 0.7017184496, -0.1825150549, 0.1090156063, 0.1309756935, -0.6359739900, -0.3114827573, -0.6824154854, -0.4264031947, -0.6372958422, -0.7770011425, 0.2464277744, -0.8171779513, 0.4362361133, 0.0317383930, -0.5837038755, 0.5301882029, 0.1985043436, 0.6874385476, -0.3337512612, -0.0745347440, -0.4997422993, -0.6872199178, 0.2100818306, 0.1501400322, -0.0649672300, 0.6736949086, -0.4769692123, -0.4667850435, -0.7758709788, -0.0268304124, -0.4763920009, -0.1399259567, -0.3721624315, -0.4037577510, -0.1376357824, 0.4313579202, -0.0389433950, 0.2408969998, 0.3362728953, -0.1250479370, 0.4780096710, -0.1420085281, -0.4463050067, -0.3673542142, 0.1605102122, 0.1986834407, -0.1235048324, 0.4026255906, 0.7226918936, -0.0501265451, -0.6117223501, 0.0536069460, -0.0281722862, -0.0382577665, -0.1209805459, -0.7825630307, 0.3518086076, -0.0133515690, -0.5519275665, 0.6318638921, 0.0525228940, -0.5117301941, 0.0602621064, -0.4040220976, 0.6177741885, 0.0926067457, 0.1329975128, 0.2832080424, 0.3447469175, 0.1985824853, 0.9837175608, -0.0018387181, -0.0621364154, 0.4208070338, 0.2464233637, -0.6732973456, 0.2309106141, -0.7679507732, 0.1431855559, -0.6070215702, 0.3796377778, -0.3685683310, -0.1325388253, 0.6188635826, 0.1503325552, -0.1282410175, 0.2618495226, 0.5569782853, 0.1736554205, 0.0039132317, 0.2164971828, -0.0753429756, 0.0176255461, -0.1594074219, 1.0861963034, -0.1260489374, 0.3093552887, 0.1214689165, 1.0174394846, -0.3683414757, -0.0093583893, -0.4683624208, -0.1797264963, -0.3854264021, -0.3147646487, -0.3288248479, 0.8269971013, 0.4652377367, 0.3311637640, -0.0835259408, 0.3946661651, 0.3366480172, 0.1546201706, -1.1805427074, 0.0093486216, 0.3392004073, 0.6412424445, 0.4377958477, 0.2982721329, 0.0308326297, 0.8484775424, 0.3409267962, -0.2280428112, 0.3793346584, -0.2670764029, 0.8031992912, -0.3720176518, 0.5962307453, -0.1991069913, -0.4527782202, 0.3436823785, 0.5952250957, -0.4390546978, 0.1067306623, 0.5363567472, -0.2414254993, -0.4226343930, 0.7313533425, -0.0289280973, -0.6376273632, -0.2630496919, -0.2968679368, 0.4778365195, 0.2100422829, -0.5136154294, -1.1154783964, -0.4359428287, 0.7833887339, -0.2909811437, -0.6990271211, -0.5117869973, -0.3012282550, 0.0029359125, 0.3460577428, 0.1855425537, -0.0617351606, 0.1129505783, -0.2168588191, 0.1284357309, 0.2790158093, -0.1822918952, 0.0018816083, 0.0254059322, 0.1459045112, 0.3525361419, 0.2662636638, 0.5242839456, -0.7198325396, 0.1937128603, -0.5824818015, 0.7537130117, 0.6170068383, 0.0585626625, 0.7938349843, -1.1412454844, 0.2727820575, 0.4395239055, -0.1915236115, 0.3419649303, -0.2441163659, -0.2706327140, 0.0437237620, 0.6245865226, -0.3044473231, 0.3935000896, -0.3355030417, -0.2372013330, 0.4381291270, -0.1870479733, 0.1171987727, -0.8932924867, 0.1790043712, 0.3027213216, -0.0026935963, 0.0981425270, 0.5420311093, -0.0209763236, -0.3202911019, -0.0137268901, 0.0754209086, -0.0000348707, -0.2374306619, 0.0141957141, 0.1736763567, -0.0279282611, -0.8647561669, -0.0565146022, -0.1402376890, 0.9249349236, 0.0581919327, 0.3809567094, -1.2639455795, -0.1911809891, -0.6279093027, -0.6317757368, -0.0956433415, -0.4183025658, -0.3660420179, -0.3427735269, -0.8298217654, 0.5748166442, 0.5349304080, 0.0582224280, 0.4330916107, -0.0389068089, 0.0042764056, 0.3274367750, 0.0418505967, -0.9448953867, -0.5512246490, 0.5612186790, -0.7904255390, -0.7415158153, 0.4654311836};
#endif

#endif
