//Numpy array shape [3, 3, 3, 32]
//Min -0.858848392963
//Max 0.778992474079
//Number of zeros 0

#ifndef W2_H_
#define W2_H_

#ifndef __SYNTHESIS__
conv1_weight_t w2[864];
#else
conv1_weight_t w2[864] = {0.1152656376, 0.1644181162, 0.1314160824, 0.2316120714, 0.2022347897, 0.0024017124, -0.2576828897, 0.0635447055, -0.0773929581, -0.0731371269, 0.1813471317, 0.4777799845, -0.1231716573, -0.2374870181, 0.2386486679, 0.1377605945, -0.0580283925, -0.3798856735, -0.2304065526, -0.0672978833, 0.1257961839, -0.1917088330, 0.1944696009, -0.4783096611, 0.0030170404, 0.0390665010, -0.1024146974, -0.1276609600, -0.0879501924, -0.0723136589, 0.1625786722, -0.1030405611, 0.1183498278, -0.1966843903, 0.0097486200, -0.3604414463, -0.1233295500, 0.0178273469, -0.0827627108, 0.1811641306, -0.0400178432, -0.0637122095, 0.3564286828, 0.1197363660, 0.4504807889, -0.4888241291, -0.3280094862, 0.0668128207, 0.2152018547, -0.3015781939, -0.2566795647, -0.0853772759, 0.0042616902, 0.3961975574, -0.2711271048, -0.1963482499, 0.0065685837, 0.3738761842, -0.0682478622, 0.1549108326, -0.0772019997, 0.0691473261, -0.0651946366, 0.2940309644, 0.1809630990, -0.2520434260, -0.0360358246, -0.3088872433, -0.2719124258, 0.0508121736, 0.0901283622, 0.1109064445, 0.1386107057, 0.0473021902, 0.0771986321, 0.1790666282, -0.1537095159, -0.2909188569, -0.0166501924, 0.0693394318, 0.1396692991, -0.1666408032, -0.0644961521, -0.1156942844, 0.1808620095, 0.2822306156, 0.2054861784, -0.1816150695, 0.0208898876, -0.0268324483, 0.1184590682, -0.0722024366, 0.1024583876, -0.1764597297, 0.0313801505, 0.0634518564, 0.0427533574, 0.2494103611, 0.0778876394, -0.1113770455, 0.3228870332, 0.0902015343, -0.2154244781, 0.1973603815, -0.0800525025, -0.0870510712, -0.2992606759, -0.1867878884, -0.1420190632, -0.1251762509, 0.1693421304, 0.0045633214, 0.0704191923, -0.3823949397, -0.1443017125, 0.0899083093, -0.1065728217, 0.0361527056, 0.0613931678, -0.0383944474, 0.0003908568, -0.5376998782, -0.0364379957, -0.1730927676, 0.0743133202, -0.0299414638, -0.0503439642, 0.1226510480, 0.1165474206, -0.0199610684, -0.0852496698, -0.1486264318, -0.0153180975, 0.0050615692, 0.0620849803, 0.1672576964, -0.0002335857, -0.1564011574, 0.1121348739, -0.2232850939, -0.1517992765, -0.1682007611, -0.3193093836, 0.0213360526, 0.5151709914, -0.1737316698, -0.3103342056, 0.1427090168, -0.1091908887, 0.5177760720, -0.3048045039, -0.1139882728, -0.0104043577, 0.1287252456, 0.0124075208, 0.3807381392, 0.0443660952, -0.0566380695, -0.2464876622, -0.1285123676, 0.2407710701, -0.2134940177, -0.1268961430, -0.0457114689, -0.1311654896, -0.0930535719, -0.0994122922, 0.0987811461, 0.0753428936, -0.0374030247, 0.0460909307, -0.2119800150, -0.4058144391, -0.1114513949, 0.0521285981, 0.0586311333, 0.4538162053, -0.2173684388, -0.1643781066, 0.1274363101, -0.1311513782, 0.6553863883, 0.0160975661, 0.2196004838, -0.0097839171, -0.2449254245, 0.1965275556, -0.2228569686, 0.1676999778, -0.0843066275, -0.1486294717, -0.1126561761, 0.0421703532, -0.1466478407, 0.0476868637, -0.1267995536, 0.3540046215, -0.1619133800, -0.1019992456, 0.0783139467, 0.0046402146, -0.1471490860, 0.0204934273, -0.0372650251, 0.2907033265, 0.1629298627, -0.0633044615, 0.0344282538, -0.5239200592, -0.0929043368, -0.1430241764, 0.0407277048, -0.0027526843, 0.1241451576, -0.0861933827, 0.5168056488, 0.0141657414, -0.0325012729, -0.1133744419, -0.1745163649, -0.1179439798, -0.2242987454, 0.1558869928, 0.0699921176, 0.0388886333, 0.1458623409, -0.0138298804, 0.7109639645, -0.0131290825, -0.0342569761, 0.2883872092, 0.0471174754, 0.0030732807, -0.0149365608, 0.3493406177, -0.1127661839, -0.1008074433, 0.0539328977, -0.0786706731, -0.0275246389, 0.1473039091, 0.0127605014, -0.0526474901, -0.1239697188, -0.0435128398, 0.2868857384, -0.1339583993, -0.0701583251, -0.0228070393, -0.0783306658, -0.0501194708, 0.2721742392, -0.0837921724, 0.0476836599, -0.0498627201, -0.2316172868, 0.0095996438, -0.0140805906, -0.0460075997, 0.5114076734, -0.1861979067, -0.0225426499, 0.0116419708, 0.0903092027, -0.0015168891, 0.0350652933, 0.0952879861, -0.0337056443, 0.4839287698, -0.0318768993, 0.1546294987, 0.0416379087, 0.0259425081, 0.1002045870, -0.0049622711, -0.0046837647, -0.0496564656, 0.3932071924, 0.1310865879, 0.1009772569, -0.0266789384, -0.0520474836, 0.1021125019, -0.1100323051, 0.0634690225, -0.0245117266, -0.0286325179, -0.0015273327, -0.1457937807, 0.2039966732, 0.1449385285, -0.1919003278, 0.1671229899, -0.0560488850, -0.1850159913, -0.0576374605, -0.0672794580, -0.2519086003, -0.3582233489, 0.4734708965, 0.1063241437, 0.1103661507, 0.1584227681, 0.0621277019, -0.1427746564, 0.0592886023, -0.0589533970, -0.1301532239, -0.0629059672, 0.1167105436, 0.3392598331, 0.0711288303, -0.0140151810, 0.2033626884, -0.0749798864, -0.1330268979, -0.0153388036, -0.0952474177, -0.1132674664, -0.0241298005, -0.2452435493, 0.3183433414, -0.0050390968, -1.1583791971, -0.0225996207, -0.0184537936, -0.1350537539, 0.1551870704, 0.0543828867, -0.1811441928, -0.1233350635, 0.1661838591, 0.0194656290, 0.2294591069, -0.1220037639, -0.0495182537, -0.0943070874, -0.0561904386, -0.0735642910, -0.2774587572, -0.1650189757, 0.1856806576, -0.3150162399, 0.0783074647, -0.0053519262, 0.6700074673, -0.0169577133, 0.2543701828, -0.1256941110, -0.2538120449, -0.0449756049, 0.3642065823, -0.1516875923, 0.4378242195, -0.1473464370, -0.9452314973, -0.1815454513, 0.0030351013, 0.0274924152, 0.0177161638, 0.1665167212, -0.2588143349, -0.0426809601, 0.2770774961, 0.1924494505, 0.4936378896, -0.0892166421, 0.0944869816, -0.0713980645, 0.0340423174, 0.0137665933, -0.2083370537, -0.2417216748, 0.0013799632, -0.2550006807, -0.0600510128, 0.0558870248, 0.4422512352, 0.1237760335, -0.1155669615, 0.0467846282, -0.1866868436, 0.1186330169, 0.1198045239, -0.2476053536, 0.0821106806, 0.2790810466, 0.0083694551, 0.1646380723, 0.2308139503, -0.1552563012, 0.0125808818, -0.1138501763, -0.3189312816, -0.6608909965, -0.1586036384, 0.3335923254, 0.0492131002, 0.1552953273, 0.0686934590, 0.0004572871, 0.2434353381, 0.2896757722, 0.1608749181, -0.1055198088, 0.0176720470, 0.3557456732, -0.6601082683, -0.0208360627, -0.4588411748, -0.0750430971, -0.2353493273, -0.0709082782, 0.1502650380, -0.2010443360, 0.0328937396, -0.2214754373, 0.1978324503, 0.1020930260, -0.2284539044, 0.2528128624, 0.1581762135, 0.1049499735, 0.2452320307, 0.0152819920, -0.0916045532, 0.0177864116, -0.1883938164, 0.4135328233, 0.1972249448, -0.1461709291, -0.0025109693, 0.3821328580, 0.2411135137, 0.0898691714, 0.4697779417, 0.0346540548, -0.3124160171, -0.2430335283, -0.4453775585, 0.0027427950, 0.0341710076, 0.0700140670, 0.4530556500, -0.0358958021, 0.0450576469, -0.0384034328, -0.1851619035, -0.1921145618, 0.4143199921, -0.2591014802, -0.3286529183, -0.0259760432, 0.1080543250, 0.0436290540, 0.0373546630, 0.1522335112, -0.2154573351, 0.1948167831, -0.1294303685, 0.5930034518, 0.0372583643, 0.0592428520, 0.0752855763, 0.0247151181, 0.2201301306, 0.0905758366, 0.3837190568, -0.3576546311, -0.2444173694, -0.1178820580, -0.2342876494, 0.0575650372, 0.0827890262, 0.1554009169, -0.2390995175, 0.0552081168, 0.0735397488, -0.0006477685, -0.1317524463, -0.1126533598, -0.1607688367, 0.1096645072, 0.3677883744, -0.0306256097, -0.3112581670, -0.1658068150, -0.0108740618, -0.0098643722, -0.2397615761, -0.2901756167, -0.2338675857, -0.4829344749, -0.0066314265, 0.0440928638, 0.0600211732, 0.2089142054, 0.0127585232, 0.1300197095, -0.0784932226, -0.0586583652, 0.0546309203, 0.1501866728, -0.0912290514, -0.0275962278, -0.3503496349, 0.0175727159, -0.1656566560, -0.0362802483, -0.0566435680, 0.0504266880, 0.0087888036, -0.0492875427, 0.2543876171, 0.0093767336, 1.2257236242, 0.0181385688, -0.1237513572, 0.2647225261, 0.1431497633, 0.0017491293, -0.0693254992, 0.0381628051, -0.1262210011, -0.8422163129, -0.0710574538, -0.1515120417, -0.0504817665, 0.2418682128, 0.0118837515, -0.0166627131, -0.2201008648, 0.0423589051, -0.3162150979, 0.0607891940, -0.0823274553, 0.0090001868, -0.2306054235, -0.0502235442, 0.3743738234, -0.0055734296, -0.0999796167, 0.2189047486, -0.1165647805, -0.1247794405, 0.3042045534, -0.1242216825, 0.8492112756, -0.3174235523, -0.0725345612, 0.1528155208, 0.0778068528, 0.0182539392, -0.1726369262, 0.0930589736, -0.0324767157, -0.3040992618, -0.0482260883, 0.1032234952, -0.0030418085, 0.1959248334, 0.1704145372, 0.0519552827, -0.1814713776, -0.0560383089, -0.5036354661, -0.0732378885, 0.0594875105, 0.0724113658, 0.0066981157, 0.0649825707, -0.1456085443, 0.1750898957, -0.0368934236, 0.1595744193, -0.0529213063, 0.1113311425, 0.1462334096, -0.0164554771, -0.2349516302, -0.0250665657, -0.0712053254, -0.0654372796, -0.0869578794, -0.1110582426, 0.2336928248, 0.1847111285, 0.2370563895, -0.0067813736, 0.1013059765, -0.0376494117, -0.0319016799, -0.0273592100, 0.1678208858, 0.3257178366, -0.0505019203, -0.0327704623, 0.1489462554, 0.2422548681, 0.4986028373, -0.0054222168, 0.6946657896, -0.1125562042, -0.2131172270, -0.1583196074, 0.3619804680, -0.3702759743, -0.0823455155, 0.0206593256, 0.1486847997, 0.0618980713, -0.6185414791, 0.1227368489, -0.0166380033, 0.0874772370, -0.1724004447, -0.0240887739, 0.2652080059, 0.0678444207, 0.0774759874, -0.0298897270, -0.0203967392, 0.0432968065, -0.0239758007, -0.4153511226, 0.1220868826, 0.1097783297, -0.1319535226, -0.0709425434, -0.1456499696, -0.2940078080, 0.5113201737, -0.0276430342, -0.0250035375, 0.0062559494, 0.3002324998, 0.1310377270, 0.0262623038, -0.3773564696, 0.2341509908, 0.0655866265, 0.2115034610, -0.0084430706, -0.4744685292, 0.1026948094, -0.0193957444, 0.0415665098, -0.2034008056, 0.1584228128, 0.1168536395, 0.2110061496, 0.1508763283, -0.3721423745, -0.0024695543, -0.0029425081, 0.0683905631, -0.2558411062, 0.0919282511, 0.2843958139, -0.0915594921, -0.0683226809, -0.7231550217, -0.1813061982, -0.1216625571, 0.0301658604, 0.0220859610, 0.1257998943, -0.0942370817, 0.2587395310, 0.2205090374, -0.0135211479, 0.1034264266, 0.1353830099, -0.2343691736, -0.0108939828, -0.4003017843, -0.0824713707, 0.1796252429, -0.1621855050, -0.1150392964, -0.1077869236, 0.3792034686, -0.4821129441, -0.1561771482, -0.2197937071, 0.0619655810, -0.0461902134, -0.0413686000, -0.0849179178, 0.3590277433, 0.2556390166, 0.1356020421, -0.0119912205, 0.0519838445, 0.3297674358, -0.0869565904, -0.0166503061, 0.2227910012, -0.1158359945, -0.2360276431, -0.2379147112, 0.3376441300, -0.2100491375, 0.0255312137, 0.1744970530, -0.1318339854, 0.1199859828, -0.1821722239, 0.1036202833, 0.0351228975, 0.2169259936, -0.2876811326, -0.0681637749, 0.4535140097, -0.3257208467, -0.1121325791, -0.2679247558, 0.0414309576, -0.0331590697, -0.0258435830, -0.0875503793, 0.1507240087, 0.0783057734, 0.2604359388, 0.2076937407, -0.3913863003, -0.1207311153, 0.4125241637, -0.0296328329, -0.2324466258, 0.0284844860, 0.3893716633, -0.0357820727, -0.0650088117, -0.2495364249, -0.1364821345, 0.0186965950, -0.2039795071, -0.0449316688, 0.0784518197, 0.2423786372, 0.1158856452, 0.1256290078, -0.2150831372, 0.1502339840, 0.2553539276, 0.2164726853, -0.0023817094, -0.3474569023, -0.0513290465, 0.0398186855, 0.0898475200, -0.3255718350, 0.0130832642, 0.0744665712, 0.2636874616, 0.1640561521, -0.4690452516, -0.1869749427, -0.1894428134, 0.0264569037, 0.0016319115, 0.1615715772, -0.2595912814, 0.0876260251, 0.4882662296, -0.0324254595, -0.1461356729, 0.0621160865, -0.4062547386, -0.0865506604, 0.4718425274, -0.0887912810, -0.0267251022, -0.3350490332, -0.0607471727, 0.0025369332, 0.1475701481, 0.0954622403, -0.2362832576, 0.3813667297, -0.0121134566, -0.0468542464, -0.0131786847, 0.1099612936, 0.1574178338, 0.1598087549, -0.1102848202, -0.0345222354, 0.1938086301, 0.1843576282, -0.2200949788, -0.0299132578, -0.1155302525, -0.0351568013, -0.0944718868, -0.1849781871, 0.1584782004, 0.1459784508, -0.0026510851, 0.0539209992, -0.0872460008, 0.1238281056, 0.7074607015, 0.0178119484, -0.0817966238, 0.0946713015, -0.1550623178, 0.0107958149, 0.4458739460, 0.0717807636, -0.1594314575, 0.3521569371, 0.0060429005, -0.0114880363, -0.0590801723, -0.0706454366, -0.0808049366, -0.0122978892, -0.1164269596, 0.0739136487, -0.4543776810, -0.0256071053, -0.0691413134, -0.0222158805, -0.4372011423, -0.0561463162, 0.2728027105, 0.0493327081, -0.0394529365, 0.1278569698, -0.1289426535, 0.0018348284, -0.2641885877, -0.0171663333, 0.5935926437, 0.0730441660, -0.0180483907, 0.1019451618, -0.1998030245, 0.0503138080, 0.1269037426, 0.1302664280, 0.0393335335, 0.3952717185, -0.0068156947, 0.0690378919, 0.0088251447, -0.3152843416, -0.1096513718, 0.0483381785, -0.1238959506, 0.0077361069, -0.0388278924, -0.0618774928, 0.1629741192, 0.0697708502, -0.1549969316, 0.0347303636, -0.1536979079, 0.2325229794, 0.1325704008, 0.0347171128, 0.1568177193};
#endif

#endif
