//Numpy array shape [3, 3, 3, 32]
//Min -1.160754323006
//Max 1.099176764488
//Number of zeros 0

#ifndef W2_H_
#define W2_H_

#ifndef __SYNTHESIS__
conv1_weight_t w2[864];
#else
conv1_weight_t w2[864] = {0.4264502227, 0.1789953262, 0.0413536206, -0.4092729986, -0.0737779662, 0.2898676991, 0.0949017256, -0.5614817739, 0.0486748405, 0.0791177899, -0.0495106056, 0.5336388946, 0.0150582101, 0.2831809521, -0.1884830296, -0.5948337913, -0.0656314865, -0.0138148740, 0.0231948644, -0.5228215456, -0.0699639171, -0.0731416866, 0.1278463155, 0.5305713415, -0.0008113604, 0.3140187860, -0.0640447438, 0.0601125583, -0.1323389113, -0.1274888963, 0.1296167970, -0.1749686599, 0.0877294242, -0.5487390757, -0.3704557717, 0.2425705791, 0.4304761291, -0.1147885621, -0.1687929034, 0.3486131430, -0.0639596432, 0.4172902405, 0.1342018247, -0.3155685067, -0.1237787604, -0.3929497302, 0.0692413673, 0.1512922496, 0.0042080265, -0.5182030201, 0.1684722900, -0.2619968653, 0.0811540335, 0.1997666210, 0.5045700669, 0.3068674505, 0.2771220505, -0.8258730173, 0.1221240088, 0.1136151254, -0.0150855947, -0.5265967250, 0.0348478146, 0.0124673359, 0.8523867130, 0.2284803391, -0.1077284813, 0.6580054760, 0.3178338408, -0.3952340782, 0.0679779500, 0.0550957769, -0.0273180101, 0.1903056800, 0.2137446254, -0.2568046153, -0.0970663950, 0.0680013523, 0.0640783533, 0.8464514613, -0.0605152585, 0.7389163971, 0.2478192598, -0.2419947386, 0.0315820687, 0.1401810199, 0.4138538241, 0.1767229438, -0.6624840498, -0.4660242796, -0.0177615229, 0.0406357199, 0.0934724137, -0.1474963874, 0.0016674397, 0.1031356007, -0.3998212814, 0.5842523575, 0.5214624405, -0.4584620297, -0.6805090308, 0.3423439264, 0.0826499611, -0.0583272576, 0.1376985461, 0.0908889845, -0.0838207304, 0.4965217412, 0.1368005425, 0.3325371444, -0.1049811468, -0.8283001781, -0.0470055491, -0.2167339772, -0.0059692375, -0.5378543139, 0.1137049273, -0.0937587991, -0.5182793140, 0.0621457621, 0.1508467793, 0.2492346317, -0.0481128506, -0.0776374340, 0.0819701850, 0.6221432090, 0.0341506116, -0.1019437239, -0.4983951151, -0.4190140069, 0.2458334714, 0.8073709607, -0.5680283308, 0.1276270300, -0.1165118292, 0.4229739904, 0.1300490350, -0.6321135163, 0.1030536741, -0.1598689258, -0.2936552167, -0.4432895184, 0.0458483733, 0.1377137899, 0.0064083608, -0.5872706175, 0.0847281069, -0.2271975428, -0.0117821153, 0.2410008162, -1.1993807554, -0.3792099953, 0.2489338517, 0.5625247955, -0.0800693706, -0.0149260201, -0.0835091099, 0.5654025674, 0.0014808668, 0.0230756253, -0.1281637102, -0.3153446913, 0.1295540333, 0.1205995753, -0.0116564818, 0.0155599276, 0.0116151096, 0.2967517078, 0.0687189400, -0.1614568979, 0.2256433368, -0.4516193867, 0.2147682011, -0.0794428885, 0.1013645604, 1.2784879208, 0.0354767926, 0.4004370272, 0.1729417890, -0.3695691228, -0.0525534526, 0.2250439376, -0.6648333669, -0.5123983622, 0.2834135890, 0.1691200882, -0.0999740139, -0.1002323776, 0.0416447483, 0.3011144102, 0.0373267978, 0.0200039111, 0.0388193317, 0.5653416514, 0.7087281346, 0.8501481414, 0.3578798473, 0.1520437002, -0.0104847085, -0.2482407689, 0.1337133050, 0.0390854254, -0.1857862175, -0.3707329333, -0.0879110247, 0.2079644650, -0.1938025355, -0.5687147975, -0.1656862795, 0.0979054645, -0.1473858654, -0.2158261836, 0.3675433397, -0.0979392380, 0.6527942419, -0.5666624308, -0.2113265693, -0.5202573538, -0.3170426786, -0.0380435400, 0.1691996157, -0.2178836316, 0.0819325820, -0.0984358639, 0.0768682733, -0.4086996913, 0.3574399352, 0.0409060270, 0.0007474034, 0.0404850021, 0.0495054722, 0.4486356378, -0.1088332236, -0.3936309218, 0.0363582112, 0.0233010035, -0.0064732488, -0.3973474801, -0.0176944509, 0.3013890684, -0.0455937684, -0.3864958286, -0.3324981928, -0.1991397589, -0.0079476200, 0.1386479586, 0.3609615862, -0.8674737215, -0.4772523642, 0.3103364408, 0.1009474993, -0.1318043172, -0.0153363459, -0.4244970083, 0.0435234308, 0.0501499064, 0.1499632150, -0.0300711915, 0.2974935174, -1.3886570930, 0.5936677456, -0.4729254842, -0.0424572937, 0.3913644850, 0.0299024191, 0.2821927965, 0.3210363984, 0.2200295180, 0.1417182237, 0.3938249052, 0.0507190451, 0.8260880113, -0.0653066635, 0.3020540178, -0.0011376186, -0.0827079490, -0.4707593620, 0.1403732151, 0.2548442483, -0.8255338669, 0.2480299175, 0.1880711019, -0.0731069818, 0.0873536021, -0.0965731591, -0.0947260484, 0.0317177549, -0.0020222643, -0.1312597990, 0.5991700888, 0.2101076543, -0.7936303020, -0.4147876203, -0.0771898180, -0.1151505038, 0.0728008673, 0.1512816250, 0.2098752260, -0.0976573825, 0.5398119688, -0.2654766142, -0.1017170623, 0.0989222303, -0.0796478912, -0.0966122299, 0.1129814237, -0.0165882483, 0.2505522966, -0.1566072553, -0.3296573162, 0.1102480367, 0.1157983467, 0.2664104104, -0.9304716587, -0.2038066089, 0.0227769446, 0.0547536910, -0.6366971731, 0.0352907702, -0.1631201804, -0.1520266384, -0.4663116634, 0.2466499656, -0.0241479184, -0.5376993418, 0.0170641504, 0.1669376493, 0.3551298380, -0.1332719624, 0.6440195441, 0.0178041607, -0.2432153970, -0.3383941650, -0.1247276440, -0.0247401875, -0.2233015150, 0.0774872452, 0.1440957934, 0.1300752461, 0.1644815952, 0.0842968896, -0.2267356515, 0.6715876460, -0.2045688331, 0.4749099314, -1.3902037144, -0.1234006658, 0.0788695291, 0.0920276865, -0.0147626130, -0.0582809821, -0.0033495235, -0.1752642095, -0.1113952622, 0.2103885859, 0.6861234903, -0.5138406754, -0.3604956567, -0.0568814464, 0.0776680112, 0.1928908080, 0.1428748816, -0.0736557543, 0.0174678992, -0.9917630553, 0.2350570410, -0.0795087740, 0.2925781310, -0.0187255442, 0.3015307784, 0.2160910964, -0.0286509003, 0.2284868509, 0.1915774345, 0.4573686421, -0.0565278754, -0.3553955555, -0.6346313953, -0.1867080331, -0.0249926262, 0.1294820607, -0.4395895600, -0.0635122806, 0.1460209042, -0.3956305385, 0.8435981870, -0.3647598028, -0.6918700337, 1.8613188267, 0.2471690327, -0.1358758509, 0.0301071182, 0.0639192834, 0.2407298088, -0.0098593719, 0.2934488952, 0.3735101521, 0.1293456703, 0.2343910784, 0.1335252225, -0.2679790556, 0.2789513469, -0.1027738824, 0.0604996122, -0.1098982319, -0.3895705342, -0.6917684078, 0.2045522630, -0.1798443198, 0.5331271887, 0.0619902536, -0.0486786142, 0.1292144805, 0.6327816248, 0.1291209608, -0.1153621897, -0.0864867568, -0.5047844648, -0.4480207562, 0.3336796761, 1.0402239561, 0.3479674757, 0.2706922889, 0.5494621992, -0.1792303026, -0.2529924810, -0.0233592764, 0.1541575342, 0.4639545977, -0.2758633196, 0.0579015985, 0.1444001049, -0.0184293743, 0.4005757272, -0.1198706031, 0.1099364758, -0.0232637916, -0.2724971473, -1.0076043606, -0.0724950209, -0.3461636603, 0.4737442732, 0.1057993993, 0.0125407930, -0.1520445198, 0.8708035946, 0.0542862229, 0.0460655242, -0.5770190358, -0.5841545463, -0.2305879891, 0.9328723550, 0.8998653293, 0.1133493632, -0.1104968190, 0.1685041487, 0.2421469539, -0.1649917066, -0.0843474492, -0.0769102499, 0.6450744867, -0.0843118727, -0.0449281111, 0.6959869862, 0.0858218893, 0.3289314508, 0.3710512221, -0.0238161534, 0.1680485606, 0.0012460134, -0.6760963202, -0.0005984925, -0.2227268666, 0.6617475152, 0.1633807868, -0.1242265627, 0.1806784123, 0.4001304805, 0.0851270929, 0.1018538103, 0.2079291195, 0.7661466002, -0.4047181904, 0.7558916211, -0.5753431916, 0.0614276677, -0.2403491735, -0.1770833880, 0.1775042713, -0.2211411446, 0.0092294505, -0.4451926351, -0.1321661174, 0.0366384014, 0.1912153959, -0.2411754578, -0.1869748533, 0.3796236515, -0.1817350686, 0.2623846233, 0.1354788989, -0.2082439661, 0.4027923942, -0.0149685126, 0.1013930812, 0.2582478225, -0.1508733183, 0.0635723993, 0.0112014031, -0.5348238945, 0.0062334239, -0.0659470409, 0.5589783192, -0.2488794476, -0.4782653451, -0.1084718183, -0.7042039037, -0.0151232285, 0.4419080615, 0.5452582836, -0.2216231376, -0.2675415576, -0.0235300176, 0.3920144439, -0.0356633030, -0.2903545797, -0.0348745435, 0.0374182574, 0.1105832458, 0.2866112590, -0.2538625002, 0.0312120467, 0.0504535325, -0.1177227125, 0.6165717840, 0.1563396603, -0.2233734429, 0.9690974951, 0.2007383257, -0.0734163746, -0.2485430390, -0.2174304277, -0.0681409612, 0.0514270440, 0.0299878120, -0.5714517832, -0.2715667486, -1.0058184862, -0.9852797389, -0.5109096169, -0.2259220034, 0.3430139720, 0.2262825817, 0.1233124137, 0.0539571755, 0.3362484276, 0.2291554213, 0.4038328826, -0.0946652740, 0.2827872634, 0.1593676805, -0.1193217039, 0.3147047460, 0.0891529545, -0.3572795391, 0.0362338051, 0.3758006096, 0.0797952861, 0.6322047114, -0.0124921352, 0.4194260538, 0.0462822020, -0.5339319110, -0.2306528836, -0.0482784100, 0.0689452812, -0.2947849929, -0.4178434312, -0.1826776862, -1.1210938692, 0.5299788713, -0.5531562567, -0.1866622120, 0.3534770906, -0.0356182195, -0.2689016461, 0.0353671424, -0.1211744994, 0.0098704919, 0.1044649184, 0.2529989779, 0.2355465740, 0.0462667309, 0.1532961130, -0.0115431817, 0.2783385515, -0.1762467027, -0.0176066458, 0.1204436272, -0.5644767880, 0.2056571841, -0.0417977646, 0.1879504472, 0.0955003873, 0.1030449495, -0.1862379760, 0.0279645137, 0.0546367951, -0.5017900467, 0.0732301250, 0.1099615097, 0.2660564780, 0.4232341349, 0.0043079285, 0.2603290677, -0.7240045667, 0.1044232398, 0.3232950568, -0.0894951820, -0.1849107444, 0.0713495910, -0.2841397226, -0.0020964479, -0.1810890883, 0.1887543947, 0.6104852557, -0.0482133403, 0.4989134073, 0.0645732135, 0.0583163984, 0.4938215911, -0.3638918996, 0.6872050762, -0.0922254547, -0.0258202683, 0.1418065131, 0.0370957069, -0.3013179004, 0.0858023763, -0.2136637121, -0.8180760145, 0.6203206182, -0.0642841831, 1.5363998413, 0.1697614938, 0.5187065601, -0.1003574803, 0.0341453589, -0.1082608774, -0.1150374264, -0.2616001666, 0.1356838048, -0.5235053301, 0.0682909712, -0.1530336589, -0.4851962328, 0.0235219095, -0.3754156232, 0.1122441813, 0.1019487754, 0.1089442894, -0.0751538873, 0.3128954172, -0.2624486983, -0.1615943611, 0.0588277355, 0.2846855521, 0.0897787735, 0.2520966232, -0.2639632821, -0.0500156209, 0.0515712053, -0.0302248076, -0.3242664933, -0.0680985674, -1.5427434444, -0.9974514246, -0.2022826672, -0.2361025363, -0.0147072226, -0.1079853103, 0.4507487118, 0.2029007822, -0.2382246554, 0.0533309691, 0.4506932795, 0.2913173735, 0.7145391703, -0.2444968522, -0.1353831887, -0.3224723637, 0.2096468210, -0.0895511582, 0.1785391569, -0.4583984613, 0.0511494763, -0.5923683047, -0.0111613367, -0.0422398597, -0.0504510105, 0.3554664254, 0.6764747500, -0.0449746437, 0.0669455603, 0.2770139873, 0.0244328640, 0.0065099858, -0.0196479224, -0.6885117888, 0.4502862692, 0.4396020174, -0.9872768521, 0.0416187793, -0.1648740023, -0.0709144473, -0.0751025751, 0.1356488615, -0.2027495354, 0.0283532236, 0.1916994303, 0.0751789883, 0.1101704910, -0.2937573493, 0.4328859150, -0.0091986498, 0.1681210250, -0.9286574125, 0.4228230417, -0.5211045146, 0.1201438755, -0.0821787938, 0.0163033884, 0.0040257634, 0.3956667483, 0.1391538233, -0.1594254524, -0.1725825220, 0.0119594494, 0.0519597232, 1.6081690788, -0.7573499680, 0.9414242506, -0.2060788572, -0.5671626925, -0.1190369949, 0.0384676084, -0.5151779652, 0.0062658223, 0.4861575365, -0.0567222908, -0.1031835526, -0.4663893282, 0.1697473079, -0.5482129455, 0.0584356450, 0.3410423994, -0.0377668664, -0.0161450896, -0.5291965604, 0.4896761179, -0.2494791895, 0.4310786724, 0.4561545253, -0.0688754469, 0.5939338803, 0.3598491251, -0.1057521552, 0.0714282393, 0.2502409518, -0.3230122924, -0.2940608859, 0.1293589622, 0.6111943126, -0.3657083213, -0.3475432694, 0.4604091942, -0.0753109455, -0.3063025177, 0.0481050909, -0.4956796765, -0.0928192437, 0.1971376240, 0.2894226015, 0.3065006137, -0.2462588102, 0.2975091338, -0.1652636528, 0.0129405838, 0.1902132183, 0.1509096771, 0.2683913112, 0.2868855298, 0.2813593149, -0.0334337838, -0.5257965922, -0.0319428332, -0.1184718460, -0.3028352559, -0.0714855045, 0.0769326612, 0.4478799403, 0.4397942424, -0.1124909818, -0.0890046880, 0.5161113739, 0.4173862934, 0.6243355274, -0.9626271129, 0.0293025114, -0.3037218451, 0.0020056868, 0.0731533095, -0.0334387049, -0.6215707064, 0.0094386991, 0.2404137999, 0.1024902984, 0.0116018904, 0.0645011887, -0.0257110968, 0.3108302355, 0.0749219954, 0.5101153851, 0.9278708696, -0.1353328526, 0.0346620716, -0.1572726667, -0.1328864843, -0.2313164920, -0.3438107669, 0.1456728280, -0.2111669928, 0.0817424282, 0.1332888454, 0.1332305819, 0.0756792724, 0.4790521562, 0.3811195493, -0.3298899233, -0.8189942837, -0.0270257425, -0.1571853906, -0.4553914368, 0.1720667779, -0.0396230966, 0.0172980241, -0.1776307523, -0.8355501890, 0.1020623073, -0.7643083334, 0.3032377660, 0.1092937440, -0.5907319188, -0.0044713411, 0.1010207534, 0.7905460596, 0.5824314356, -0.4612425268, 0.2640367448, -0.0020769527, -0.5086599588, -0.2447619885, -0.0101706553, -0.1107361093};
#endif

#endif
